
// this file is autogenerated
// @ts-nocheck
/* eslint-disable */

export const substrings = ["1","2","3","5","7","8","9","10","load","spin","puls","captcha","recaptcha","passwor","auth","pas","ssw","rname","-login",".com/l","ogin","userna","signup","in_","sign-","goog","valid","word","goo","ass","-form","submit","rna","-for","bmi","ern","mit","gin","sw","sign","aut","subm","wor","input-","gi","wo","-input","d ng-","ema","/lo","npu","put","mail","inp","/l","log","fie","np","iel","footer","ign","eld","val","lid","ord","for","rn","bm","-lo","d n","orm","gn","ert","ort","vg","e_","edi","/d","at","le-","vi","e-b","out","ep","nt ","sa","mal"," te","ry","fe","de","/m","ly","-le","ey","ist","ver"," h","eb","ov","unt","ns","tk","gg","ele","no","pan","ll-","_p","-h","ive","do","dd","ad","_c","na","ge","sma","left","lec","-d","ct","t-s","cs","en","sel","me","ea","ag","din","es"," w","lect","on-","ca","age","ta","ted","pen","ti","dr","rk","-md","ls","rv","r-","der-","io","k-","acc","wid","ion","select","v-","ga","ty","ay","-se","main","tion","ic","-de","_3","pla","le ","ggle","ba","tu","rea","#","ove","lt","el-","nd","ue","r-b","t-i","tiv","not","ex-","hel","xs","ite","ale","e__","/e","toggle","pi","vb","tl","cl","ab","_n","nse","itl","-fl","ar"," d","-he"," no"," _","-ic","ven","ten","onte","rc","nten","vat","ice","tent","lp","conte","r-s","v ","cco","r-in","n-t","bi","-tr","on_","ing","oun","cou","cat","tle","bs","dro","ico","-me","_a","cal","icon","_t","act","-hea","ount"," fa","-ca","sec","pb","icon ","yl","style","ick","ting","tem","em ","est","pd","on i","our","me-","cti","dow","scr","a f","yp","item","ip","_d","l-md","ear","-icon ","acti","item ","tit","min","get","ane","ide","on--","button--","tat","e/","ion-","ke","-n","lis","sta","ins","ind","md-","list","sh","oa","s-c","add","av","wn","fa ","section","_1","ions","oll","pop","ho","activ","own","icon i","nel","anel","tions","-ti","avi","ar-","per-","panel-","bb","ar-i","nt-","ent-","ill","ka","pro","u-","_item","bar","-it","stat","t-t","ana","rdi","a-","-sec","rop","own-","ard","men","-item","-list","bar-","ble","-sta","dg","tar","da","-title","-do","enu","hu","wd"," ac","item-","tar-","ile","-star","sea","erv","ata","tri","ntent-","ctl","inc","ng-st","nt_","_2","--f","gs","rte","end","hb","sid","rch"," icon","dge","eh","les","___","old"," icon-","r-n","-flex","-na","oar","arc","v_","abl","icon_","__item","nco","das","ent_","ngs","ome","content_","fil","k-icon","ash","-header-","ncont","s_","-pro","ava","_cl","r-na","tab","incont","eba","lte","hbo","s1","je","k-a","ebar","nda","on--f","__cls1","board-","button--f","deb","ject","oj","-ta","styles","gen","menu-","home","s__","sidebar-","t_c","stic","ncontent","oje","fk","tis","avatar","hot","roje","-nav_","maincont","incontent","es_","nav__","agen","enda","--fk","fk-","gend"];
export const attributes = ["class","id","href","style","type","tabindex","role","viewbox","d","name","fill","width","target","xmlns","title","src","height","value","data-spec","aria-label","rel","placeholder","aria-hidden","data-qa","display","lang","alt","focusable","for","autocomplete","fill-rule","data-key","data-locale-at-render","method","data-testid","action","jsname","aria-expanded","day","dir","jsaction","aria-labelledby","data-columnid","draggable","aria-haspopup","novalidate","required","aria-disabled","data-fa-i2svg","data-columnindex","jsslot","data-columntype","autocapitalize","aria-selected","maxlength","jscontroller","onclick","data-test-id","data-icon","data-v-26b89f62","ng-if","version","data-value","xmlns:xlink","data-prefix","data-menu-item","aria-describedby","data-button-use","autofocus","aria-current","transform","ui-sref","data-toggle","scrolling","spellcheck","frameborder","disabled","data-v-40e3a2e9","stroke","align","data-automation","ng-class","label","stroke-width","sandbox","autocorrect","size","data-focusable","x","y","data-component","data-reactid","xlink:href","ng-click","points","accept-charset","data-style","data-provider","ng-href","ng-model"];
export const networkDef = {"sizes":[538,32,64,16,4,1],"layers":[{"0":{},"1":{},"2":{},"3":{},"4":{},"5":{},"6":{},"7":{},"8":{},"9":{},"10":{},"11":{},"12":{},"13":{},"14":{},"15":{},"16":{},"17":{},"18":{},"19":{},"20":{},"21":{},"22":{},"23":{},"24":{},"25":{},"26":{},"27":{},"28":{},"29":{},"30":{},"31":{},"32":{},"33":{},"34":{},"35":{},"36":{},"37":{},"38":{},"39":{},"40":{},"41":{},"42":{},"43":{},"44":{},"45":{},"46":{},"47":{},"48":{},"49":{},"50":{},"51":{},"52":{},"53":{},"54":{},"55":{},"56":{},"57":{},"58":{},"59":{},"60":{},"61":{},"62":{},"63":{},"64":{},"65":{},"66":{},"67":{},"68":{},"69":{},"70":{},"71":{},"72":{},"73":{},"74":{},"75":{},"76":{},"77":{},"78":{},"79":{},"80":{},"81":{},"82":{},"83":{},"84":{},"85":{},"86":{},"87":{},"88":{},"89":{},"90":{},"91":{},"92":{},"93":{},"94":{},"95":{},"96":{},"97":{},"98":{},"99":{},"100":{},"101":{},"102":{},"103":{},"104":{},"105":{},"106":{},"107":{},"108":{},"109":{},"110":{},"111":{},"112":{},"113":{},"114":{},"115":{},"116":{},"117":{},"118":{},"119":{},"120":{},"121":{},"122":{},"123":{},"124":{},"125":{},"126":{},"127":{},"128":{},"129":{},"130":{},"131":{},"132":{},"133":{},"134":{},"135":{},"136":{},"137":{},"138":{},"139":{},"140":{},"141":{},"142":{},"143":{},"144":{},"145":{},"146":{},"147":{},"148":{},"149":{},"150":{},"151":{},"152":{},"153":{},"154":{},"155":{},"156":{},"157":{},"158":{},"159":{},"160":{},"161":{},"162":{},"163":{},"164":{},"165":{},"166":{},"167":{},"168":{},"169":{},"170":{},"171":{},"172":{},"173":{},"174":{},"175":{},"176":{},"177":{},"178":{},"179":{},"180":{},"181":{},"182":{},"183":{},"184":{},"185":{},"186":{},"187":{},"188":{},"189":{},"190":{},"191":{},"192":{},"193":{},"194":{},"195":{},"196":{},"197":{},"198":{},"199":{},"200":{},"201":{},"202":{},"203":{},"204":{},"205":{},"206":{},"207":{},"208":{},"209":{},"210":{},"211":{},"212":{},"213":{},"214":{},"215":{},"216":{},"217":{},"218":{},"219":{},"220":{},"221":{},"222":{},"223":{},"224":{},"225":{},"226":{},"227":{},"228":{},"229":{},"230":{},"231":{},"232":{},"233":{},"234":{},"235":{},"236":{},"237":{},"238":{},"239":{},"240":{},"241":{},"242":{},"243":{},"244":{},"245":{},"246":{},"247":{},"248":{},"249":{},"250":{},"251":{},"252":{},"253":{},"254":{},"255":{},"256":{},"257":{},"258":{},"259":{},"260":{},"261":{},"262":{},"263":{},"264":{},"265":{},"266":{},"267":{},"268":{},"269":{},"270":{},"271":{},"272":{},"273":{},"274":{},"275":{},"276":{},"277":{},"278":{},"279":{},"280":{},"281":{},"282":{},"283":{},"284":{},"285":{},"286":{},"287":{},"288":{},"289":{},"290":{},"291":{},"292":{},"293":{},"294":{},"295":{},"296":{},"297":{},"298":{},"299":{},"300":{},"301":{},"302":{},"303":{},"304":{},"305":{},"306":{},"307":{},"308":{},"309":{},"310":{},"311":{},"312":{},"313":{},"314":{},"315":{},"316":{},"317":{},"318":{},"319":{},"320":{},"321":{},"322":{},"323":{},"324":{},"325":{},"326":{},"327":{},"328":{},"329":{},"330":{},"331":{},"332":{},"333":{},"334":{},"335":{},"336":{},"337":{},"338":{},"339":{},"340":{},"341":{},"342":{},"343":{},"344":{},"345":{},"346":{},"347":{},"348":{},"349":{},"350":{},"351":{},"352":{},"353":{},"354":{},"355":{},"356":{},"357":{},"358":{},"359":{},"360":{},"361":{},"362":{},"363":{},"364":{},"365":{},"366":{},"367":{},"368":{},"369":{},"370":{},"371":{},"372":{},"373":{},"374":{},"375":{},"376":{},"377":{},"378":{},"379":{},"380":{},"381":{},"382":{},"383":{},"384":{},"385":{},"386":{},"387":{},"388":{},"389":{},"390":{},"391":{},"392":{},"393":{},"394":{},"395":{},"396":{},"397":{},"398":{},"399":{},"400":{},"401":{},"402":{},"403":{},"404":{},"405":{},"406":{},"407":{},"408":{},"409":{},"410":{},"411":{},"412":{},"413":{},"414":{},"415":{},"416":{},"417":{},"418":{},"419":{},"420":{},"421":{},"422":{},"423":{},"424":{},"425":{},"426":{},"427":{},"428":{},"429":{},"430":{},"431":{},"432":{},"433":{},"434":{},"435":{},"436":{},"437":{},"438":{},"439":{},"440":{},"441":{},"442":{},"443":{},"444":{},"445":{},"446":{},"447":{},"448":{},"449":{},"450":{},"451":{},"452":{},"453":{},"454":{},"455":{},"456":{},"457":{},"458":{},"459":{},"460":{},"461":{},"462":{},"463":{},"464":{},"465":{},"466":{},"467":{},"468":{},"469":{},"470":{},"471":{},"472":{},"473":{},"474":{},"475":{},"476":{},"477":{},"478":{},"479":{},"480":{},"481":{},"482":{},"483":{},"484":{},"485":{},"486":{},"487":{},"488":{},"489":{},"490":{},"491":{},"492":{},"493":{},"494":{},"495":{},"496":{},"497":{},"498":{},"499":{},"500":{},"501":{},"502":{},"503":{},"504":{},"505":{},"506":{},"507":{},"508":{},"509":{},"510":{},"511":{},"512":{},"513":{},"514":{},"515":{},"516":{},"517":{},"518":{},"519":{},"520":{},"521":{},"522":{},"523":{},"524":{},"525":{},"526":{},"527":{},"528":{},"529":{},"530":{},"531":{},"532":{},"533":{},"534":{},"535":{},"536":{},"537":{}},{"0":{"bias":-0.069004,"weights":{"0":0.035041,"1":0.057069,"2":-0.239893,"3":-0.103884,"4":-0.035249,"5":-0.180068,"6":0.075841,"7":-0.062967,"8":0.027865,"9":0.303567,"10":-0.122542,"11":0.076209,"12":0.021311,"13":0.278623,"14":0.018802,"15":0.368342,"16":0.313976,"17":0.167821,"18":0.220347,"19":0.584726,"20":0.429395,"21":0.028271,"22":-0.061191,"23":0.074932,"24":0.339386,"25":0.23721,"26":0.109439,"27":-0.026222,"28":0.069776,"29":-0.036773,"30":-0.078138,"31":-0.000867,"32":0.049763,"33":-0.10066,"34":0.164188,"35":-0.115948,"36":0.268991,"37":0.42657,"38":-0.05096,"39":0.352831,"40":-0.070911,"41":0.047355,"42":0.251527,"43":0.20168,"44":0.673092,"45":0.13992,"46":0.110291,"47":-0.058271,"48":0.293616,"49":0.135388,"50":0.212306,"51":0.082477,"52":0.102907,"53":0.249645,"54":0.32148,"55":0.159289,"56":-0.225318,"57":0.097244,"58":0.139387,"59":-0.091819,"60":0.05962,"61":0.04615,"62":-0.067738,"63":0.183842,"64":0.091788,"65":-0.013916,"66":0.319263,"67":0.021869,"68":0.006793,"69":-0.146758,"70":0.24611,"71":-0.019482,"72":-0.166687,"73":0.143172,"74":-0.289746,"75":0.192876,"76":0.068153,"77":-0.181617,"78":-0.171364,"79":-0.000527,"80":0.011693,"81":0.306508,"82":0.099888,"83":-0.018719,"84":0.242538,"85":-0.193854,"86":-0.248718,"87":-0.136701,"88":-0.093603,"89":-0.157919,"90":0.181333,"91":-0.375,"92":0.030716,"93":-0.034091,"94":-0.028779,"95":0.018703,"96":-0.247764,"97":-0.010966,"98":-0.054573,"99":0.259275,"100":0.220216,"101":-0.334592,"102":-0.21261,"103":0.244329,"104":0.105336,"105":0.043649,"106":0.087997,"107":-0.026404,"108":-0.158879,"109":0.097683,"110":0.120875,"111":-0.121868,"112":0.095647,"113":-0.484473,"114":-0.01836,"115":-0.166348,"116":-0.179574,"117":-0.02241,"118":-0.063945,"119":-0.043793,"120":0.257991,"121":0.168885,"122":0.004072,"123":-0.094285,"124":-0.053261,"125":-0.10583,"126":0.463719,"127":-0.048893,"128":-0.061575,"129":0.068678,"130":-0.283768,"131":0.077522,"132":-0.038668,"133":-0.323068,"134":0.071481,"135":-0.152414,"136":0.024807,"137":0.385177,"138":-0.109425,"139":0.138753,"140":-0.095807,"141":-0.009591,"142":-0.075472,"143":-0.140761,"144":-0.250617,"145":0.097234,"146":-0.254411,"147":0.214564,"148":0.075058,"149":0.262727,"150":0.05585,"151":0.181257,"152":-0.187126,"153":-0.031974,"154":-0.392023,"155":0.303215,"156":0.069128,"157":0.186689,"158":0.063843,"159":0.015361,"160":0.158785,"161":-0.128004,"162":0.314109,"163":0.190366,"164":-0.134636,"165":-0.196025,"166":0.140294,"167":0.029879,"168":0.007597,"169":0.014452,"170":0.189785,"171":-0.097222,"172":0.390485,"173":0.223602,"174":-0.117225,"175":0.177288,"176":-0.021729,"177":-0.158044,"178":-0.095939,"179":-0.030677,"180":-0.083552,"181":-0.096078,"182":0.079221,"183":0.09411,"184":-0.029093,"185":-0.221636,"186":-0.147877,"187":-0.131738,"188":-0.286503,"189":0.120902,"190":-0.14592,"191":-0.42564,"192":-0.415053,"193":0.0021,"194":-0.17794,"195":0.203992,"196":-0.150282,"197":0.128771,"198":0.094684,"199":-0.211358,"200":-0.319981,"201":0.158677,"202":-0.050192,"203":-0.205441,"204":-0.141996,"205":-0.369579,"206":0.061486,"207":-0.003277,"208":-0.316267,"209":0.093643,"210":-0.106214,"211":-0.080052,"212":0.152794,"213":-0.187057,"214":-0.115902,"215":-0.020112,"216":-0.415316,"217":-0.348729,"218":-0.296669,"219":-0.135775,"220":-0.287352,"221":0.172501,"222":0.05928,"223":0.018383,"224":-0.045512,"225":-0.094682,"226":-0.093183,"227":-0.07916,"228":-0.140359,"229":-0.213626,"230":0.001704,"231":-0.161741,"232":0.197994,"233":-0.252545,"234":-0.14706,"235":0.152271,"236":0.265213,"237":-0.119897,"238":0.156444,"239":0.105083,"240":-0.169083,"241":-0.061952,"242":0.149797,"243":-0.021018,"244":-0.220958,"245":0.059903,"246":0.263706,"247":-0.059297,"248":0.038403,"249":-0.061952,"250":-0.189821,"251":0.112583,"252":0.008688,"253":0.027052,"254":0.004997,"255":-0.071122,"256":-0.159915,"257":0.129717,"258":-0.328092,"259":-0.003061,"260":0.115611,"261":0.183822,"262":-0.137197,"263":-0.187639,"264":0.026368,"265":-0.046477,"266":0.108816,"267":0.41228,"268":-0.157233,"269":0.092524,"270":0.096646,"271":-0.079084,"272":0.093978,"273":0.136599,"274":-0.157729,"275":-0.299444,"276":-0.25141,"277":-0.109894,"278":0.199885,"279":0.057074,"280":0.0902,"281":-0.238782,"282":-0.083094,"283":0.029737,"284":-0.010414,"285":-0.149737,"286":0.057168,"287":-0.256593,"288":-0.120973,"289":-0.101212,"290":-0.062179,"291":0.040756,"292":-0.119914,"293":-0.000883,"294":0.173335,"295":0.356977,"296":-0.282233,"297":-0.172135,"298":-0.09057,"299":0.000404,"300":0.140392,"301":0.055753,"302":0.048601,"303":0.014335,"304":-0.110178,"305":-0.249814,"306":0.038562,"307":-0.009601,"308":0.070489,"309":0.05132,"310":-0.139109,"311":-0.207107,"312":-0.049995,"313":-0.021977,"314":-0.289568,"315":-0.015641,"316":-0.06002,"317":0.230292,"318":-0.038853,"319":0.037812,"320":-0.335074,"321":-0.17478,"322":-0.0021,"323":-0.124999,"324":-0.227675,"325":-0.01946,"326":-0.027622,"327":-0.103561,"328":-0.001189,"329":0.10171,"330":-0.002365,"331":-0.241987,"332":-0.027779,"333":0.065816,"334":0.090104,"335":0.115758,"336":-0.103072,"337":-0.197399,"338":-0.097644,"339":-0.282715,"340":-0.14368,"341":-0.141175,"342":0.039128,"343":-0.247688,"344":0.097594,"345":0.147723,"346":0.102533,"347":-0.101228,"348":0.143077,"349":0.001519,"350":-0.399286,"351":-0.008714,"352":-0.124484,"353":-0.260354,"354":0.059865,"355":0.233919,"356":-0.116042,"357":-0.290119,"358":0.340552,"359":0.068848,"360":-0.178375,"361":-0.210107,"362":0.121057,"363":0.080107,"364":0.136102,"365":-0.196662,"366":0.320258,"367":-0.036652,"368":0.000389,"369":-0.118092,"370":0.023632,"371":-0.040274,"372":-0.157735,"373":-0.052766,"374":0.123154,"375":-0.130568,"376":-0.394882,"377":0.01171,"378":0.027491,"379":0.00846,"380":0.162147,"381":-0.075633,"382":0.086068,"383":-0.045302,"384":0.024738,"385":0.012457,"386":0.096042,"387":0.148015,"388":0.179516,"389":-0.06827,"390":-0.146797,"391":-0.317661,"392":0.019543,"393":-0.165791,"394":0.237082,"395":-0.128356,"396":0.072023,"397":-0.061851,"398":-0.197687,"399":-0.166728,"400":-0.138987,"401":-0.197021,"402":-0.008344,"403":0.183737,"404":-0.063048,"405":0.008281,"406":0.119205,"407":0.306808,"408":0.196437,"409":0.044453,"410":-0.126959,"411":-0.259171,"412":-0.007274,"413":0.146078,"414":0.12914,"415":0.104198,"416":0.117001,"417":0.050583,"418":-0.009976,"419":0.033195,"420":-0.133287,"421":-0.112264,"422":0.003914,"423":0.189902,"424":-0.049508,"425":0.06705,"426":0.078345,"427":-0.132705,"428":-0.164411,"429":0.036436,"430":-0.026641,"431":0.014923,"432":0.160276,"433":0.134036,"434":0.111348,"435":0.021989,"436":0.117048,"437":0.183618,"438":0.044012,"439":-0.005679,"440":0.145087,"441":0.199066,"442":0.102867,"443":-0.117291,"444":0.062266,"445":-0.104941,"446":0.343462,"447":0.280876,"448":-0.009159,"449":0.023969,"450":-0.02876,"451":-0.076858,"452":0.111848,"453":-0.306741,"454":-0.231326,"455":0.109711,"456":0.028545,"457":-0.180716,"458":0.08982,"459":0.186794,"460":-0.229904,"461":0.04943,"462":0.080128,"463":0.280264,"464":-0.00618,"465":-0.190321,"466":0.0666,"467":0.141255,"468":-0.150027,"469":0.002669,"470":-0.159274,"471":-0.025643,"472":0.088096,"473":-0.149998,"474":0.139528,"475":0.089872,"476":0.172903,"477":-0.119638,"478":0.210215,"479":-0.05724,"480":-0.040873,"481":0.151578,"482":0.10552,"483":0.125263,"484":0.103812,"485":-0.170671,"486":-0.06895,"487":0.032278,"488":-0.073741,"489":0.048543,"490":0.111355,"491":0.05833,"492":0.107339,"493":-0.042053,"494":0.125276,"495":-0.040529,"496":-0.033205,"497":-0.197006,"498":-0.208063,"499":-0.140925,"500":-0.159004,"501":-0.001747,"502":-0.155766,"503":0.186338,"504":0.132755,"505":0.173138,"506":0.055629,"507":0.067587,"508":-0.0595,"509":-0.110623,"510":0.00311,"511":-0.008425,"512":0.184532,"513":0.171645,"514":-0.044913,"515":0.154349,"516":0.109762,"517":-0.220023,"518":-0.120671,"519":0.130326,"520":0.096444,"521":-0.060314,"522":0.221092,"523":-0.085564,"524":0.015695,"525":0.142432,"526":0.019097,"527":0.194426,"528":0.065559,"529":-0.128622,"530":-0.00491,"531":-0.277946,"532":-0.171198,"533":-0.050509,"534":-0.102162,"535":0.022113,"536":-0.142637,"537":-0.027116}},"1":{"bias":0.009541,"weights":{"0":0.008546,"1":0.065507,"2":-0.031801,"3":0.020661,"4":-0.027504,"5":-0.108957,"6":-0.139892,"7":-0.204184,"8":0.061363,"9":-0.188022,"10":-0.010141,"11":-0.124071,"12":-0.182113,"13":0.198041,"14":-0.027635,"15":-0.109061,"16":0.163532,"17":0.16363,"18":-0.117131,"19":-0.098989,"20":0.116478,"21":0.124077,"22":-0.068082,"23":-0.119527,"24":0.099017,"25":-0.162222,"26":-0.137116,"27":-0.180075,"28":-0.101958,"29":-0.155866,"30":0.179679,"31":-0.097595,"32":-0.001016,"33":-0.034342,"34":0.148021,"35":-0.007774,"36":0.038111,"37":0.093339,"38":-0.133377,"39":0.081204,"40":0.16596,"41":-0.113191,"42":-0.102516,"43":-0.099615,"44":-0.159702,"45":-0.00001,"46":0.076809,"47":0.153188,"48":0.112866,"49":-0.110204,"50":-0.041709,"51":-0.028792,"52":0.029803,"53":-0.182681,"54":-0.076258,"55":-0.047898,"56":-0.0171,"57":-0.044196,"58":-0.185329,"59":0.163876,"60":-0.051902,"61":0.067996,"62":-0.092387,"63":0.092713,"64":-0.014729,"65":-0.054141,"66":-0.228404,"67":-0.203474,"68":0.171503,"69":0.054314,"70":0.110746,"71":0.124502,"72":0.087031,"73":0.102609,"74":0.015413,"75":0.154474,"76":0.01912,"77":0.03997,"78":0.146887,"79":-0.126758,"80":-0.081044,"81":0.050609,"82":0.20965,"83":-0.285341,"84":0.049991,"85":-0.111719,"86":0.152136,"87":0.00248,"88":0.172444,"89":0.188909,"90":0.032569,"91":-0.050818,"92":0.020245,"93":0.185757,"94":0.006096,"95":0.165849,"96":-0.018464,"97":-0.114903,"98":0.123283,"99":0.078325,"100":0.130617,"101":0.091908,"102":0.132687,"103":0.094888,"104":0.080606,"105":0.13091,"106":0.02535,"107":0.016347,"108":0.125077,"109":0.140282,"110":-0.193633,"111":0.028232,"112":-0.020371,"113":0.20815,"114":0.123213,"115":-0.230595,"116":0.16251,"117":0.129571,"118":0.188473,"119":-0.087763,"120":-0.068905,"121":-0.016707,"122":-0.220031,"123":-0.19347,"124":-0.11562,"125":0.152241,"126":-0.020132,"127":-0.156255,"128":-0.198034,"129":0.121618,"130":0.003849,"131":-0.073824,"132":0.134304,"133":-0.069196,"134":-0.103174,"135":-0.177897,"136":-0.220207,"137":-0.193218,"138":0.097868,"139":0.136562,"140":0.058917,"141":-0.10166,"142":0.123613,"143":0.001808,"144":0.113855,"145":0.197678,"146":0.006577,"147":0.105164,"148":0.054522,"149":0.130501,"150":-0.170559,"151":-0.105388,"152":-0.15195,"153":-0.139178,"154":0.014891,"155":0.095956,"156":-0.154559,"157":-0.146726,"158":-0.152049,"159":0.129869,"160":0.151033,"161":0.046817,"162":0.062125,"163":0.191103,"164":0.037652,"165":-0.069884,"166":-0.124406,"167":0.086379,"168":-0.1176,"169":-0.163839,"170":-0.047338,"171":0.181194,"172":-0.193573,"173":-0.017773,"174":-0.112674,"175":0.193721,"176":-0.04104,"177":0.18134,"178":-0.116675,"179":0.018135,"180":0.113012,"181":0.14735,"182":-0.163653,"183":-0.132275,"184":-0.070211,"185":-0.084124,"186":0.162452,"187":0.172211,"188":0.074268,"189":0.091198,"190":-0.061106,"191":0.046724,"192":0.10927,"193":0.077926,"194":-0.029816,"195":-0.109898,"196":-0.127578,"197":-0.127626,"198":0.073475,"199":-0.140164,"200":-0.090651,"201":0.019448,"202":-0.184384,"203":-0.100894,"204":-0.083212,"205":-0.01005,"206":0.043578,"207":0.142014,"208":0.089944,"209":-0.11456,"210":0.158004,"211":0.195824,"212":-0.137385,"213":-0.115814,"214":-0.05719,"215":-0.004739,"216":0.070815,"217":0.238773,"218":-0.114833,"219":-0.076416,"220":0.116401,"221":-0.184777,"222":0.139955,"223":0.140537,"224":0.169872,"225":0.072503,"226":0.050031,"227":-0.086721,"228":0.0412,"229":0.060802,"230":0.079366,"231":-0.200579,"232":-0.007347,"233":-0.110973,"234":-0.03408,"235":-0.010888,"236":-0.2004,"237":0.145303,"238":-0.135865,"239":-0.045232,"240":-0.165181,"241":-0.121398,"242":-0.002324,"243":0.153537,"244":-0.1327,"245":0.105201,"246":-0.015802,"247":-0.172208,"248":0.169282,"249":0.069676,"250":-0.033919,"251":0.177934,"252":-0.176213,"253":-0.145312,"254":-0.09449,"255":-0.115183,"256":0.109883,"257":0.140359,"258":0.038181,"259":-0.104716,"260":-0.034426,"261":-0.222173,"262":0.179535,"263":-0.0654,"264":0.163914,"265":-0.183493,"266":-0.133234,"267":-0.071433,"268":-0.04838,"269":0.126183,"270":-0.096106,"271":-0.083342,"272":0.041026,"273":-0.138594,"274":0.109345,"275":0.011129,"276":-0.096107,"277":0.044676,"278":0.103817,"279":0.034266,"280":0.034768,"281":0.054175,"282":-0.110511,"283":0.024074,"284":-0.196457,"285":-0.05713,"286":0.088321,"287":0.085386,"288":0.086905,"289":-0.163759,"290":0.041852,"291":0.182133,"292":0.07585,"293":0.050875,"294":0.079292,"295":0.010689,"296":-0.055921,"297":0.133588,"298":-0.043061,"299":-0.038408,"300":-0.057928,"301":0.128445,"302":-0.153545,"303":0.013576,"304":0.216964,"305":0.06697,"306":0.124386,"307":0.084422,"308":-0.14101,"309":0.127232,"310":-0.074623,"311":-0.164362,"312":0.059346,"313":-0.178532,"314":-0.128927,"315":-0.139673,"316":0.119849,"317":0.174679,"318":-0.102637,"319":-0.178752,"320":-0.031464,"321":-0.197014,"322":0.021744,"323":0.105304,"324":-0.088503,"325":-0.099021,"326":-0.055683,"327":-0.044777,"328":0.090736,"329":-0.036595,"330":-0.113512,"331":-0.122824,"332":0.036363,"333":0.164521,"334":0.037252,"335":0.083626,"336":-0.066618,"337":0.1132,"338":0.087681,"339":-0.041746,"340":0.156549,"341":0.174358,"342":0.169369,"343":0.12637,"344":0.026277,"345":-0.018438,"346":0.189795,"347":0.149556,"348":0.075435,"349":0.147635,"350":0.181165,"351":0.029757,"352":-0.044269,"353":0.132633,"354":0.080017,"355":0.039047,"356":0.030193,"357":0.059554,"358":-0.105855,"359":-0.056769,"360":-0.005572,"361":0.144128,"362":0.013257,"363":-0.029406,"364":0.180153,"365":0.155479,"366":-0.188576,"367":-0.082864,"368":-0.152361,"369":0.027452,"370":0.002222,"371":-0.075348,"372":-0.101914,"373":0.002467,"374":0.011183,"375":-0.003733,"376":-0.057734,"377":-0.196052,"378":-0.02323,"379":0.148392,"380":-0.162829,"381":0.195702,"382":0.082941,"383":-0.109885,"384":0.072629,"385":0.025399,"386":0.032184,"387":0.062813,"388":-0.115697,"389":-0.130155,"390":-0.102778,"391":-0.166574,"392":-0.002676,"393":0.024042,"394":-0.094806,"395":0.16702,"396":-0.153546,"397":0.229836,"398":-0.076727,"399":-0.10165,"400":0.020884,"401":0.086248,"402":-0.195757,"403":-0.094446,"404":-0.06389,"405":0.166858,"406":-0.060327,"407":0.01923,"408":0.183957,"409":-0.034091,"410":0.034176,"411":0.02172,"412":-0.137126,"413":-0.061906,"414":-0.223405,"415":0.083868,"416":-0.168341,"417":0.087398,"418":-0.164181,"419":0.032532,"420":0.116504,"421":-0.159376,"422":0.1792,"423":0.138593,"424":0.117595,"425":0.182013,"426":0.040284,"427":0.16398,"428":0.108421,"429":-0.048684,"430":0.1117,"431":-0.032343,"432":-0.025066,"433":-0.001378,"434":0.20304,"435":-0.193638,"436":0.097316,"437":-0.197352,"438":0.143548,"439":-0.165356,"440":-0.194783,"441":-0.023325,"442":0.094004,"443":0.057412,"444":0.14376,"445":0.133221,"446":-0.082953,"447":-0.062374,"448":-0.160158,"449":-0.197788,"450":0.10082,"451":0.172077,"452":-0.025996,"453":-0.161103,"454":-0.02817,"455":0.149252,"456":0.03262,"457":-0.11583,"458":-0.024895,"459":0.101159,"460":-0.038558,"461":-0.014333,"462":-0.10112,"463":0.137402,"464":-0.044984,"465":0.032707,"466":-0.179723,"467":0.136792,"468":0.02383,"469":-0.083682,"470":-0.019849,"471":-0.107961,"472":0.152695,"473":0.107419,"474":0.055855,"475":-0.21084,"476":0.036352,"477":0.043709,"478":0.03108,"479":0.061068,"480":-0.075407,"481":-0.055532,"482":0.002936,"483":-0.058616,"484":-0.145142,"485":0.165078,"486":0.151278,"487":0.118266,"488":-0.187898,"489":0.19934,"490":-0.047669,"491":0.038673,"492":0.050989,"493":-0.182484,"494":-0.165698,"495":-0.00611,"496":0.159706,"497":0.135618,"498":0.145855,"499":-0.071141,"500":0.040361,"501":-0.135198,"502":-0.04804,"503":0.077963,"504":-0.112478,"505":-0.091379,"506":0.050472,"507":-0.128811,"508":-0.179328,"509":0.013925,"510":-0.179882,"511":-0.040694,"512":-0.048519,"513":0.015053,"514":0.052608,"515":-0.079891,"516":-0.192162,"517":-0.078365,"518":0.111572,"519":0.150085,"520":-0.103995,"521":0.153783,"522":0.075571,"523":0.065115,"524":-0.059936,"525":-0.177738,"526":0.156556,"527":0.169624,"528":0.145883,"529":0.061247,"530":0.148637,"531":0.200138,"532":0.093689,"533":0.014561,"534":0.169206,"535":0.089616,"536":-0.023143,"537":-0.036237}},"2":{"bias":-0.06574,"weights":{"0":0.235942,"1":-0.132444,"2":0.171974,"3":0.085925,"4":-0.016174,"5":0.155476,"6":-0.054802,"7":-0.020183,"8":-0.166467,"9":-0.056514,"10":0.112571,"11":-0.205307,"12":0.006095,"13":-0.001157,"14":0.003326,"15":-0.127474,"16":-0.049924,"17":0.147891,"18":-0.153773,"19":-0.189962,"20":-0.299126,"21":0.072512,"22":0.100069,"23":0.024442,"24":-0.173297,"25":-0.229649,"26":0.067722,"27":-0.181672,"28":-0.007688,"29":-0.121584,"30":0.098966,"31":0.144933,"32":0.134427,"33":0.170483,"34":0.085699,"35":0.203197,"36":-0.190587,"37":-0.159107,"38":0.237574,"39":-0.318876,"40":-0.038743,"41":-0.109144,"42":-0.05575,"43":0.098843,"44":-0.060792,"45":0.207003,"46":0.016223,"47":-0.150028,"48":0.033863,"49":-0.001012,"50":-0.052707,"51":-0.165094,"52":-0.035426,"53":0.171835,"54":0.119979,"55":0.04691,"56":-0.064453,"57":-0.076954,"58":0.154635,"59":-0.008685,"60":-0.196525,"61":0.123022,"62":-0.096267,"63":0.181983,"64":-0.168032,"65":-0.017988,"66":0.102841,"67":-0.042475,"68":0.081909,"69":-0.173252,"70":0.118555,"71":-0.245666,"72":-0.135724,"73":-0.184168,"74":-0.081388,"75":0.078439,"76":0.037141,"77":0.299223,"78":0.186045,"79":0.15304,"80":0.140872,"81":0.077071,"82":0.056472,"83":0.047034,"84":-0.212245,"85":0.171944,"86":-0.098009,"87":-0.053524,"88":0.216049,"89":0.276359,"90":-0.159928,"91":0.08014,"92":-0.056878,"93":0.003328,"94":-0.106151,"95":-0.150811,"96":0.201657,"97":0.060768,"98":-0.227878,"99":-0.164036,"100":0.087056,"101":-0.077118,"102":0.021569,"103":0.100777,"104":0.010209,"105":-0.110508,"106":0.136128,"107":0.147944,"108":-0.084145,"109":0.141328,"110":0.173912,"111":-0.03915,"112":0.178425,"113":0.135853,"114":0.176146,"115":0.129007,"116":0.050732,"117":0.207784,"118":0.149514,"119":-0.143901,"120":-0.093815,"121":0.162296,"122":0.168779,"123":-0.015608,"124":-0.032218,"125":-0.124529,"126":0.06633,"127":-0.031335,"128":0.050484,"129":-0.161437,"130":-0.029757,"131":-0.033047,"132":-0.017494,"133":0.113477,"134":0.201898,"135":-0.132464,"136":0.117197,"137":-0.181193,"138":0.224288,"139":0.191927,"140":-0.188007,"141":-0.055148,"142":0.014389,"143":0.136474,"144":0.000336,"145":0.106202,"146":0.069419,"147":-0.160048,"148":0.150471,"149":0.045033,"150":0.104288,"151":-0.236311,"152":0.174807,"153":-0.113608,"154":0.234586,"155":-0.253201,"156":-0.111712,"157":-0.104612,"158":0.089159,"159":-0.163854,"160":0.112097,"161":-0.079949,"162":-0.298325,"163":-0.054608,"164":0.13926,"165":0.16132,"166":-0.15372,"167":0.024505,"168":-0.125137,"169":-0.270566,"170":-0.039994,"171":0.085403,"172":-0.106912,"173":0.152695,"174":0.2522,"175":-0.093563,"176":-0.024134,"177":0.029927,"178":-0.01962,"179":-0.035095,"180":0.097132,"181":0.0726,"182":-0.056455,"183":0.136793,"184":0.155484,"185":0.094381,"186":-0.150715,"187":0.127149,"188":-0.186699,"189":0.061885,"190":0.232058,"191":0.199701,"192":-0.089183,"193":-0.263391,"194":-0.082474,"195":-0.216706,"196":0.285619,"197":0.0779,"198":-0.053321,"199":0.176739,"200":0.051212,"201":0.124692,"202":0.047933,"203":-0.189623,"204":-0.146144,"205":0.253666,"206":-0.216974,"207":0.027121,"208":0.216798,"209":-0.190807,"210":-0.05071,"211":-0.028674,"212":-0.090359,"213":-0.154167,"214":0.125486,"215":0.174608,"216":-0.067021,"217":0.307303,"218":0.232643,"219":-0.080307,"220":0.12167,"221":-0.037332,"222":-0.09436,"223":0.189741,"224":0.188978,"225":-0.158811,"226":-0.041701,"227":0.005083,"228":0.196894,"229":0.006285,"230":-0.109074,"231":-0.093596,"232":0.171855,"233":0.292708,"234":-0.031987,"235":-0.03959,"236":0.175142,"237":0.116858,"238":0.002722,"239":-0.094419,"240":0.228308,"241":-0.180847,"242":-0.166389,"243":-0.184958,"244":0.026614,"245":-0.07088,"246":0.135861,"247":-0.011717,"248":0.110483,"249":0.07123,"250":0.072417,"251":-0.07364,"252":-0.030793,"253":-0.101975,"254":-0.162708,"255":0.072332,"256":0.154772,"257":-0.054631,"258":0.156462,"259":-0.224977,"260":-0.110352,"261":0.014904,"262":-0.072002,"263":0.258574,"264":-0.125684,"265":-0.056399,"266":0.235055,"267":-0.126642,"268":0.129255,"269":-0.229815,"270":-0.064748,"271":-0.039431,"272":-0.035538,"273":-0.0043,"274":0.173489,"275":-0.042953,"276":0.139751,"277":-0.097948,"278":0.001018,"279":0.092629,"280":0.123932,"281":0.160249,"282":0.126747,"283":0.058043,"284":-0.033063,"285":0.220355,"286":0.097386,"287":0.209339,"288":0.125684,"289":-0.088584,"290":-0.178644,"291":0.156746,"292":0.167172,"293":0.024886,"294":-0.230155,"295":0.061671,"296":-0.091102,"297":-0.150491,"298":-0.121755,"299":0.067487,"300":-0.006209,"301":-0.187718,"302":-0.071172,"303":0.027845,"304":0.051918,"305":0.215164,"306":-0.094735,"307":0.248226,"308":-0.005904,"309":-0.036405,"310":-0.117896,"311":0.062168,"312":0.138689,"313":-0.137476,"314":-0.037973,"315":-0.130317,"316":0.027453,"317":-0.234783,"318":0.071195,"319":0.151131,"320":0.237561,"321":-0.203243,"322":0.13343,"323":0.172749,"324":0.107843,"325":-0.174372,"326":0.122807,"327":0.14351,"328":0.009964,"329":-0.171649,"330":-0.189119,"331":0.199071,"332":0.175281,"333":-0.171543,"334":-0.121155,"335":0.063186,"336":0.028562,"337":0.002123,"338":-0.188437,"339":-0.120582,"340":0.052512,"341":-0.022819,"342":0.038768,"343":0.181342,"344":0.088945,"345":-0.115197,"346":-0.237762,"347":-0.156241,"348":-0.04928,"349":-0.121135,"350":0.146641,"351":0.159754,"352":0.166135,"353":0.098012,"354":-0.21962,"355":-0.012112,"356":-0.093341,"357":0.182214,"358":0.007646,"359":-0.12185,"360":0.091272,"361":0.036327,"362":0.159799,"363":-0.050836,"364":-0.172138,"365":-0.015501,"366":-0.174352,"367":0.190163,"368":0.068613,"369":-0.075669,"370":0.114638,"371":-0.146887,"372":0.016931,"373":0.18169,"374":0.090576,"375":0.090039,"376":0.142173,"377":0.201057,"378":0.070021,"379":0.029545,"380":-0.024553,"381":0.016881,"382":0.019427,"383":0.257405,"384":0.001591,"385":0.022836,"386":0.007276,"387":-0.091427,"388":-0.028428,"389":-0.048178,"390":-0.027781,"391":0.110926,"392":-0.085944,"393":-0.103361,"394":0.065159,"395":0.027864,"396":0.038393,"397":-0.101204,"398":-0.095263,"399":-0.043238,"400":0.001869,"401":-0.11157,"402":0.045842,"403":-0.084763,"404":-0.086279,"405":0.129483,"406":0.037608,"407":0.048451,"408":-0.192461,"409":-0.12525,"410":-0.009814,"411":0.066665,"412":0.040582,"413":-0.173811,"414":-0.084755,"415":-0.055184,"416":-0.120587,"417":0.115077,"418":0.11921,"419":-0.133701,"420":0.006219,"421":0.049095,"422":0.055716,"423":-0.009718,"424":0.055689,"425":0.109096,"426":-0.045284,"427":-0.076547,"428":0.06422,"429":0.027436,"430":-0.003439,"431":0.005603,"432":0.096859,"433":0.123059,"434":-0.177708,"435":0.063341,"436":0.066969,"437":0.161976,"438":-0.158559,"439":0.204183,"440":0.023973,"441":-0.104224,"442":0.060743,"443":-0.119768,"444":-0.1022,"445":0.069312,"446":0.054418,"447":-0.036815,"448":-0.130713,"449":0.203634,"450":0.204634,"451":0.134789,"452":-0.080174,"453":-0.132948,"454":0.023592,"455":-0.114003,"456":-0.072611,"457":-0.020234,"458":0.13562,"459":0.142095,"460":-0.116641,"461":-0.07245,"462":-0.167065,"463":0.049288,"464":-0.145699,"465":0.069057,"466":0.043052,"467":0.058384,"468":-0.056374,"469":0.199042,"470":-0.058037,"471":0.100531,"472":-0.021502,"473":-0.014708,"474":-0.150562,"475":-0.099555,"476":-0.08397,"477":0.101309,"478":-0.142538,"479":-0.175408,"480":0.062238,"481":-0.143656,"482":-0.100948,"483":0.039944,"484":-0.048043,"485":-0.071418,"486":0.059516,"487":0.177238,"488":0.061635,"489":0.015989,"490":0.047382,"491":0.024126,"492":0.148168,"493":-0.000943,"494":-0.010579,"495":0.066279,"496":-0.173823,"497":0.006952,"498":-0.008145,"499":0.172045,"500":0.098553,"501":0.064061,"502":0.164137,"503":0.181844,"504":-0.134144,"505":-0.055813,"506":0.18453,"507":0.163475,"508":-0.143846,"509":-0.103034,"510":-0.284717,"511":-0.14037,"512":-0.051855,"513":0.1244,"514":0.185743,"515":-0.117071,"516":-0.113568,"517":0.030017,"518":-0.196613,"519":0.00699,"520":0.085719,"521":-0.019934,"522":0.020889,"523":-0.037062,"524":-0.001787,"525":-0.14702,"526":0.017725,"527":0.170636,"528":0.073517,"529":-0.077273,"530":0.212297,"531":-0.058265,"532":-0.196542,"533":-0.005125,"534":0.077213,"535":0.084323,"536":0.055403,"537":-0.159859}},"3":{"bias":-0.016799,"weights":{"0":-0.102725,"1":0.01757,"2":0.197982,"3":-0.017232,"4":0.114325,"5":-0.026987,"6":-0.082924,"7":-0.158613,"8":0.116361,"9":-0.174697,"10":0.009272,"11":0.044333,"12":-0.063799,"13":0.057521,"14":-0.105605,"15":0.199224,"16":0.024246,"17":-0.097652,"18":-0.038381,"19":-0.408403,"20":-0.044823,"21":-0.013413,"22":-0.264879,"23":0.164177,"24":0.071109,"25":0.138753,"26":0.124681,"27":0.078053,"28":-0.236173,"29":0.145529,"30":0.151449,"31":-0.035296,"32":-0.180476,"33":0.062928,"34":0.010008,"35":-0.189594,"36":-0.108011,"37":-0.215349,"38":0.044063,"39":-0.327592,"40":-0.179442,"41":0.018022,"42":-0.044995,"43":-0.003942,"44":0.036247,"45":0.292607,"46":0.000959,"47":0.054283,"48":0.046222,"49":-0.3117,"50":-0.154321,"51":0.063848,"52":-0.015377,"53":0.155465,"54":-0.278789,"55":-0.083611,"56":0.107594,"57":0.038994,"58":-0.144058,"59":0.065233,"60":-0.243386,"61":0.19662,"62":0.003166,"63":-0.083329,"64":-0.042532,"65":-0.131823,"66":-0.014328,"67":0.128136,"68":0.090495,"69":-0.140573,"70":-0.008103,"71":-0.051699,"72":-0.057891,"73":0.107984,"74":0.007278,"75":0.106361,"76":-0.106383,"77":0.182399,"78":-0.18745,"79":-0.10031,"80":-0.131184,"81":-0.12353,"82":0.181241,"83":-0.322031,"84":-0.230694,"85":-0.020335,"86":0.058518,"87":0.003331,"88":-0.002193,"89":0.027745,"90":-0.179278,"91":-0.074695,"92":-0.128448,"93":0.267914,"94":-0.119097,"95":0.142218,"96":0.20804,"97":-0.100615,"98":0.034365,"99":-0.069201,"100":0.092845,"101":-0.046104,"102":-0.04888,"103":-0.074878,"104":-0.140472,"105":-0.117298,"106":-0.056578,"107":0.038399,"108":-0.212672,"109":-0.222369,"110":0.028176,"111":-0.108232,"112":0.136183,"113":0.142188,"114":0.132567,"115":-0.142564,"116":-0.050954,"117":0.097684,"118":0.196098,"119":-0.152374,"120":-0.019506,"121":0.018173,"122":-0.058047,"123":-0.20176,"124":-0.129389,"125":0.164323,"126":-0.121837,"127":0.031289,"128":-0.093546,"129":0.003863,"130":0.267201,"131":-0.057437,"132":-0.093593,"133":0.19566,"134":0.090332,"135":0.076206,"136":0.051831,"137":-0.28063,"138":0.086726,"139":0.259503,"140":0.038589,"141":-0.128985,"142":-0.190272,"143":-0.20579,"144":0.17394,"145":-0.130735,"146":0.163763,"147":-0.076412,"148":-0.091548,"149":-0.137467,"150":0.007957,"151":0.017278,"152":0.125183,"153":-0.176994,"154":0.225687,"155":0.252419,"156":-0.067003,"157":-0.143601,"158":0.112166,"159":-0.126097,"160":0.112483,"161":-0.101932,"162":-0.122117,"163":-0.022811,"164":0.207041,"165":0.113014,"166":-0.262231,"167":0.186386,"168":0.138737,"169":-0.020918,"170":-0.065363,"171":0.123073,"172":0.040846,"173":0.118766,"174":0.294936,"175":-0.134767,"176":-0.056203,"177":0.081605,"178":0.258257,"179":-0.109631,"180":-0.002589,"181":0.095858,"182":-0.013217,"183":-0.040867,"184":-0.140965,"185":0.087561,"186":0.08018,"187":-0.10287,"188":0.090983,"189":0.052982,"190":0.1594,"191":0.204241,"192":-0.053167,"193":-0.107254,"194":-0.05569,"195":0.084144,"196":0.084201,"197":0.002636,"198":-0.100184,"199":-0.210621,"200":0.181014,"201":0.067012,"202":-0.097583,"203":0.125986,"204":0.171836,"205":0.050991,"206":-0.169221,"207":-0.017359,"208":0.058007,"209":0.186844,"210":0.349165,"211":-0.049013,"212":-0.115202,"213":-0.022169,"214":-0.15844,"215":-0.060695,"216":0.252706,"217":0.169179,"218":0.077925,"219":0.045519,"220":0.148152,"221":0.019298,"222":-0.142427,"223":0.281895,"224":-0.102255,"225":-0.124621,"226":-0.202054,"227":-0.154664,"228":-0.025107,"229":0.086027,"230":0.187393,"231":-0.033648,"232":0.031113,"233":0.197495,"234":0.208211,"235":-0.042104,"236":-0.104754,"237":0.177366,"238":0.110116,"239":0.147971,"240":-0.174302,"241":0.180594,"242":-0.063303,"243":-0.040168,"244":0.009377,"245":0.084512,"246":0.12133,"247":-0.129294,"248":0.016577,"249":-0.12507,"250":-0.109079,"251":0.11577,"252":-0.233765,"253":0.083148,"254":0.05534,"255":-0.057861,"256":0.241471,"257":-0.191595,"258":-0.056752,"259":0.145715,"260":0.075732,"261":-0.045296,"262":-0.044313,"263":-0.073133,"264":-0.049718,"265":-0.167538,"266":0.063178,"267":-0.295363,"268":-0.158597,"269":-0.25333,"270":0.000969,"271":-0.019405,"272":-0.024143,"273":-0.161272,"274":0.235463,"275":-0.043456,"276":0.098145,"277":0.210399,"278":-0.12719,"279":0.103607,"280":0.149911,"281":-0.056393,"282":0.115736,"283":-0.018672,"284":0.000394,"285":-0.050619,"286":0.121667,"287":0.19466,"288":0.037137,"289":0.034025,"290":0.049297,"291":0.103122,"292":-0.123563,"293":0.087559,"294":0.062242,"295":-0.09287,"296":0.01172,"297":-0.173049,"298":0.103673,"299":-0.097879,"300":0.074569,"301":0.208448,"302":0.048967,"303":0.211464,"304":0.106518,"305":0.02912,"306":-0.171546,"307":-0.141303,"308":0.033413,"309":-0.194291,"310":-0.028,"311":0.043679,"312":-0.123536,"313":-0.060595,"314":-0.14502,"315":-0.171875,"316":0.030007,"317":0.123142,"318":0.022923,"319":0.042848,"320":0.066156,"321":-0.199171,"322":0.10539,"323":-0.093053,"324":0.154769,"325":0.041026,"326":-0.082724,"327":-0.093126,"328":-0.22021,"329":-0.093896,"330":0.055232,"331":-0.13662,"332":0.156314,"333":0.050061,"334":0.215068,"335":0.009418,"336":0.122904,"337":0.007046,"338":0.127938,"339":-0.031389,"340":-0.168886,"341":-0.028088,"342":0.237801,"343":-0.001641,"344":0.163776,"345":0.051052,"346":0.061608,"347":-0.069236,"348":0.126895,"349":0.113148,"350":0.120749,"351":0.144118,"352":-0.007456,"353":0.133668,"354":-0.142099,"355":0.03261,"356":0.037584,"357":-0.01543,"358":0.128173,"359":-0.034506,"360":-0.006241,"361":-0.026971,"362":-0.142068,"363":-0.121485,"364":0.110404,"365":-0.131976,"366":-0.014807,"367":-0.146517,"368":0.230293,"369":-0.110905,"370":0.14387,"371":0.089972,"372":0.126987,"373":-0.174715,"374":0.143425,"375":-0.062664,"376":0.206946,"377":0.034595,"378":-0.04233,"379":0.050704,"380":0.057396,"381":-0.014074,"382":0.099554,"383":0.045191,"384":-0.068334,"385":0.017032,"386":0.215111,"387":-0.055618,"388":0.117448,"389":0.135369,"390":0.021453,"391":0.096132,"392":0.138086,"393":0.114605,"394":0.067235,"395":-0.045424,"396":-0.119363,"397":0.12705,"398":-0.133179,"399":0.063537,"400":-0.064373,"401":-0.085322,"402":0.003586,"403":-0.077543,"404":-0.006717,"405":-0.13269,"406":0.023393,"407":-0.19683,"408":0.119082,"409":-0.161045,"410":0.152527,"411":0.158765,"412":0.087049,"413":-0.085737,"414":-0.080272,"415":0.033405,"416":0.132351,"417":-0.173929,"418":-0.179045,"419":0.078583,"420":-0.17917,"421":0.162032,"422":0.065954,"423":-0.089431,"424":0.030426,"425":0.185442,"426":-0.073277,"427":0.103703,"428":0.09308,"429":0.103098,"430":-0.099527,"431":0.06314,"432":0.033111,"433":0.190536,"434":0.169264,"435":0.179099,"436":-0.109764,"437":0.114605,"438":0.035594,"439":-0.048965,"440":-0.065049,"441":-0.12972,"442":-0.188821,"443":0.104088,"444":0.036985,"445":-0.214224,"446":0.074789,"447":-0.228855,"448":0.044916,"449":-0.154611,"450":-0.096405,"451":0.097045,"452":0.126941,"453":-0.146147,"454":-0.044285,"455":0.197461,"456":-0.152014,"457":0.07608,"458":-0.119052,"459":-0.188202,"460":0.120888,"461":0.031968,"462":0.055853,"463":-0.045863,"464":-0.030546,"465":0.08386,"466":-0.199588,"467":-0.080144,"468":-0.086515,"469":-0.152404,"470":-0.098472,"471":-0.082427,"472":-0.09399,"473":0.14388,"474":-0.173176,"475":-0.207329,"476":0.17273,"477":0.028046,"478":-0.017831,"479":0.027303,"480":0.183378,"481":0.171412,"482":0.139008,"483":0.117179,"484":-0.155783,"485":0.061126,"486":0.170474,"487":0.14947,"488":0.039899,"489":0.189671,"490":-0.070754,"491":-0.079816,"492":-0.174213,"493":-0.179349,"494":-0.139733,"495":0.05406,"496":-0.068702,"497":-0.09018,"498":-0.042955,"499":0.073559,"500":0.020014,"501":0.148157,"502":0.133992,"503":-0.176046,"504":-0.094793,"505":-0.142628,"506":-0.152822,"507":-0.062081,"508":-0.157631,"509":0.178912,"510":-0.04644,"511":-0.020502,"512":-0.066963,"513":-0.173493,"514":0.175586,"515":0.182058,"516":-0.089409,"517":-0.162286,"518":0.058152,"519":-0.027835,"520":0.125926,"521":0.068127,"522":-0.04938,"523":-0.029473,"524":-0.009824,"525":-0.125258,"526":0.041378,"527":0.040753,"528":0.049086,"529":-0.13625,"530":0.399403,"531":-0.054539,"532":-0.160972,"533":-0.170457,"534":0.083546,"535":-0.171295,"536":-0.059947,"537":0.097654}},"4":{"bias":0.117415,"weights":{"0":0.075599,"1":-0.012026,"2":-0.20746,"3":-0.141895,"4":0.000924,"5":-0.188609,"6":-0.154603,"7":-0.163383,"8":0.082028,"9":-0.10269,"10":-0.152927,"11":0.059866,"12":-0.057058,"13":0.161636,"14":0.194308,"15":-0.183378,"16":-0.111601,"17":0.009612,"18":0.010277,"19":-0.062672,"20":0.046794,"21":-0.187363,"22":0.047319,"23":0.011764,"24":-0.0004,"25":-0.102845,"26":0.000973,"27":-0.116308,"28":-0.123241,"29":0.139593,"30":-0.134122,"31":-0.158238,"32":0.034017,"33":-0.167405,"34":-0.016209,"35":0.140806,"36":0.188505,"37":0.200587,"38":-0.095754,"39":0.080917,"40":0.208616,"41":0.208192,"42":-0.040425,"43":-0.148039,"44":-0.016584,"45":-0.071192,"46":0.004734,"47":0.186734,"48":-0.07301,"49":-0.121781,"50":-0.023487,"51":0.027446,"52":0.000682,"53":-0.009202,"54":0.181454,"55":-0.101149,"56":-0.103444,"57":-0.147902,"58":-0.10701,"59":-0.042901,"60":0.136812,"61":-0.164818,"62":-0.134595,"63":0.186669,"64":0.045744,"65":-0.110009,"66":-0.060233,"67":-0.163277,"68":0.162459,"69":0.114958,"70":-0.045569,"71":0.124008,"72":-0.069671,"73":0.078149,"74":0.13849,"75":0.006593,"76":0.045278,"77":-0.07947,"78":0.026657,"79":-0.04548,"80":0.008211,"81":0.063171,"82":-0.088274,"83":0.18625,"84":-0.127952,"85":-0.149749,"86":0.058469,"87":0.003092,"88":-0.153871,"89":0.087035,"90":-0.090468,"91":-0.069981,"92":-0.180588,"93":-0.140793,"94":-0.187456,"95":0.177224,"96":0.140193,"97":0.066335,"98":-0.064226,"99":-0.065855,"100":-0.188371,"101":-0.006006,"102":-0.103784,"103":-0.071605,"104":0.014618,"105":-0.108736,"106":-0.184606,"107":-0.066007,"108":0.130011,"109":-0.121872,"110":-0.018474,"111":0.069999,"112":-0.182089,"113":-0.011098,"114":0.176284,"115":0.053544,"116":-0.091639,"117":0.028922,"118":-0.229675,"119":0.170046,"120":-0.063067,"121":0.171692,"122":-0.100089,"123":-0.090714,"124":-0.125087,"125":0.137561,"126":0.096545,"127":0.160744,"128":-0.020475,"129":-0.100608,"130":-0.189597,"131":-0.115539,"132":0.121395,"133":0.114206,"134":0.168037,"135":-0.111479,"136":0.045761,"137":0.131971,"138":0.133232,"139":-0.076066,"140":0.026247,"141":-0.147505,"142":-0.051121,"143":0.128692,"144":0.052882,"145":-0.169147,"146":0.100025,"147":0.148991,"148":0.172852,"149":0.032908,"150":-0.073464,"151":-0.158147,"152":-0.139251,"153":-0.001948,"154":0.093475,"155":-0.038026,"156":0.011188,"157":-0.08104,"158":0.076594,"159":-0.205607,"160":0.033067,"161":-0.052592,"162":0.031162,"163":-0.227436,"164":0.04868,"165":0.171002,"166":-0.106162,"167":-0.17161,"168":0.001333,"169":0.148392,"170":0.176727,"171":-0.107921,"172":0.023893,"173":-0.045782,"174":-0.10894,"175":-0.165229,"176":-0.040504,"177":0.060059,"178":0.033324,"179":-0.091362,"180":-0.179146,"181":-0.005517,"182":-0.175459,"183":-0.146502,"184":0.178122,"185":-0.128997,"186":-0.073975,"187":-0.145234,"188":-0.067042,"189":0.077599,"190":-0.163394,"191":-0.255207,"192":0.035912,"193":0.124307,"194":-0.072415,"195":0.078298,"196":-0.121767,"197":0.117642,"198":0.015108,"199":-0.009872,"200":-0.179204,"201":0.159465,"202":-0.023773,"203":0.061653,"204":-0.112063,"205":0.071417,"206":-0.17193,"207":0.126049,"208":0.07997,"209":0.163275,"210":-0.120123,"211":-0.110307,"212":-0.092748,"213":0.140586,"214":0.127405,"215":-0.085018,"216":0.088889,"217":0.053787,"218":-0.125807,"219":-0.157875,"220":-0.121411,"221":-0.101696,"222":-0.043969,"223":-0.107809,"224":0.121274,"225":0.143985,"226":0.084562,"227":0.147768,"228":0.067688,"229":-0.095299,"230":0.159103,"231":0.060038,"232":0.134727,"233":-0.18145,"234":0.165741,"235":0.16542,"236":-0.09232,"237":-0.172171,"238":-0.156052,"239":-0.142778,"240":-0.135628,"241":0.132687,"242":0.065799,"243":0.025511,"244":0.000061,"245":-0.098304,"246":-0.179675,"247":0.015767,"248":-0.095343,"249":0.044603,"250":-0.075903,"251":0.032776,"252":0.16569,"253":0.048949,"254":0.115367,"255":0.133921,"256":-0.173645,"257":-0.179278,"258":-0.063869,"259":0.017571,"260":0.113733,"261":-0.175998,"262":-0.194508,"263":-0.198476,"264":0.039893,"265":0.145602,"266":0.087773,"267":-0.084455,"268":-0.066689,"269":0.079277,"270":-0.052162,"271":-0.000659,"272":-0.101272,"273":0.01789,"274":0.113232,"275":0.025552,"276":-0.120047,"277":0.106582,"278":-0.098841,"279":-0.041436,"280":0.185278,"281":0.151404,"282":-0.013351,"283":-0.182142,"284":0.026432,"285":0.083536,"286":-0.187738,"287":0.055661,"288":-0.160757,"289":-0.175023,"290":0.102193,"291":-0.00852,"292":0.130732,"293":0.138477,"294":-0.062744,"295":0.010206,"296":0.086221,"297":0.004124,"298":-0.03376,"299":0.014819,"300":-0.063488,"301":0.134607,"302":0.08853,"303":0.086407,"304":-0.022134,"305":-0.204786,"306":-0.110473,"307":0.105628,"308":0.03297,"309":-0.138053,"310":0.155442,"311":0.105203,"312":-0.15237,"313":0.238973,"314":-0.029413,"315":0.1657,"316":0.076946,"317":0.191385,"318":0.2072,"319":0.036198,"320":-0.214598,"321":0.020343,"322":-0.127901,"323":0.185563,"324":-0.064054,"325":0.108828,"326":0.20963,"327":0.089164,"328":-0.106917,"329":-0.155746,"330":-0.164878,"331":-0.003623,"332":0.074528,"333":0.1481,"334":-0.159188,"335":-0.239023,"336":0.013698,"337":-0.136783,"338":-0.023937,"339":-0.199914,"340":0.126013,"341":0.07153,"342":-0.187311,"343":-0.043993,"344":0.137751,"345":0.001434,"346":-0.161589,"347":0.173656,"348":0.124314,"349":0.011964,"350":-0.147368,"351":-0.164357,"352":0.159511,"353":-0.182168,"354":0.194413,"355":0.198618,"356":-0.187785,"357":0.113458,"358":0.065612,"359":-0.024171,"360":-0.154946,"361":-0.178162,"362":-0.120203,"363":-0.092493,"364":0.00838,"365":0.058777,"366":-0.112881,"367":-0.094595,"368":-0.030848,"369":-0.127115,"370":0.125979,"371":-0.024617,"372":-0.124088,"373":-0.152667,"374":-0.025098,"375":-0.049356,"376":0.076075,"377":-0.068603,"378":0.134553,"379":0.045166,"380":0.045186,"381":-0.051474,"382":-0.033146,"383":0.02433,"384":0.192006,"385":-0.14762,"386":-0.081016,"387":-0.2322,"388":-0.153568,"389":0.071642,"390":0.062702,"391":0.152696,"392":0.011684,"393":0.078203,"394":-0.109347,"395":-0.172989,"396":-0.017674,"397":0.167633,"398":0.158089,"399":-0.153666,"400":-0.052193,"401":0.056489,"402":-0.014616,"403":-0.147002,"404":-0.03886,"405":-0.149888,"406":-0.033221,"407":-0.125169,"408":0.131766,"409":-0.198784,"410":0.09643,"411":0.143604,"412":-0.09796,"413":-0.148299,"414":0.058351,"415":0.093926,"416":-0.168757,"417":-0.138595,"418":0.066384,"419":-0.049565,"420":0.096795,"421":0.014002,"422":0.136562,"423":-0.012607,"424":-0.057049,"425":-0.027693,"426":-0.11202,"427":0.067318,"428":-0.100822,"429":0.035488,"430":0.171575,"431":0.008179,"432":-0.099755,"433":0.123332,"434":0.143159,"435":-0.027494,"436":0.035762,"437":-0.123932,"438":0.009071,"439":-0.076359,"440":0.085926,"441":-0.117464,"442":-0.109838,"443":-0.045695,"444":-0.035966,"445":-0.207398,"446":0.082027,"447":-0.070472,"448":-0.003832,"449":0.005953,"450":-0.094293,"451":-0.084539,"452":0.155417,"453":0.06197,"454":0.075576,"455":0.15634,"456":-0.062689,"457":0.062992,"458":-0.032519,"459":0.102051,"460":0.198451,"461":0.194633,"462":0.095535,"463":0.033644,"464":0.088711,"465":-0.139873,"466":0.210323,"467":-0.100557,"468":-0.092592,"469":0.147233,"470":0.011425,"471":-0.159986,"472":0.017171,"473":-0.029434,"474":-0.003649,"475":0.190671,"476":0.128916,"477":0.130412,"478":0.163048,"479":0.050661,"480":0.130747,"481":0.056596,"482":0.032414,"483":-0.007811,"484":0.030588,"485":0.150932,"486":0.134056,"487":-0.144871,"488":-0.150881,"489":-0.062046,"490":0.009008,"491":-0.037893,"492":0.003817,"493":-0.105832,"494":-0.007828,"495":0.040679,"496":-0.178412,"497":-0.071557,"498":0.046024,"499":-0.113246,"500":-0.197318,"501":-0.030519,"502":0.127081,"503":-0.129331,"504":0.17323,"505":-0.076231,"506":-0.171856,"507":-0.19422,"508":0.182432,"509":-0.039162,"510":0.177145,"511":0.054731,"512":0.024835,"513":0.142647,"514":-0.006288,"515":-0.15341,"516":-0.05409,"517":-0.074352,"518":0.01545,"519":-0.076331,"520":0.024283,"521":0.15311,"522":0.04329,"523":-0.052875,"524":-0.063447,"525":-0.099601,"526":0.1069,"527":0.101024,"528":-0.139596,"529":-0.063715,"530":-0.090968,"531":-0.035486,"532":-0.112355,"533":0.022275,"534":0.19848,"535":-0.061999,"536":0.019584,"537":-0.100291}},"5":{"bias":0.197164,"weights":{"0":-0.19635,"1":0.128089,"2":-0.076648,"3":-0.053222,"4":-0.364885,"5":-0.173905,"6":-0.224392,"7":0.058021,"8":0.302996,"9":-0.106678,"10":0.024785,"11":-0.019804,"12":0.150518,"13":0.001392,"14":-0.129352,"15":0.33939,"16":0.23826,"17":-0.114659,"18":0.039208,"19":0.384771,"20":0.34522,"21":0.217993,"22":0.264651,"23":-0.112963,"24":0.428278,"25":0.052418,"26":0.035459,"27":0.015129,"28":0.309378,"29":0.161116,"30":-0.093497,"31":0.041029,"32":0.222805,"33":0.149748,"34":0.1813,"35":0.143274,"36":-0.075097,"37":0.067934,"38":-0.096711,"39":0.328841,"40":0.116872,"41":-0.042294,"42":0.2643,"43":0.089263,"44":0.463769,"45":0.216838,"46":-0.060039,"47":-0.189303,"48":0.059648,"49":-0.004036,"50":0.034494,"51":0.146433,"52":-0.003584,"53":-0.123781,"54":0.223125,"55":0.081801,"56":-0.054756,"57":0.043115,"58":-0.076095,"59":-0.316224,"60":0.093745,"61":0.143115,"62":0.129583,"63":-0.133708,"64":0.149535,"65":0.148538,"66":-0.012998,"67":0.008024,"68":0.065191,"69":0.089039,"70":0.161196,"71":0.319949,"72":-0.004963,"73":0.041534,"74":-0.020418,"75":-0.052741,"76":-0.113764,"77":-0.171666,"78":-0.08645,"79":-0.143452,"80":-0.006806,"81":0.00045,"82":-0.14909,"83":0.27863,"84":-0.080622,"85":-0.194851,"86":-0.072043,"87":-0.075827,"88":-0.253606,"89":-0.291402,"90":0.136924,"91":-0.042506,"92":-0.11003,"93":-0.056948,"94":-0.011714,"95":0.162164,"96":-0.272358,"97":0.110822,"98":-0.029538,"99":-0.046326,"100":0.094912,"101":-0.11933,"102":-0.085754,"103":0.165275,"104":-0.042957,"105":-0.07869,"106":0.035774,"107":0.119826,"108":0.080801,"109":0.072835,"110":-0.05242,"111":-0.228462,"112":-0.05873,"113":-0.462853,"114":0.150265,"115":0.298453,"116":0.255333,"117":-0.177577,"118":-0.002456,"119":-0.140192,"120":0.149064,"121":-0.047928,"122":0.082014,"123":0.080898,"124":-0.022813,"125":-0.151055,"126":-0.175125,"127":0.025482,"128":0.064996,"129":-0.188893,"130":-0.033068,"131":0.193743,"132":-0.207233,"133":-0.32836,"134":-0.014176,"135":-0.241119,"136":-0.087306,"137":0.045423,"138":0.002757,"139":-0.009616,"140":0.091194,"141":-0.191602,"142":-0.133176,"143":0.03853,"144":-0.111373,"145":-0.037182,"146":-0.124014,"147":0.37037,"148":0.165211,"149":0.089269,"150":-0.123716,"151":0.009603,"152":0.120188,"153":0.16403,"154":0.019233,"155":-0.035884,"156":-0.008897,"157":0.016355,"158":-0.153547,"159":-0.061508,"160":-0.098662,"161":-0.169096,"162":0.288663,"163":-0.222485,"164":-0.246085,"165":0.143812,"166":-0.021821,"167":0.039766,"168":0.161099,"169":0.337609,"170":-0.008441,"171":-0.22147,"172":0.075969,"173":0.095658,"174":-0.246942,"175":0.158098,"176":-0.002107,"177":0.194848,"178":-0.010401,"179":-0.128538,"180":-0.195042,"181":0.044068,"182":0.136953,"183":-0.14768,"184":-0.024859,"185":0.126361,"186":-0.197317,"187":-0.055991,"188":-0.168061,"189":0.102141,"190":-0.122564,"191":-0.183916,"192":-0.325701,"193":-0.05056,"194":-0.155808,"195":0.134096,"196":-0.011185,"197":-0.080196,"198":-0.077429,"199":0.142252,"200":-0.330359,"201":0.135826,"202":-0.156061,"203":0.049275,"204":-0.119241,"205":-0.063705,"206":-0.039323,"207":0.063897,"208":-0.119033,"209":-0.223878,"210":-0.12114,"211":0.006595,"212":-0.114484,"213":-0.103287,"214":-0.173209,"215":0.137218,"216":0.000518,"217":-0.126199,"218":-0.185448,"219":-0.022377,"220":0.134676,"221":0.197613,"222":-0.134864,"223":-0.321845,"224":0.059217,"225":0.199998,"226":-0.012412,"227":0.098026,"228":0.050937,"229":0.034073,"230":-0.095591,"231":0.134299,"232":-0.071926,"233":-0.11502,"234":0.025316,"235":0.128848,"236":0.117722,"237":-0.011061,"238":0.103622,"239":0.031261,"240":-0.043955,"241":-0.152261,"242":0.023592,"243":0.093477,"244":0.043367,"245":-0.092263,"246":0.037466,"247":0.077697,"248":-0.167301,"249":0.097944,"250":-0.15981,"251":-0.089671,"252":0.091692,"253":0.294863,"254":-0.232838,"255":-0.075461,"256":0.089599,"257":-0.015258,"258":-0.117988,"259":0.147875,"260":-0.085055,"261":0.302531,"262":-0.092753,"263":-0.169384,"264":-0.034757,"265":-0.104633,"266":0.129524,"267":0.169105,"268":-0.076741,"269":-0.098131,"270":0.096806,"271":-0.014506,"272":0.1581,"273":0.193112,"274":0.063175,"275":0.076067,"276":-0.052571,"277":-0.168269,"278":0.170801,"279":-0.232946,"280":-0.098716,"281":0.049081,"282":-0.287207,"283":-0.074879,"284":0.183351,"285":-0.358954,"286":-0.109411,"287":-0.212316,"288":0.125367,"289":-0.094525,"290":-0.07155,"291":0.209299,"292":0.058769,"293":-0.196497,"294":0.11605,"295":0.330565,"296":0.028892,"297":0.112534,"298":-0.078336,"299":-0.100396,"300":0.054926,"301":-0.152811,"302":-0.11702,"303":-0.033034,"304":-0.040784,"305":-0.223617,"306":-0.151846,"307":0.09663,"308":0.098726,"309":-0.19906,"310":-0.057085,"311":-0.173912,"312":-0.143277,"313":-0.138657,"314":-0.195787,"315":-0.118197,"316":-0.226278,"317":0.126809,"318":0.082388,"319":0.004433,"320":-0.220789,"321":-0.020874,"322":-0.029629,"323":-0.108188,"324":0.138722,"325":-0.082226,"326":-0.18689,"327":0.063648,"328":-0.072413,"329":-0.066995,"330":0.115749,"331":-0.197838,"332":0.020844,"333":-0.064844,"334":-0.124277,"335":0.027255,"336":0.161498,"337":-0.195032,"338":0.242596,"339":-0.157326,"340":-0.118778,"341":-0.077603,"342":0.025824,"343":-0.046173,"344":-0.076475,"345":-0.03684,"346":-0.158754,"347":-0.251472,"348":0.026855,"349":-0.097963,"350":-0.315976,"351":-0.007904,"352":-0.041306,"353":-0.023685,"354":-0.125853,"355":-0.058,"356":-0.094027,"357":-0.199453,"358":-0.001708,"359":-0.039735,"360":-0.056073,"361":-0.159916,"362":0.012499,"363":0.013248,"364":0.120226,"365":0.022614,"366":0.060905,"367":-0.146286,"368":-0.048926,"369":-0.113041,"370":0.064751,"371":0.036834,"372":-0.079336,"373":-0.051171,"374":-0.054294,"375":0.13201,"376":-0.008684,"377":-0.159966,"378":0.011744,"379":-0.174025,"380":0.105786,"381":-0.120517,"382":-0.198625,"383":-0.079105,"384":-0.180794,"385":-0.041455,"386":0.019661,"387":0.124593,"388":0.0074,"389":0.047708,"390":0.062898,"391":-0.004109,"392":-0.010031,"393":0.036454,"394":-0.119842,"395":-0.317709,"396":-0.165716,"397":-0.159267,"398":0.088587,"399":-0.111925,"400":-0.217184,"401":0.018599,"402":0.211989,"403":-0.07539,"404":-0.179244,"405":-0.175357,"406":0.054942,"407":0.226589,"408":0.002148,"409":0.119411,"410":-0.193114,"411":0.027582,"412":0.041848,"413":-0.010107,"414":0.132667,"415":0.133121,"416":-0.09377,"417":0.104064,"418":0.095543,"419":-0.092533,"420":-0.211608,"421":-0.030878,"422":-0.058224,"423":0.069445,"424":-0.10423,"425":-0.23708,"426":-0.122013,"427":0.008057,"428":-0.113725,"429":0.085722,"430":-0.192137,"431":-0.068763,"432":-0.095327,"433":-0.074906,"434":-0.077372,"435":-0.164906,"436":0.159107,"437":0.061737,"438":0.015059,"439":-0.03106,"440":0.190236,"441":0.094853,"442":0.071047,"443":-0.02887,"444":0.256813,"445":0.003558,"446":0.036415,"447":0.389376,"448":-0.062306,"449":-0.257357,"450":-0.092199,"451":-0.334077,"452":0.017575,"453":-0.035371,"454":0.164561,"455":-0.058755,"456":-0.018039,"457":0.067641,"458":0.052662,"459":-0.08739,"460":0.141302,"461":-0.011181,"462":-0.205485,"463":-0.029711,"464":0.074223,"465":-0.064235,"466":-0.001455,"467":0.196616,"468":-0.15624,"469":0.11766,"470":0.146369,"471":-0.099174,"472":-0.01554,"473":0.020747,"474":0.051088,"475":-0.084227,"476":-0.015498,"477":0.201967,"478":0.274881,"479":-0.115995,"480":-0.020086,"481":0.066115,"482":0.007992,"483":-0.01359,"484":0.21365,"485":0.101094,"486":-0.126605,"487":-0.049979,"488":0.150289,"489":0.109029,"490":-0.049997,"491":0.137634,"492":-0.042684,"493":-0.105348,"494":0.067587,"495":-0.059567,"496":-0.222559,"497":-0.10055,"498":0.088393,"499":0.067284,"500":-0.050312,"501":-0.15943,"502":-0.062759,"503":-0.158047,"504":-0.110572,"505":-0.177854,"506":-0.190227,"507":-0.023739,"508":0.029367,"509":-0.047124,"510":0.060511,"511":0.038914,"512":0.193298,"513":0.130853,"514":-0.212084,"515":0.004746,"516":0.200235,"517":-0.099752,"518":0.150003,"519":-0.010674,"520":0.124355,"521":0.077116,"522":0.069957,"523":0.127705,"524":-0.17166,"525":-0.028761,"526":-0.017435,"527":-0.134421,"528":0.141398,"529":-0.10788,"530":-0.090674,"531":-0.165764,"532":0.047988,"533":-0.114999,"534":-0.002282,"535":0.080849,"536":0.006463,"537":0.005734}},"6":{"bias":0.060122,"weights":{"0":-0.02035,"1":0.051965,"2":0.00905,"3":0.083267,"4":-0.227201,"5":-0.036512,"6":-0.08074,"7":0.139255,"8":-0.097889,"9":-0.057275,"10":-0.171065,"11":0.08323,"12":0.160756,"13":0.001663,"14":0.061191,"15":0.177564,"16":-0.124785,"17":-0.037784,"18":-0.020579,"19":0.303848,"20":0.074487,"21":-0.061579,"22":0.013706,"23":-0.124266,"24":0.074061,"25":-0.098783,"26":0.114799,"27":0.095749,"28":-0.005567,"29":-0.057553,"30":-0.235273,"31":0.091189,"32":-0.003084,"33":-0.106484,"34":0.195973,"35":-0.078747,"36":0.123392,"37":-0.06117,"38":-0.194955,"39":-0.019258,"40":0.098333,"41":0.020302,"42":0.170923,"43":0.216046,"44":-0.009605,"45":0.053596,"46":0.210473,"47":0.048965,"48":-0.107924,"49":0.226072,"50":-0.144022,"51":-0.107546,"52":-0.150166,"53":0.08361,"54":-0.025184,"55":0.129178,"56":-0.099464,"57":0.240581,"58":-0.119661,"59":0.036062,"60":0.045395,"61":0.001493,"62":0.088998,"63":-0.139808,"64":-0.191891,"65":-0.055233,"66":0.029622,"67":0.011439,"68":0.110933,"69":-0.070783,"70":-0.037989,"71":0.071491,"72":0.073893,"73":-0.071379,"74":0.057227,"75":-0.167558,"76":0.10823,"77":-0.197935,"78":-0.111195,"79":0.132568,"80":0.080435,"81":0.050481,"82":0.141534,"83":-0.109662,"84":-0.001276,"85":0.091121,"86":0.073832,"87":0.089181,"88":0.131622,"89":0.029543,"90":0.009973,"91":-0.264863,"92":-0.145774,"93":-0.030605,"94":0.067778,"95":-0.0386,"96":-0.020672,"97":0.005067,"98":0.060793,"99":0.034322,"100":-0.096651,"101":-0.106881,"102":-0.181661,"103":0.239935,"104":-0.162827,"105":-0.018286,"106":0.105918,"107":-0.039495,"108":0.167311,"109":0.088667,"110":0.084832,"111":-0.030159,"112":-0.033819,"113":-0.043822,"114":0.046338,"115":0.108665,"116":-0.125346,"117":-0.015369,"118":0.050778,"119":0.010805,"120":0.259717,"121":-0.149855,"122":0.088287,"123":-0.177714,"124":0.004042,"125":-0.180098,"126":0.267795,"127":0.15554,"128":0.028207,"129":0.096849,"130":-0.061912,"131":-0.171992,"132":-0.144171,"133":-0.158357,"134":-0.116876,"135":-0.143938,"136":0.008393,"137":-0.096931,"138":-0.180946,"139":-0.147935,"140":0.057225,"141":0.188466,"142":0.165407,"143":0.068547,"144":-0.186236,"145":0.098649,"146":0.172346,"147":0.194761,"148":0.10073,"149":-0.044087,"150":0.174057,"151":0.1731,"152":-0.17776,"153":0.153654,"154":0.068404,"155":-0.011284,"156":-0.050925,"157":0.001231,"158":0.107975,"159":-0.090377,"160":0.129534,"161":-0.126408,"162":0.153622,"163":0.213643,"164":0.019102,"165":0.02307,"166":0.208007,"167":-0.062565,"168":-0.084138,"169":-0.091414,"170":0.18849,"171":0.007838,"172":-0.068753,"173":-0.033117,"174":-0.037913,"175":0.169093,"176":0.125149,"177":0.109466,"178":-0.241112,"179":0.217097,"180":-0.084516,"181":-0.156578,"182":-0.048505,"183":-0.19641,"184":-0.025475,"185":-0.072045,"186":-0.10798,"187":-0.123151,"188":0.034923,"189":-0.082922,"190":-0.013664,"191":0.046743,"192":-0.153694,"193":-0.076895,"194":0.157701,"195":0.143596,"196":-0.173039,"197":0.132826,"198":0.008584,"199":0.031665,"200":-0.000543,"201":0.024877,"202":-0.021535,"203":0.039164,"204":-0.165038,"205":-0.308975,"206":0.076522,"207":-0.000179,"208":-0.044407,"209":-0.033295,"210":0.019214,"211":-0.122471,"212":0.067598,"213":-0.046862,"214":-0.064359,"215":-0.000832,"216":-0.046038,"217":-0.221028,"218":0.113432,"219":-0.208875,"220":0.116504,"221":-0.08479,"222":0.026826,"223":0.084028,"224":0.051616,"225":-0.058462,"226":-0.042859,"227":0.003086,"228":0.061354,"229":-0.121904,"230":0.182966,"231":0.189335,"232":-0.07216,"233":-0.049505,"234":-0.131305,"235":0.056632,"236":0.005117,"237":-0.145933,"238":-0.083314,"239":0.07413,"240":-0.017757,"241":0.14965,"242":-0.13394,"243":-0.139491,"244":-0.057786,"245":0.187677,"246":0.102743,"247":0.097481,"248":0.168203,"249":0.19673,"250":0.170997,"251":0.042042,"252":0.058635,"253":-0.048718,"254":-0.04666,"255":0.011032,"256":-0.025672,"257":0.19521,"258":0.00636,"259":0.054673,"260":-0.128593,"261":0.216358,"262":0.170359,"263":0.148573,"264":0.03828,"265":-0.160254,"266":-0.171705,"267":0.185358,"268":0.021497,"269":0.22796,"270":0.048737,"271":0.062478,"272":0.114724,"273":0.003204,"274":0.161858,"275":-0.237436,"276":0.16169,"277":0.148796,"278":-0.115145,"279":-0.024036,"280":0.086295,"281":-0.140643,"282":-0.052072,"283":0.054122,"284":-0.042155,"285":-0.043093,"286":-0.113117,"287":0.002868,"288":0.018763,"289":0.138191,"290":0.09088,"291":0.034761,"292":-0.201507,"293":-0.047853,"294":-0.083211,"295":0.170847,"296":0.075506,"297":-0.093431,"298":0.183161,"299":-0.099567,"300":-0.134475,"301":-0.179068,"302":-0.046568,"303":0.014105,"304":-0.027878,"305":0.084877,"306":-0.00336,"307":-0.247142,"308":0.010451,"309":-0.088245,"310":-0.175417,"311":0.131567,"312":0.177909,"313":0.049913,"314":-0.004522,"315":-0.094603,"316":-0.023322,"317":0.027085,"318":0.01404,"319":-0.038736,"320":-0.173254,"321":-0.200382,"322":0.032658,"323":0.154212,"324":-0.045077,"325":0.201675,"326":-0.097107,"327":0.014103,"328":0.135893,"329":-0.19523,"330":-0.014346,"331":0.144095,"332":0.081823,"333":0.133799,"334":-0.05046,"335":-0.109392,"336":0.044811,"337":0.14717,"338":-0.008654,"339":0.108963,"340":0.019997,"341":0.016728,"342":-0.044287,"343":-0.058256,"344":-0.167051,"345":0.034722,"346":-0.095192,"347":-0.182653,"348":-0.203985,"349":-0.169885,"350":-0.040267,"351":0.147891,"352":0.025243,"353":0.093186,"354":0.042219,"355":-0.0864,"356":-0.081066,"357":0.019492,"358":0.194313,"359":-0.058358,"360":0.069682,"361":-0.164774,"362":0.17021,"363":0.006414,"364":-0.078962,"365":0.139949,"366":0.188237,"367":0.15901,"368":0.088132,"369":-0.045616,"370":0.164788,"371":0.10964,"372":0.00445,"373":0.004299,"374":0.16776,"375":0.006929,"376":-0.011981,"377":0.154094,"378":0.112,"379":0.154349,"380":0.114337,"381":0.057389,"382":0.000962,"383":-0.226699,"384":0.091481,"385":0.10729,"386":0.004518,"387":-0.176853,"388":-0.190294,"389":-0.053433,"390":0.124152,"391":0.141747,"392":-0.139767,"393":-0.194805,"394":0.103751,"395":0.067751,"396":-0.042623,"397":0.038286,"398":-0.194445,"399":0.122879,"400":0.033619,"401":-0.079003,"402":-0.029739,"403":0.160848,"404":0.160801,"405":0.129569,"406":-0.070696,"407":0.157891,"408":-0.013431,"409":-0.117137,"410":0.125916,"411":-0.201122,"412":-0.121306,"413":0.027773,"414":0.073956,"415":0.142938,"416":0.112007,"417":0.222975,"418":0.111009,"419":-0.076484,"420":-0.051823,"421":0.0826,"422":-0.096685,"423":-0.161831,"424":-0.037258,"425":-0.029286,"426":-0.106549,"427":-0.141343,"428":-0.148927,"429":0.104872,"430":-0.127919,"431":0.046267,"432":-0.097009,"433":-0.107871,"434":-0.113788,"435":0.098795,"436":0.125378,"437":0.097575,"438":-0.012442,"439":0.10445,"440":0.174572,"441":-0.018586,"442":0.247469,"443":0.00854,"444":0.212561,"445":0.121498,"446":-0.020451,"447":0.165752,"448":-0.058727,"449":0.210842,"450":-0.160363,"451":-0.113263,"452":-0.158504,"453":-0.141136,"454":0.106841,"455":0.045487,"456":0.100691,"457":0.088293,"458":0.07021,"459":-0.018739,"460":0.072078,"461":0.183571,"462":0.161899,"463":0.204911,"464":-0.125627,"465":-0.227583,"466":-0.000194,"467":0.024052,"468":-0.098604,"469":-0.033628,"470":-0.166711,"471":0.216493,"472":-0.139457,"473":0.164027,"474":0.203165,"475":-0.033221,"476":0.02223,"477":0.201045,"478":0.231829,"479":0.120319,"480":-0.101795,"481":-0.17784,"482":0.101426,"483":-0.118162,"484":0.186222,"485":0.072614,"486":-0.200268,"487":0.094271,"488":-0.164958,"489":-0.00239,"490":0.057727,"491":-0.066975,"492":-0.149971,"493":0.102788,"494":-0.066278,"495":0.141382,"496":-0.097755,"497":0.155096,"498":0.067255,"499":0.153853,"500":0.138218,"501":0.136604,"502":0.158272,"503":0.070934,"504":0.190027,"505":-0.087421,"506":0.119182,"507":-0.107093,"508":-0.180155,"509":0.102824,"510":0.126507,"511":0.196469,"512":0.182837,"513":0.006891,"514":-0.047454,"515":0.1472,"516":-0.018379,"517":0.171902,"518":-0.015626,"519":-0.145866,"520":0.108114,"521":-0.024066,"522":0.189598,"523":-0.120341,"524":-0.059788,"525":-0.194252,"526":-0.153616,"527":-0.152054,"528":-0.09662,"529":0.14287,"530":0.0435,"531":-0.121558,"532":-0.155833,"533":0.183166,"534":0.196999,"535":0.084765,"536":-0.127384,"537":-0.172364}},"7":{"bias":0.014695,"weights":{"0":-0.044077,"1":-0.197331,"2":-0.121346,"3":0.118084,"4":0.202911,"5":-0.125535,"6":0.023691,"7":0.094912,"8":-0.224704,"9":-0.129103,"10":0.078907,"11":0.172838,"12":-0.16248,"13":0.044896,"14":-0.104754,"15":0.089202,"16":0.096977,"17":-0.104789,"18":-0.162073,"19":-0.083434,"20":-0.069034,"21":0.153154,"22":0.006614,"23":0.149104,"24":0.050989,"25":-0.100547,"26":-0.205375,"27":-0.07924,"28":-0.053836,"29":0.094745,"30":0.130348,"31":-0.061959,"32":0.180236,"33":-0.111931,"34":0.030836,"35":-0.139151,"36":0.15804,"37":-0.161056,"38":0.199146,"39":-0.236736,"40":0.101953,"41":-0.09931,"42":-0.124771,"43":-0.009467,"44":-0.065842,"45":-0.097499,"46":-0.159017,"47":0.16936,"48":0.1547,"49":-0.252914,"50":-0.096582,"51":0.170826,"52":-0.135018,"53":0.184546,"54":-0.250313,"55":0.117257,"56":0.184799,"57":-0.009583,"58":0.047654,"59":-0.154457,"60":0.127566,"61":-0.037472,"62":0.11185,"63":0.178108,"64":0.070371,"65":-0.005951,"66":-0.183965,"67":0.120974,"68":0.158652,"69":-0.201626,"70":0.184909,"71":0.076494,"72":0.178859,"73":-0.045449,"74":-0.119215,"75":0.088982,"76":0.191702,"77":0.19967,"78":0.128162,"79":-0.072446,"80":-0.118347,"81":-0.008316,"82":0.207617,"83":-0.204529,"84":0.080086,"85":0.047327,"86":0.099452,"87":0.11657,"88":-0.145779,"89":-0.067255,"90":-0.061311,"91":-0.082533,"92":0.075327,"93":-0.091833,"94":-0.159541,"95":0.156709,"96":0.026214,"97":0.071642,"98":0.060684,"99":-0.183356,"100":-0.192628,"101":-0.168857,"102":0.11734,"103":0.18846,"104":-0.088305,"105":0.15506,"106":-0.045556,"107":-0.033616,"108":0.163714,"109":-0.078904,"110":-0.051242,"111":0.096259,"112":0.067497,"113":0.048622,"114":-0.088403,"115":-0.172916,"116":0.080792,"117":-0.079901,"118":0.170498,"119":0.018199,"120":0.143671,"121":0.190339,"122":0.046203,"123":0.114259,"124":-0.159526,"125":0.232128,"126":-0.121651,"127":-0.151977,"128":-0.127371,"129":0.170409,"130":0.018468,"131":0.154272,"132":0.008717,"133":-0.098226,"134":0.032252,"135":-0.162239,"136":0.139444,"137":0.078876,"138":-0.07247,"139":0.0097,"140":-0.033174,"141":0.00931,"142":0.069445,"143":-0.164968,"144":-0.074021,"145":0.045077,"146":0.007082,"147":-0.016968,"148":0.162354,"149":0.145081,"150":-0.185311,"151":-0.056602,"152":0.143214,"153":-0.007174,"154":0.119181,"155":0.14817,"156":0.167154,"157":-0.1244,"158":0.039098,"159":0.009269,"160":-0.183649,"161":0.002843,"162":-0.204652,"163":0.13559,"164":0.058229,"165":-0.107942,"166":0.140026,"167":0.146417,"168":0.048478,"169":-0.035647,"170":0.057581,"171":-0.099181,"172":-0.014747,"173":-0.144478,"174":-0.119838,"175":-0.134126,"176":0.168828,"177":0.153108,"178":0.225048,"179":-0.003544,"180":0.057671,"181":0.097817,"182":-0.076545,"183":0.186541,"184":0.166199,"185":-0.129069,"186":0.206129,"187":0.13218,"188":-0.157304,"189":-0.152732,"190":-0.127049,"191":0.028708,"192":0.248759,"193":0.00178,"194":-0.003677,"195":-0.088915,"196":-0.105719,"197":0.173329,"198":0.168518,"199":-0.079523,"200":0.234212,"201":0.011327,"202":-0.018278,"203":0.034928,"204":0.174883,"205":0.156396,"206":0.063692,"207":-0.147377,"208":0.029668,"209":-0.083561,"210":0.068476,"211":0.170934,"212":-0.003009,"213":-0.164235,"214":0.034343,"215":-0.035774,"216":-0.003882,"217":0.198077,"218":0.08311,"219":0.013022,"220":-0.068747,"221":-0.087136,"222":-0.016553,"223":0.174699,"224":-0.18132,"225":0.164406,"226":0.079056,"227":-0.150332,"228":-0.044748,"229":0.016162,"230":-0.098894,"231":-0.077604,"232":-0.098704,"233":0.178618,"234":0.081623,"235":-0.213907,"236":0.07634,"237":-0.192468,"238":0.104618,"239":-0.011145,"240":0.10805,"241":0.05985,"242":0.072565,"243":-0.132403,"244":0.091354,"245":-0.09398,"246":-0.018436,"247":0.171504,"248":0.022605,"249":-0.083514,"250":-0.006244,"251":-0.119641,"252":-0.023308,"253":0.200658,"254":0.049616,"255":-0.096796,"256":-0.056252,"257":0.091632,"258":0.182266,"259":-0.12871,"260":-0.194193,"261":0.116428,"262":0.066553,"263":0.152762,"264":-0.111727,"265":0.131058,"266":-0.155733,"267":-0.187685,"268":0.186726,"269":0.124073,"270":-0.126005,"271":0.05097,"272":0.056781,"273":-0.03636,"274":0.187185,"275":0.095866,"276":-0.181565,"277":0.038222,"278":0.084914,"279":-0.011656,"280":-0.129381,"281":-0.175897,"282":0.221842,"283":0.109192,"284":-0.099084,"285":0.0616,"286":0.014011,"287":-0.107248,"288":0.071873,"289":0.075344,"290":0.136165,"291":0.170711,"292":-0.123848,"293":-0.016579,"294":-0.097267,"295":-0.214478,"296":-0.016111,"297":-0.02974,"298":0.082739,"299":0.008013,"300":0.001418,"301":-0.140112,"302":0.170643,"303":-0.181061,"304":0.18654,"305":0.146184,"306":0.182145,"307":-0.151076,"308":0.223066,"309":0.041065,"310":0.030327,"311":0.053359,"312":-0.093751,"313":-0.202019,"314":0.016178,"315":0.051806,"316":0.140129,"317":-0.164845,"318":0.026853,"319":-0.144375,"320":0.203173,"321":-0.087025,"322":-0.020343,"323":-0.027972,"324":-0.094224,"325":0.02891,"326":0.056226,"327":0.191736,"328":-0.041662,"329":0.065917,"330":0.132888,"331":-0.091065,"332":-0.152003,"333":-0.049045,"334":0.170376,"335":-0.123927,"336":-0.162132,"337":0.006615,"338":0.047569,"339":0.120772,"340":0.054437,"341":-0.134645,"342":-0.055983,"343":0.00525,"344":-0.133403,"345":0.056895,"346":-0.040028,"347":-0.114009,"348":0.069383,"349":-0.185885,"350":-0.061542,"351":0.078314,"352":0.077087,"353":-0.088414,"354":0.062554,"355":0.150041,"356":0.10214,"357":0.08267,"358":-0.101085,"359":-0.115682,"360":0.217043,"361":-0.160268,"362":0.162515,"363":0.096409,"364":0.033765,"365":-0.201039,"366":-0.23235,"367":-0.17329,"368":-0.199151,"369":0.030254,"370":-0.064063,"371":0.107818,"372":0.131277,"373":0.115461,"374":-0.12425,"375":-0.073358,"376":0.091023,"377":0.071522,"378":0.090199,"379":-0.184946,"380":0.118511,"381":0.003244,"382":0.170979,"383":-0.081958,"384":0.069437,"385":-0.051096,"386":-0.085464,"387":-0.180089,"388":0.158212,"389":-0.120235,"390":-0.066175,"391":0.156071,"392":0.101257,"393":0.182979,"394":0.028399,"395":0.093907,"396":-0.018393,"397":0.03189,"398":0.17061,"399":0.119836,"400":0.115355,"401":0.216379,"402":0.122457,"403":0.149073,"404":-0.115256,"405":-0.035333,"406":-0.006563,"407":-0.193024,"408":0.158614,"409":-0.085249,"410":-0.093605,"411":0.182098,"412":0.131874,"413":0.022589,"414":-0.223968,"415":-0.134208,"416":-0.149549,"417":0.09665,"418":0.205082,"419":0.032369,"420":-0.064481,"421":-0.156826,"422":-0.041755,"423":-0.006297,"424":0.136765,"425":0.071867,"426":-0.082713,"427":0.235828,"428":0.091999,"429":0.060872,"430":-0.166662,"431":0.149704,"432":-0.191927,"433":0.0579,"434":-0.08237,"435":0.146045,"436":-0.125567,"437":0.105357,"438":-0.140562,"439":0.072446,"440":0.15844,"441":0.191615,"442":-0.114543,"443":-0.141568,"444":0.079412,"445":-0.1379,"446":0.046771,"447":-0.039445,"448":0.097643,"449":0.000838,"450":0.199735,"451":0.18717,"452":0.110085,"453":-0.051888,"454":0.149665,"455":-0.124248,"456":-0.100319,"457":-0.083674,"458":0.222402,"459":-0.011873,"460":0.060812,"461":0.056897,"462":-0.106042,"463":-0.149382,"464":0.011182,"465":-0.101125,"466":-0.067622,"467":-0.102993,"468":-0.124387,"469":-0.076002,"470":0.005205,"471":0.012209,"472":0.030502,"473":-0.155465,"474":-0.083782,"475":-0.093244,"476":-0.109649,"477":-0.133909,"478":0.139191,"479":0.155459,"480":-0.014296,"481":0.010919,"482":0.158466,"483":0.129333,"484":0.079456,"485":-0.11038,"486":0.128504,"487":-0.091629,"488":0.021807,"489":-0.162798,"490":0.07163,"491":-0.00566,"492":-0.106223,"493":0.170942,"494":-0.004538,"495":-0.059369,"496":-0.075387,"497":0.192279,"498":0.073021,"499":-0.153931,"500":0.072235,"501":0.137686,"502":0.135055,"503":-0.003197,"504":-0.20427,"505":0.16437,"506":0.110106,"507":0.065762,"508":0.076721,"509":-0.106404,"510":0.053083,"511":0.084818,"512":-0.026026,"513":0.007149,"514":0.101603,"515":-0.080279,"516":0.026397,"517":0.013599,"518":-0.082971,"519":0.021458,"520":-0.092504,"521":0.136308,"522":0.069155,"523":-0.152526,"524":0.190669,"525":0.115473,"526":0.038419,"527":0.124127,"528":0.085506,"529":0.137176,"530":-0.041969,"531":0.10933,"532":0.135097,"533":-0.13162,"534":-0.033489,"535":-0.034869,"536":0.081999,"537":-0.067237}},"8":{"bias":0.0383,"weights":{"0":-0.12944,"1":0.110536,"2":-0.036867,"3":-0.083326,"4":0.000401,"5":-0.089536,"6":-0.008358,"7":0.096853,"8":0.187306,"9":-0.128323,"10":-0.020451,"11":0.182927,"12":-0.137204,"13":0.201694,"14":-0.136242,"15":0.201037,"16":0.119141,"17":0.064656,"18":-0.060351,"19":0.225318,"20":0.122009,"21":0.08684,"22":-0.161805,"23":0.111645,"24":-0.028296,"25":0.060427,"26":0.076423,"27":-0.009108,"28":-0.065718,"29":0.103307,"30":-0.15033,"31":-0.005559,"32":0.006293,"33":-0.165542,"34":-0.094726,"35":-0.119424,"36":-0.094058,"37":-0.029995,"38":0.066345,"39":0.141424,"40":0.084541,"41":-0.162242,"42":0.044866,"43":-0.039417,"44":-0.096993,"45":0.087405,"46":0.208794,"47":0.0271,"48":0.040193,"49":0.025801,"50":0.090896,"51":0.134984,"52":-0.091604,"53":0.171973,"54":0.011266,"55":0.220505,"56":0.147676,"57":-0.076876,"58":0.067636,"59":0.020069,"60":0.139549,"61":0.144982,"62":-0.094526,"63":0.13328,"64":-0.062935,"65":-0.180377,"66":-0.059051,"67":0.043153,"68":0.172052,"69":-0.070802,"70":0.044301,"71":0.053664,"72":-0.144088,"73":-0.188562,"74":0.127828,"75":0.186651,"76":0.176125,"77":-0.060548,"78":0.006426,"79":0.103338,"80":0.062584,"81":-0.015056,"82":-0.054844,"83":0.119578,"84":0.004128,"85":-0.122092,"86":0.05836,"87":0.158386,"88":-0.060299,"89":-0.117883,"90":0.086063,"91":-0.175258,"92":0.128328,"93":-0.163238,"94":0.17856,"95":0.152553,"96":0.050043,"97":-0.163592,"98":-0.121727,"99":0.192357,"100":-0.154793,"101":-0.076873,"102":-0.108947,"103":0.070275,"104":-0.13112,"105":0.041232,"106":-0.006285,"107":0.122091,"108":-0.088924,"109":0.102652,"110":-0.040358,"111":-0.159137,"112":0.091914,"113":-0.090926,"114":-0.115684,"115":0.126106,"116":0.123927,"117":-0.152745,"118":-0.008999,"119":-0.143687,"120":0.130097,"121":-0.177884,"122":-0.130439,"123":-0.081152,"124":0.098226,"125":-0.164703,"126":-0.053783,"127":0.110781,"128":0.030178,"129":-0.002639,"130":-0.13615,"131":-0.110263,"132":-0.019335,"133":-0.0113,"134":-0.077542,"135":-0.209293,"136":-0.101422,"137":0.16056,"138":-0.164128,"139":-0.138818,"140":-0.051213,"141":0.08993,"142":-0.117906,"143":0.066731,"144":0.160043,"145":-0.147012,"146":-0.008298,"147":-0.017448,"148":-0.064581,"149":0.156131,"150":0.085442,"151":0.10076,"152":0.068355,"153":0.127383,"154":-0.187505,"155":0.176578,"156":-0.001773,"157":0.154283,"158":0.027937,"159":-0.175284,"160":0.080746,"161":-0.031415,"162":-0.15953,"163":-0.084174,"164":-0.045782,"165":0.091538,"166":-0.15013,"167":-0.161749,"168":-0.159771,"169":0.00146,"170":0.110059,"171":0.139884,"172":-0.024829,"173":0.017411,"174":0.096742,"175":0.111672,"176":0.108971,"177":0.044223,"178":0.032506,"179":0.087858,"180":0.19547,"181":0.174537,"182":0.104241,"183":0.163302,"184":0.043467,"185":0.050368,"186":-0.133095,"187":0.163875,"188":0.054155,"189":-0.066354,"190":0.098887,"191":0.059398,"192":-0.183622,"193":0.188609,"194":0.103743,"195":-0.025685,"196":-0.155871,"197":-0.095078,"198":-0.058095,"199":-0.142554,"200":0.047251,"201":-0.172187,"202":-0.022423,"203":-0.084781,"204":-0.071631,"205":-0.023183,"206":-0.067943,"207":-0.110839,"208":0.103023,"209":0.13531,"210":-0.130394,"211":-0.167946,"212":0.152177,"213":0.01896,"214":0.166252,"215":0.02452,"216":0.143444,"217":-0.171237,"218":-0.119007,"219":-0.174749,"220":-0.187998,"221":0.048522,"222":0.015441,"223":0.093181,"224":0.119948,"225":-0.08206,"226":0.070211,"227":0.185617,"228":0.17246,"229":-0.103752,"230":0.055066,"231":0.045957,"232":0.085979,"233":0.083034,"234":-0.060058,"235":-0.05375,"236":0.168941,"237":-0.181589,"238":0.151194,"239":-0.088005,"240":-0.085353,"241":0.121143,"242":-0.080037,"243":-0.069872,"244":0.052178,"245":-0.148794,"246":0.220921,"247":-0.143479,"248":0.176967,"249":0.136943,"250":-0.116768,"251":0.070617,"252":0.074152,"253":0.08688,"254":0.192467,"255":0.077054,"256":-0.155045,"257":-0.079665,"258":-0.138201,"259":-0.121334,"260":0.071433,"261":0.146879,"262":0.122495,"263":-0.037603,"264":-0.02914,"265":-0.174489,"266":-0.027359,"267":0.090808,"268":-0.123743,"269":-0.076498,"270":0.033299,"271":0.183038,"272":0.01292,"273":-0.169592,"274":-0.039425,"275":-0.030007,"276":0.048124,"277":-0.075609,"278":0.029345,"279":0.135554,"280":-0.14593,"281":0.134541,"282":-0.067661,"283":0.140725,"284":-0.090472,"285":0.092829,"286":-0.201655,"287":0.111799,"288":0.009995,"289":-0.215248,"290":0.034798,"291":0.162262,"292":-0.024238,"293":0.172453,"294":-0.113769,"295":0.144773,"296":-0.191936,"297":0.150244,"298":-0.114766,"299":0.043908,"300":0.011387,"301":-0.03956,"302":0.058261,"303":0.12677,"304":-0.123897,"305":-0.040629,"306":-0.068793,"307":-0.099479,"308":0.130762,"309":0.167189,"310":0.035085,"311":0.124327,"312":-0.03456,"313":-0.174388,"314":0.186241,"315":-0.12524,"316":-0.008726,"317":0.046583,"318":0.168398,"319":-0.101815,"320":0.010103,"321":-0.0132,"322":-0.098718,"323":-0.129288,"324":0.098537,"325":-0.13768,"326":0.123684,"327":-0.176871,"328":0.156325,"329":0.192693,"330":-0.160612,"331":-0.172911,"332":0.111647,"333":-0.053675,"334":0.058678,"335":-0.031407,"336":0.12183,"337":0.115913,"338":-0.003973,"339":0.13202,"340":0.1962,"341":-0.10226,"342":-0.152428,"343":-0.063767,"344":-0.067923,"345":-0.061208,"346":0.153783,"347":0.036246,"348":-0.176766,"349":-0.010049,"350":0.041596,"351":-0.110078,"352":-0.072553,"353":-0.059522,"354":-0.070941,"355":-0.175437,"356":-0.153738,"357":-0.104284,"358":0.030416,"359":0.039365,"360":-0.188278,"361":0.023517,"362":-0.070193,"363":0.190002,"364":0.083515,"365":0.087363,"366":0.077157,"367":0.107964,"368":-0.084789,"369":0.055098,"370":0.042423,"371":-0.187901,"372":0.055736,"373":0.066398,"374":-0.167275,"375":0.067387,"376":-0.134528,"377":-0.063013,"378":0.18921,"379":0.019628,"380":-0.03618,"381":0.131433,"382":-0.081864,"383":0.030194,"384":-0.067591,"385":0.097107,"386":-0.006084,"387":-0.140636,"388":-0.017859,"389":-0.110284,"390":-0.203598,"391":0.004187,"392":-0.166628,"393":0.045072,"394":-0.086085,"395":-0.179402,"396":-0.173924,"397":-0.220689,"398":0.133869,"399":0.134706,"400":-0.102525,"401":0.01337,"402":-0.101355,"403":0.084219,"404":0.006399,"405":0.0874,"406":-0.141701,"407":0.035687,"408":0.195954,"409":0.029147,"410":0.038907,"411":0.054861,"412":0.188255,"413":0.040992,"414":0.121162,"415":0.167564,"416":-0.151448,"417":0.163944,"418":0.172116,"419":-0.050807,"420":0.147429,"421":-0.045362,"422":-0.14465,"423":0.145774,"424":-0.013536,"425":0.173375,"426":0.05269,"427":0.09749,"428":0.037402,"429":0.046992,"430":-0.190614,"431":-0.009192,"432":-0.086982,"433":-0.09748,"434":-0.192778,"435":-0.124274,"436":0.091074,"437":0.059309,"438":0.175139,"439":0.119186,"440":-0.017009,"441":0.008761,"442":-0.059226,"443":0.159688,"444":0.097251,"445":0.123878,"446":-0.159297,"447":0.128736,"448":-0.144697,"449":0.033205,"450":-0.048011,"451":0.088081,"452":-0.035261,"453":-0.136386,"454":-0.022711,"455":0.22521,"456":0.091318,"457":0.142831,"458":-0.105301,"459":-0.149788,"460":0.118722,"461":0.174395,"462":0.047488,"463":-0.118744,"464":0.055191,"465":0.149109,"466":0.094765,"467":-0.121196,"468":0.141761,"469":-0.135974,"470":-0.040453,"471":0.019361,"472":-0.147834,"473":-0.070915,"474":0.214211,"475":0.0644,"476":0.165844,"477":0.212625,"478":0.168879,"479":0.012913,"480":-0.057387,"481":0.073521,"482":-0.130044,"483":0.213228,"484":0.124975,"485":-0.002825,"486":0.0297,"487":-0.170487,"488":0.073013,"489":-0.090457,"490":-0.068618,"491":-0.14149,"492":0.158255,"493":0.142009,"494":0.007081,"495":-0.060647,"496":-0.028995,"497":0.110039,"498":0.054211,"499":0.051405,"500":0.078161,"501":0.019507,"502":0.059092,"503":0.05692,"504":-0.099445,"505":-0.119071,"506":0.164991,"507":0.194358,"508":0.15125,"509":-0.115354,"510":-0.100396,"511":-0.002353,"512":0.155531,"513":0.145399,"514":0.064563,"515":0.074848,"516":0.012877,"517":-0.024588,"518":-0.153258,"519":-0.145811,"520":-0.012216,"521":-0.163962,"522":-0.140124,"523":0.188149,"524":-0.060612,"525":0.199203,"526":-0.179132,"527":0.1371,"528":0.01146,"529":-0.167589,"530":-0.183725,"531":0.118047,"532":0.144002,"533":-0.07831,"534":-0.193114,"535":-0.009181,"536":-0.016963,"537":-0.058006}},"9":{"bias":0.017694,"weights":{"0":0.1288,"1":-0.173477,"2":0.129425,"3":0.110918,"4":0.110451,"5":0.195698,"6":0.030735,"7":0.160693,"8":-0.165163,"9":0.044955,"10":-0.081268,"11":0.078049,"12":-0.095072,"13":0.065809,"14":0.086399,"15":0.062415,"16":0.17295,"17":-0.137836,"18":-0.120022,"19":0.035209,"20":-0.231611,"21":0.07963,"22":0.087952,"23":-0.080464,"24":-0.111569,"25":-0.162295,"26":-0.097345,"27":-0.21099,"28":0.15885,"29":0.069618,"30":-0.174555,"31":-0.089788,"32":0.120541,"33":0.16756,"34":-0.16105,"35":-0.14886,"36":0.155294,"37":0.059655,"38":0.048082,"39":0.152458,"40":0.088217,"41":-0.115602,"42":-0.042515,"43":0.057149,"44":-0.265791,"45":0.106913,"46":0.026554,"47":0.126664,"48":-0.206069,"49":-0.155691,"50":-0.054929,"51":0.020191,"52":0.080148,"53":-0.145481,"54":-0.102369,"55":-0.16957,"56":0.082312,"57":-0.112734,"58":-0.101562,"59":-0.015037,"60":-0.078325,"61":0.017658,"62":0.076048,"63":0.141372,"64":-0.192163,"65":-0.117179,"66":0.100237,"67":-0.07245,"68":-0.144312,"69":-0.168807,"70":-0.181765,"71":0.053748,"72":0.027043,"73":0.028605,"74":-0.146334,"75":0.13537,"76":-0.023883,"77":0.122571,"78":0.014417,"79":0.112371,"80":-0.033036,"81":-0.172896,"82":0.163041,"83":0.176974,"84":-0.193341,"85":-0.063411,"86":0.098455,"87":0.041942,"88":0.009728,"89":-0.11223,"90":-0.141634,"91":0.210165,"92":0.059091,"93":0.074749,"94":0.147749,"95":0.141868,"96":-0.094267,"97":-0.048338,"98":0.178255,"99":0.015645,"100":0.049987,"101":0.093489,"102":0.030145,"103":-0.02751,"104":-0.140565,"105":-0.018773,"106":-0.088142,"107":-0.057189,"108":0.114442,"109":0.1322,"110":0.052995,"111":0.14454,"112":-0.127881,"113":-0.038007,"114":-0.104557,"115":0.066967,"116":-0.082574,"117":-0.052202,"118":-0.119548,"119":-0.098511,"120":0.029816,"121":-0.181398,"122":0.064249,"123":-0.088612,"124":-0.140043,"125":-0.144465,"126":-0.081412,"127":-0.162501,"128":-0.043832,"129":-0.156086,"130":-0.050717,"131":0.175687,"132":-0.133309,"133":0.078931,"134":-0.136845,"135":0.053247,"136":-0.086273,"137":0.127775,"138":-0.164,"139":0.126279,"140":-0.123492,"141":-0.075656,"142":0.123004,"143":0.014429,"144":-0.163107,"145":-0.169395,"146":0.161235,"147":-0.118097,"148":-0.126686,"149":-0.012055,"150":-0.144909,"151":-0.114595,"152":-0.140012,"153":-0.044467,"154":-0.011427,"155":-0.015613,"156":0.004258,"157":0.06315,"158":0.064181,"159":0.035814,"160":0.093739,"161":-0.012204,"162":0.128976,"163":0.103385,"164":0.036608,"165":0.168545,"166":-0.056052,"167":0.206226,"168":-0.174338,"169":0.002173,"170":0.110766,"171":0.003641,"172":-0.050747,"173":0.139602,"174":0.120297,"175":0.143213,"176":-0.030054,"177":-0.14011,"178":0.118954,"179":0.162965,"180":-0.089626,"181":-0.122774,"182":-0.174755,"183":-0.099754,"184":-0.16211,"185":0.141102,"186":0.020968,"187":-0.093311,"188":-0.05627,"189":0.124788,"190":0.077568,"191":0.02731,"192":-0.186182,"193":-0.162224,"194":-0.132526,"195":0.015593,"196":0.016617,"197":-0.021306,"198":0.169273,"199":0.15129,"200":-0.096125,"201":0.015805,"202":-0.057604,"203":0.089587,"204":0.218486,"205":-0.062457,"206":0.166849,"207":0.01661,"208":0.07212,"209":0.020896,"210":-0.121293,"211":0.05019,"212":-0.057503,"213":-0.014646,"214":-0.090776,"215":-0.106894,"216":0.117927,"217":-0.040806,"218":0.198776,"219":0.078321,"220":0.060272,"221":-0.011414,"222":-0.049247,"223":0.122079,"224":0.070055,"225":0.155109,"226":0.163383,"227":-0.0951,"228":0.010698,"229":-0.00883,"230":-0.135939,"231":-0.069052,"232":-0.160744,"233":0.053475,"234":-0.104545,"235":0.144475,"236":-0.115875,"237":0.168118,"238":-0.148498,"239":-0.162129,"240":0.21116,"241":0.003315,"242":0.131851,"243":-0.139594,"244":0.010762,"245":-0.11913,"246":-0.096519,"247":-0.08071,"248":0.067189,"249":0.080838,"250":0.119621,"251":-0.07982,"252":-0.148914,"253":-0.095087,"254":-0.010197,"255":0.092348,"256":-0.147859,"257":0.098762,"258":0.17577,"259":0.098381,"260":0.058851,"261":0.160571,"262":0.087218,"263":-0.129422,"264":0.043537,"265":0.18022,"266":-0.027155,"267":-0.076865,"268":-0.032966,"269":-0.15543,"270":0.113993,"271":-0.042588,"272":-0.098402,"273":-0.178187,"274":0.044736,"275":-0.164542,"276":-0.182199,"277":0.142374,"278":0.155166,"279":0.089502,"280":0.0235,"281":-0.021867,"282":0.044382,"283":0.048009,"284":0.126467,"285":0.164521,"286":0.026341,"287":0.133636,"288":-0.150007,"289":-0.004691,"290":-0.109587,"291":0.094462,"292":0.191352,"293":0.06863,"294":0.046992,"295":0.12179,"296":0.075614,"297":-0.196635,"298":0.151498,"299":-0.085823,"300":-0.115901,"301":0.047821,"302":0.079648,"303":-0.023191,"304":0.14257,"305":-0.016864,"306":-0.079111,"307":0.184912,"308":0.171184,"309":-0.018263,"310":-0.140153,"311":0.049936,"312":0.09363,"313":0.133304,"314":-0.158845,"315":0.192008,"316":-0.002395,"317":0.115717,"318":-0.187644,"319":-0.098086,"320":0.077025,"321":0.165065,"322":0.025692,"323":0.008828,"324":0.099316,"325":-0.174262,"326":0.184897,"327":-0.060284,"328":-0.106099,"329":-0.187565,"330":-0.128563,"331":-0.129941,"332":-0.106668,"333":0.006042,"334":0.129641,"335":0.077034,"336":-0.178055,"337":-0.149255,"338":0.055455,"339":-0.070014,"340":0.084002,"341":-0.01921,"342":0.038739,"343":-0.022032,"344":-0.001166,"345":0.131895,"346":0.119059,"347":0.177465,"348":-0.027042,"349":0.10209,"350":-0.093715,"351":0.071147,"352":-0.005419,"353":0.120733,"354":-0.048711,"355":-0.1606,"356":0.0941,"357":-0.165403,"358":-0.043525,"359":0.058317,"360":0.067758,"361":0.057667,"362":0.118298,"363":-0.19619,"364":0.172035,"365":0.012564,"366":-0.059224,"367":0.022702,"368":-0.175042,"369":0.003652,"370":0.15941,"371":-0.035666,"372":-0.020873,"373":0.050528,"374":-0.123675,"375":0.186461,"376":0.09214,"377":0.000495,"378":-0.137118,"379":-0.17445,"380":0.165437,"381":-0.125197,"382":-0.173285,"383":-0.136425,"384":0.059416,"385":-0.001802,"386":-0.132856,"387":-0.180167,"388":-0.059115,"389":-0.039554,"390":0.030451,"391":0.115415,"392":-0.108383,"393":-0.056094,"394":-0.072296,"395":0.197654,"396":0.155696,"397":-0.069045,"398":0.079923,"399":-0.117738,"400":-0.101647,"401":-0.084376,"402":-0.11843,"403":0.058986,"404":0.01099,"405":-0.100478,"406":0.188904,"407":0.054153,"408":0.104044,"409":0.125766,"410":-0.125456,"411":0.181534,"412":-0.186963,"413":-0.070155,"414":0.077908,"415":-0.146077,"416":-0.158984,"417":0.079444,"418":0.070279,"419":0.166367,"420":-0.07711,"421":0.061445,"422":0.121726,"423":-0.143682,"424":-0.105136,"425":-0.099185,"426":-0.035519,"427":0.187207,"428":-0.189819,"429":0.132915,"430":0.109326,"431":0.085157,"432":-0.045562,"433":-0.051355,"434":-0.098426,"435":0.07803,"436":0.097032,"437":0.122498,"438":-0.102849,"439":0.038801,"440":-0.169736,"441":0.022849,"442":-0.086206,"443":0.18391,"444":-0.170346,"445":0.167446,"446":-0.18836,"447":0.057806,"448":0.060134,"449":-0.160982,"450":0.113602,"451":0.044289,"452":0.178175,"453":-0.117779,"454":0.079898,"455":0.039719,"456":0.110758,"457":0.095875,"458":0.071809,"459":-0.013858,"460":-0.008862,"461":-0.094058,"462":0.078209,"463":-0.017914,"464":-0.168798,"465":-0.005521,"466":-0.064087,"467":0.042964,"468":0.144895,"469":0.146955,"470":-0.167213,"471":0.160352,"472":0.019827,"473":-0.182351,"474":-0.01635,"475":-0.115931,"476":-0.06938,"477":0.085196,"478":-0.210133,"479":0.091028,"480":0.153966,"481":0.071628,"482":-0.062383,"483":0.153631,"484":-0.108798,"485":-0.14873,"486":0.134227,"487":0.190899,"488":0.050535,"489":-0.142022,"490":0.084477,"491":-0.011213,"492":-0.128085,"493":0.187891,"494":-0.080794,"495":0.10995,"496":-0.102465,"497":0.167179,"498":0.05342,"499":0.184556,"500":-0.176799,"501":-0.012497,"502":-0.115242,"503":-0.061868,"504":0.065317,"505":0.150706,"506":0.193118,"507":0.141313,"508":0.013561,"509":0.178078,"510":0.134458,"511":0.124387,"512":0.04839,"513":-0.134357,"514":0.188989,"515":0.189672,"516":-0.008759,"517":-0.04004,"518":0.093029,"519":0.002302,"520":0.11872,"521":-0.153609,"522":0.021538,"523":-0.129903,"524":-0.043877,"525":-0.129282,"526":0.013824,"527":-0.018226,"528":0.031415,"529":0.137676,"530":0.214953,"531":-0.164823,"532":0.035448,"533":0.089468,"534":-0.032365,"535":-0.192635,"536":0.173812,"537":0.08113}},"10":{"bias":-0.104874,"weights":{"0":0.075364,"1":0.233233,"2":-0.185176,"3":-0.171373,"4":-0.018438,"5":-0.113704,"6":-0.125759,"7":-0.082418,"8":0.242726,"9":0.11015,"10":-0.152399,"11":0.039891,"12":0.078873,"13":0.089516,"14":0.174935,"15":0.014379,"16":-0.161369,"17":-0.136213,"18":0.201046,"19":0.413351,"20":0.281045,"21":0.164846,"22":-0.043217,"23":0.124088,"24":0.310657,"25":0.162901,"26":0.127522,"27":0.065647,"28":0.123856,"29":-0.050357,"30":-0.030847,"31":0.009896,"32":0.183978,"33":0.082685,"34":0.197997,"35":0.090213,"36":0.240745,"37":0.237757,"38":0.085223,"39":-0.010976,"40":0.165157,"41":0.239439,"42":0.009612,"43":0.078401,"44":0.569583,"45":0.101082,"46":0.099586,"47":0.060618,"48":-0.032518,"49":0.011758,"50":0.166263,"51":0.263199,"52":-0.104761,"53":0.306628,"54":0.348137,"55":0.405744,"56":0.152301,"57":0.016761,"58":0.125336,"59":-0.019197,"60":0.282022,"61":-0.104178,"62":0.08657,"63":-0.092454,"64":-0.074786,"65":-0.036603,"66":-0.069189,"67":0.107483,"68":0.06867,"69":0.232941,"70":-0.145824,"71":0.301735,"72":-0.205223,"73":0.027673,"74":-0.072739,"75":0.233325,"76":0.194229,"77":-0.193475,"78":0.289997,"79":-0.008772,"80":0.264546,"81":0.123517,"82":-0.135374,"83":-0.077238,"84":0.023043,"85":0.063275,"86":0.129714,"87":0.179726,"88":-0.146366,"89":0.050784,"90":-0.012462,"91":0.030718,"92":-0.156723,"93":0.036389,"94":-0.240467,"95":0.234681,"96":-0.017736,"97":-0.199169,"98":-0.064259,"99":-0.018472,"100":-0.142856,"101":-0.05792,"102":-0.002586,"103":0.096737,"104":-0.16879,"105":-0.251668,"106":0.048858,"107":0.070326,"108":0.139048,"109":0.025301,"110":0.064173,"111":-0.138442,"112":0.026391,"113":0.083853,"114":0.101077,"115":-0.156899,"116":0.068364,"117":0.109591,"118":-0.119315,"119":-0.112502,"120":-0.043522,"121":-0.055877,"122":-0.001998,"123":-0.093173,"124":0.126716,"125":-0.010144,"126":-0.001406,"127":0.099083,"128":-0.166956,"129":-0.190843,"130":-0.012954,"131":0.060756,"132":-0.247381,"133":0.080172,"134":-0.134907,"135":-0.150032,"136":-0.027012,"137":0.117497,"138":0.097956,"139":0.132675,"140":-0.049961,"141":-0.148848,"142":-0.180439,"143":-0.022995,"144":-0.167154,"145":0.213583,"146":0.134365,"147":0.379381,"148":0.20132,"149":-0.127949,"150":-0.06917,"151":0.102654,"152":-0.097906,"153":-0.032838,"154":-0.035581,"155":0.220416,"156":-0.015718,"157":-0.174459,"158":0.048599,"159":0.357968,"160":0.061785,"161":0.103718,"162":0.220551,"163":-0.114758,"164":-0.217794,"165":0.036519,"166":0.27054,"167":0.081143,"168":-0.119771,"169":0.132523,"170":0.271928,"171":-0.092599,"172":0.24658,"173":-0.097402,"174":0.069665,"175":-0.073464,"176":0.002959,"177":0.096112,"178":0.008053,"179":-0.020721,"180":-0.145952,"181":-0.057003,"182":0.162085,"183":0.152956,"184":0.176965,"185":-0.028332,"186":0.123516,"187":-0.013564,"188":0.128097,"189":-0.020981,"190":-0.052989,"191":-0.226468,"192":-0.05834,"193":0.237624,"194":-0.044237,"195":-0.135905,"196":-0.050728,"197":0.183085,"198":0.150276,"199":0.184496,"200":0.04773,"201":0.051212,"202":0.100179,"203":-0.151523,"204":0.250577,"205":-0.061213,"206":0.096008,"207":0.107672,"208":0.114282,"209":0.166032,"210":-0.179676,"211":-0.001994,"212":0.192807,"213":0.012147,"214":0.113743,"215":-0.139376,"216":-0.064495,"217":-0.113317,"218":-0.253454,"219":0.055016,"220":-0.041985,"221":0.036103,"222":-0.062955,"223":-0.160332,"224":0.129947,"225":0.127029,"226":-0.084781,"227":-0.08517,"228":-0.209926,"229":-0.1859,"230":-0.20661,"231":0.173481,"232":-0.053931,"233":-0.201431,"234":-0.003759,"235":-0.118567,"236":-0.02949,"237":-0.205998,"238":-0.102971,"239":0.045611,"240":-0.170042,"241":0.023202,"242":-0.006799,"243":0.117641,"244":-0.195418,"245":0.009616,"246":0.028966,"247":0.092377,"248":0.198218,"249":0.020101,"250":-0.187384,"251":-0.044376,"252":0.154118,"253":0.223861,"254":0.126349,"255":0.11102,"256":-0.132081,"257":-0.053174,"258":-0.076292,"259":-0.00791,"260":-0.180645,"261":0.232854,"262":-0.149464,"263":-0.003373,"264":0.025467,"265":-0.061232,"266":0.083393,"267":0.12552,"268":-0.036156,"269":0.230335,"270":-0.162484,"271":0.1458,"272":0.204747,"273":-0.124576,"274":0.151033,"275":0.004544,"276":-0.085179,"277":-0.155117,"278":0.139637,"279":-0.019197,"280":0.10563,"281":-0.019912,"282":0.058553,"283":-0.183093,"284":0.299117,"285":-0.056918,"286":-0.008125,"287":-0.194808,"288":-0.064545,"289":-0.153235,"290":0.02137,"291":0.146833,"292":-0.215367,"293":0.21919,"294":0.194649,"295":0.088309,"296":-0.15049,"297":0.04955,"298":0.045188,"299":-0.018579,"300":-0.200197,"301":-0.175535,"302":0.027991,"303":0.058485,"304":0.062902,"305":0.014676,"306":0.074264,"307":-0.216859,"308":-0.036575,"309":-0.00188,"310":0.022384,"311":0.027299,"312":-0.095246,"313":0.149184,"314":0.025455,"315":0.008876,"316":-0.094539,"317":0.220157,"318":-0.093369,"319":0.027025,"320":-0.209511,"321":0.102438,"322":-0.075554,"323":0.084014,"324":-0.085285,"325":-0.074211,"326":-0.008054,"327":-0.048881,"328":0.004773,"329":0.12413,"330":0.208984,"331":-0.109937,"332":-0.046718,"333":-0.011881,"334":-0.038273,"335":-0.111473,"336":-0.047053,"337":-0.157651,"338":0.200103,"339":0.024077,"340":-0.139514,"341":-0.028372,"342":-0.102879,"343":0.047067,"344":-0.044306,"345":0.109371,"346":-0.02156,"347":0.130627,"348":-0.062063,"349":-0.039853,"350":-0.05284,"351":0.133176,"352":-0.056765,"353":-0.025502,"354":-0.088449,"355":0.289391,"356":-0.147165,"357":0.029518,"358":-0.097829,"359":-0.049679,"360":-0.029502,"361":-0.050377,"362":0.043964,"363":0.035067,"364":0.096017,"365":0.102341,"366":-0.065107,"367":0.02715,"368":-0.082981,"369":-0.152469,"370":0.015679,"371":0.009948,"372":-0.031529,"373":-0.203621,"374":0.100802,"375":0.06845,"376":-0.258169,"377":-0.134847,"378":0.1818,"379":-0.149453,"380":0.135579,"381":-0.066477,"382":0.058927,"383":-0.02987,"384":0.139368,"385":0.032142,"386":-0.111441,"387":-0.017046,"388":0.048481,"389":-0.121002,"390":0.036235,"391":0.011123,"392":-0.080476,"393":0.066302,"394":0.074113,"395":0.052257,"396":-0.027902,"397":-0.204455,"398":-0.127083,"399":-0.123529,"400":-0.026083,"401":-0.207107,"402":0.008497,"403":-0.214955,"404":-0.17525,"405":0.133405,"406":0.099228,"407":0.209514,"408":0.097969,"409":-0.155374,"410":-0.125249,"411":-0.132167,"412":-0.109438,"413":-0.065247,"414":0.046169,"415":0.06551,"416":0.045479,"417":0.006778,"418":-0.184589,"419":-0.157125,"420":0.105521,"421":-0.043734,"422":-0.096459,"423":0.027619,"424":0.08731,"425":0.156664,"426":0.06172,"427":-0.151839,"428":0.08048,"429":-0.112279,"430":-0.003395,"431":0.078275,"432":-0.108691,"433":-0.062364,"434":-0.050518,"435":0.003412,"436":-0.128915,"437":0.077736,"438":-0.211077,"439":-0.2467,"440":-0.227214,"441":0.003735,"442":0.255557,"443":-0.079381,"444":-0.059301,"445":0.097282,"446":0.080153,"447":0.104651,"448":-0.032628,"449":0.082485,"450":-0.177833,"451":-0.003658,"452":-0.001153,"453":-0.199906,"454":0.018246,"455":-0.064255,"456":-0.111117,"457":-0.121466,"458":-0.174441,"459":-0.107489,"460":0.042779,"461":-0.003452,"462":0.13819,"463":0.148139,"464":0.116509,"465":0.178202,"466":-0.020887,"467":0.157544,"468":0.037698,"469":-0.113028,"470":-0.107927,"471":0.009614,"472":0.115486,"473":-0.013242,"474":-0.013404,"475":0.175974,"476":-0.150174,"477":-0.141361,"478":0.156244,"479":-0.113764,"480":-0.149032,"481":0.031938,"482":0.133932,"483":0.024954,"484":-0.024928,"485":-0.047702,"486":0.035063,"487":0.121186,"488":-0.003309,"489":0.1336,"490":-0.152743,"491":0.014169,"492":-0.000491,"493":0.252308,"494":-0.08348,"495":-0.023344,"496":0.00402,"497":0.103304,"498":-0.097468,"499":0.041943,"500":0.181317,"501":-0.148985,"502":0.195668,"503":-0.179858,"504":0.114807,"505":-0.017378,"506":-0.134834,"507":-0.117953,"508":-0.045301,"509":0.188789,"510":-0.070192,"511":-0.091344,"512":-0.142695,"513":-0.129204,"514":-0.222744,"515":-0.039155,"516":0.063926,"517":-0.006702,"518":-0.04714,"519":-0.216871,"520":-0.059869,"521":0.074336,"522":-0.060405,"523":0.096584,"524":0.068116,"525":-0.074035,"526":-0.067236,"527":0.154484,"528":-0.060333,"529":-0.016677,"530":0.136189,"531":-0.037841,"532":0.0799,"533":-0.161245,"534":0.020901,"535":0.033315,"536":0.008923,"537":-0.139237}},"11":{"bias":0.056628,"weights":{"0":0.131119,"1":-0.015052,"2":-0.043518,"3":0.219736,"4":-0.043616,"5":-0.015855,"6":0.168457,"7":-0.018479,"8":-0.108765,"9":0.098158,"10":-0.121432,"11":0.142072,"12":-0.00914,"13":-0.119085,"14":0.116682,"15":0.037855,"16":-0.151677,"17":-0.125746,"18":-0.055844,"19":0.020673,"20":-0.174258,"21":0.029795,"22":-0.184789,"23":-0.032983,"24":0.029709,"25":-0.206335,"26":0.10008,"27":0.084535,"28":0.07914,"29":-0.106187,"30":0.274433,"31":-0.250321,"32":-0.022421,"33":-0.072043,"34":-0.238981,"35":-0.18023,"36":-0.212225,"37":0.08848,"38":0.217202,"39":-0.139201,"40":-0.093583,"41":-0.141937,"42":-0.141709,"43":-0.180133,"44":0.047611,"45":0.249456,"46":-0.15685,"47":0.137384,"48":-0.042536,"49":-0.028924,"50":-0.090956,"51":-0.054378,"52":0.044758,"53":-0.078305,"54":-0.092265,"55":-0.152363,"56":0.052346,"57":-0.217558,"58":-0.148042,"59":-0.035403,"60":-0.152611,"61":-0.1177,"62":0.125374,"63":0.022033,"64":0.15382,