
// this file is autogenerated
// @ts-nocheck
/* eslint-disable */

export const substrings = ["1","2","3","5","7","8","9","10","load","spin","puls","captcha","recaptcha","passwor","auth","pas","ssw","rname","-login",".com/l","ogin","userna","signup","in_","sign-","goog","valid","word","goo","ass","-form","submit","rna","-for","bmi","ern","mit","gin","sw","sign","aut","subm","wor","input-","gi","wo","-input","d ng-","ema","/lo","npu","put","mail","inp","/l","log","fie","np","iel","footer","ign","eld","val","lid","ord","for","rn","bm","-lo","d n","orm","gn","ert","ort","vg","e_","edi","/d","at","le-","vi","e-b","out","ep","nt ","sa","mal"," te","ry","fe","de","/m","ly","-le","ey","ist","ver"," h","eb","ov","unt","ns","tk","gg","ele","no","pan","ll-","_p","-h","ive","do","dd","ad","_c","na","ge","sma","left","lec","-d","ct","t-s","cs","en","sel","me","ea","ag","din","es"," w","lect","on-","ca","age","ta","ted","pen","ti","dr","rk","-md","ls","rv","r-","der-","io","k-","acc","wid","ion","select","v-","ga","ty","ay","-se","main","tion","ic","-de","_3","pla","le ","ggle","ba","tu","rea","#","ove","lt","el-","nd","ue","r-b","t-i","tiv","not","ex-","hel","xs","ite","ale","e__","/e","toggle","pi","vb","tl","cl","ab","_n","nse","itl","-fl","ar"," d","-he"," no"," _","-ic","ven","ten","onte","rc","nten","vat","ice","tent","lp","conte","r-s","v ","cco","r-in","n-t","bi","-tr","on_","ing","oun","cou","cat","tle","bs","dro","ico","-me","_a","cal","icon","_t","act","-hea","ount"," fa","-ca","sec","pb","icon ","yl","style","ick","ting","tem","em ","est","pd","on i","our","me-","cti","dow","scr","a f","yp","item","ip","_d","l-md","ear","-icon ","acti","item ","tit","min","get","ane","ide","on--","button--","tat","e/","ion-","ke","-n","lis","sta","ins","ind","md-","list","sh","oa","s-c","add","av","wn","fa ","section","_1","ions","oll","pop","ho","activ","own","icon i","nel","anel","tions","-ti","avi","ar-","per-","panel-","bb","ar-i","nt-","ent-","ill","ka","pro","u-","_item","bar","-it","stat","t-t","ana","rdi","a-","-sec","rop","own-","ard","men","-item","-list","bar-","ble","-sta","dg","tar","da","-title","-do","enu","hu","wd"," ac","item-","tar-","ile","-star","sea","erv","ata","tri","ntent-","ctl","inc","ng-st","nt_","_2","--f","gs","rte","end","hb","sid","rch"," icon","dge","eh","les","___","old"," icon-","r-n","-flex","-na","oar","arc","v_","abl","icon_","__item","nco","das","ent_","ngs","ome","content_","fil","k-icon","ash","-header-","ncont","s_","-pro","ava","_cl","r-na","tab","incont","eba","lte","hbo","s1","je","k-a","ebar","nda","on--f","__cls1","board-","button--f","deb","ject","oj","-ta","styles","gen","menu-","home","s__","sidebar-","t_c","stic","ncontent","oje","fk","tis","avatar","hot","roje","-nav_","maincont","incontent","es_","nav__","agen","enda","--fk","fk-","gend"];
export const attributes = ["class","id","href","style","type","tabindex","role","viewbox","d","name","fill","width","target","xmlns","title","src","height","value","data-spec","aria-label","rel","placeholder","aria-hidden","data-qa","display","lang","alt","focusable","for","autocomplete","fill-rule","data-key","data-locale-at-render","method","data-testid","action","jsname","aria-expanded","day","dir","jsaction","aria-labelledby","data-columnid","draggable","aria-haspopup","novalidate","required","aria-disabled","data-fa-i2svg","data-columnindex","jsslot","data-columntype","autocapitalize","aria-selected","maxlength","jscontroller","onclick","data-test-id","data-icon","data-v-26b89f62","ng-if","version","data-value","xmlns:xlink","data-prefix","data-menu-item","aria-describedby","data-button-use","autofocus","aria-current","transform","ui-sref","data-toggle","scrolling","spellcheck","frameborder","disabled","data-v-40e3a2e9","stroke","align","data-automation","ng-class","label","stroke-width","sandbox","autocorrect","size","data-focusable","x","y","data-component","data-reactid","xlink:href","ng-click","points","accept-charset","data-style","data-provider","ng-href","ng-model"];
export const networkDef = {"sizes":[538,32,32,16,4,1],"layers":[{"0":{},"1":{},"2":{},"3":{},"4":{},"5":{},"6":{},"7":{},"8":{},"9":{},"10":{},"11":{},"12":{},"13":{},"14":{},"15":{},"16":{},"17":{},"18":{},"19":{},"20":{},"21":{},"22":{},"23":{},"24":{},"25":{},"26":{},"27":{},"28":{},"29":{},"30":{},"31":{},"32":{},"33":{},"34":{},"35":{},"36":{},"37":{},"38":{},"39":{},"40":{},"41":{},"42":{},"43":{},"44":{},"45":{},"46":{},"47":{},"48":{},"49":{},"50":{},"51":{},"52":{},"53":{},"54":{},"55":{},"56":{},"57":{},"58":{},"59":{},"60":{},"61":{},"62":{},"63":{},"64":{},"65":{},"66":{},"67":{},"68":{},"69":{},"70":{},"71":{},"72":{},"73":{},"74":{},"75":{},"76":{},"77":{},"78":{},"79":{},"80":{},"81":{},"82":{},"83":{},"84":{},"85":{},"86":{},"87":{},"88":{},"89":{},"90":{},"91":{},"92":{},"93":{},"94":{},"95":{},"96":{},"97":{},"98":{},"99":{},"100":{},"101":{},"102":{},"103":{},"104":{},"105":{},"106":{},"107":{},"108":{},"109":{},"110":{},"111":{},"112":{},"113":{},"114":{},"115":{},"116":{},"117":{},"118":{},"119":{},"120":{},"121":{},"122":{},"123":{},"124":{},"125":{},"126":{},"127":{},"128":{},"129":{},"130":{},"131":{},"132":{},"133":{},"134":{},"135":{},"136":{},"137":{},"138":{},"139":{},"140":{},"141":{},"142":{},"143":{},"144":{},"145":{},"146":{},"147":{},"148":{},"149":{},"150":{},"151":{},"152":{},"153":{},"154":{},"155":{},"156":{},"157":{},"158":{},"159":{},"160":{},"161":{},"162":{},"163":{},"164":{},"165":{},"166":{},"167":{},"168":{},"169":{},"170":{},"171":{},"172":{},"173":{},"174":{},"175":{},"176":{},"177":{},"178":{},"179":{},"180":{},"181":{},"182":{},"183":{},"184":{},"185":{},"186":{},"187":{},"188":{},"189":{},"190":{},"191":{},"192":{},"193":{},"194":{},"195":{},"196":{},"197":{},"198":{},"199":{},"200":{},"201":{},"202":{},"203":{},"204":{},"205":{},"206":{},"207":{},"208":{},"209":{},"210":{},"211":{},"212":{},"213":{},"214":{},"215":{},"216":{},"217":{},"218":{},"219":{},"220":{},"221":{},"222":{},"223":{},"224":{},"225":{},"226":{},"227":{},"228":{},"229":{},"230":{},"231":{},"232":{},"233":{},"234":{},"235":{},"236":{},"237":{},"238":{},"239":{},"240":{},"241":{},"242":{},"243":{},"244":{},"245":{},"246":{},"247":{},"248":{},"249":{},"250":{},"251":{},"252":{},"253":{},"254":{},"255":{},"256":{},"257":{},"258":{},"259":{},"260":{},"261":{},"262":{},"263":{},"264":{},"265":{},"266":{},"267":{},"268":{},"269":{},"270":{},"271":{},"272":{},"273":{},"274":{},"275":{},"276":{},"277":{},"278":{},"279":{},"280":{},"281":{},"282":{},"283":{},"284":{},"285":{},"286":{},"287":{},"288":{},"289":{},"290":{},"291":{},"292":{},"293":{},"294":{},"295":{},"296":{},"297":{},"298":{},"299":{},"300":{},"301":{},"302":{},"303":{},"304":{},"305":{},"306":{},"307":{},"308":{},"309":{},"310":{},"311":{},"312":{},"313":{},"314":{},"315":{},"316":{},"317":{},"318":{},"319":{},"320":{},"321":{},"322":{},"323":{},"324":{},"325":{},"326":{},"327":{},"328":{},"329":{},"330":{},"331":{},"332":{},"333":{},"334":{},"335":{},"336":{},"337":{},"338":{},"339":{},"340":{},"341":{},"342":{},"343":{},"344":{},"345":{},"346":{},"347":{},"348":{},"349":{},"350":{},"351":{},"352":{},"353":{},"354":{},"355":{},"356":{},"357":{},"358":{},"359":{},"360":{},"361":{},"362":{},"363":{},"364":{},"365":{},"366":{},"367":{},"368":{},"369":{},"370":{},"371":{},"372":{},"373":{},"374":{},"375":{},"376":{},"377":{},"378":{},"379":{},"380":{},"381":{},"382":{},"383":{},"384":{},"385":{},"386":{},"387":{},"388":{},"389":{},"390":{},"391":{},"392":{},"393":{},"394":{},"395":{},"396":{},"397":{},"398":{},"399":{},"400":{},"401":{},"402":{},"403":{},"404":{},"405":{},"406":{},"407":{},"408":{},"409":{},"410":{},"411":{},"412":{},"413":{},"414":{},"415":{},"416":{},"417":{},"418":{},"419":{},"420":{},"421":{},"422":{},"423":{},"424":{},"425":{},"426":{},"427":{},"428":{},"429":{},"430":{},"431":{},"432":{},"433":{},"434":{},"435":{},"436":{},"437":{},"438":{},"439":{},"440":{},"441":{},"442":{},"443":{},"444":{},"445":{},"446":{},"447":{},"448":{},"449":{},"450":{},"451":{},"452":{},"453":{},"454":{},"455":{},"456":{},"457":{},"458":{},"459":{},"460":{},"461":{},"462":{},"463":{},"464":{},"465":{},"466":{},"467":{},"468":{},"469":{},"470":{},"471":{},"472":{},"473":{},"474":{},"475":{},"476":{},"477":{},"478":{},"479":{},"480":{},"481":{},"482":{},"483":{},"484":{},"485":{},"486":{},"487":{},"488":{},"489":{},"490":{},"491":{},"492":{},"493":{},"494":{},"495":{},"496":{},"497":{},"498":{},"499":{},"500":{},"501":{},"502":{},"503":{},"504":{},"505":{},"506":{},"507":{},"508":{},"509":{},"510":{},"511":{},"512":{},"513":{},"514":{},"515":{},"516":{},"517":{},"518":{},"519":{},"520":{},"521":{},"522":{},"523":{},"524":{},"525":{},"526":{},"527":{},"528":{},"529":{},"530":{},"531":{},"532":{},"533":{},"534":{},"535":{},"536":{},"537":{}},{"0":{"bias":-0.123739,"weights":{"0":0.055577,"1":0.162531,"2":0.140746,"3":-0.172182,"4":0.051046,"5":0.027872,"6":0.179495,"7":-0.04384,"8":-0.001404,"9":0.108586,"10":0.007954,"11":-0.045561,"12":0.099656,"13":0.050936,"14":0.094294,"15":-0.139938,"16":0.154268,"17":-0.016497,"18":-0.079775,"19":-0.021953,"20":-0.074688,"21":-0.119073,"22":0.065192,"23":-0.16759,"24":0.031643,"25":-0.020092,"26":0.033329,"27":-0.174826,"28":0.109882,"29":-0.121005,"30":-0.092665,"31":0.109243,"32":-0.093248,"33":-0.105734,"34":-0.042803,"35":-0.194905,"36":-0.177831,"37":-0.104212,"38":0.11289,"39":0.101152,"40":-0.076218,"41":-0.117857,"42":-0.1517,"43":0.081158,"44":-0.028496,"45":-0.030565,"46":-0.059498,"47":0.151946,"48":-0.012233,"49":0.05593,"50":-0.185165,"51":-0.100462,"52":0.136095,"53":0.051507,"54":0.011984,"55":-0.081001,"56":0.046278,"57":0.001322,"58":0.058972,"59":0.199124,"60":-0.086008,"61":-0.036375,"62":0.15668,"63":-0.01089,"64":0.037063,"65":-0.169548,"66":-0.133845,"67":0.037052,"68":-0.172924,"69":0.189931,"70":0.075527,"71":-0.129655,"72":-0.005405,"73":-0.132282,"74":-0.06126,"75":0.095462,"76":-0.108631,"77":0.08871,"78":0.163617,"79":0.008737,"80":0.218993,"81":0.01316,"82":0.068534,"83":0.22993,"84":0.136828,"85":0.203622,"86":-0.136838,"87":-0.007376,"88":-0.041558,"89":-0.12482,"90":-0.027309,"91":0.161159,"92":0.074438,"93":0.006601,"94":-0.060937,"95":0.23016,"96":0.012193,"97":0.153046,"98":0.150328,"99":-0.087882,"100":-0.108892,"101":0.059203,"102":0.09305,"103":-0.036329,"104":-0.059623,"105":-0.162348,"106":0.056828,"107":0.018816,"108":0.110409,"109":-0.064572,"110":0.123805,"111":-0.118637,"112":-0.169034,"113":-0.099617,"114":0.067404,"115":-0.207946,"116":0.018024,"117":0.162668,"118":0.156399,"119":-0.155638,"120":-0.083122,"121":0.069749,"122":-0.174768,"123":-0.15899,"124":-0.010304,"125":-0.016868,"126":-0.14527,"127":0.146298,"128":-0.153287,"129":0.101649,"130":0.236248,"131":0.056961,"132":0.086314,"133":0.243295,"134":0.098197,"135":-0.131409,"136":0.00333,"137":-0.071767,"138":-0.084277,"139":-0.155742,"140":0.05599,"141":-0.157299,"142":0.194497,"143":-0.026828,"144":-0.129018,"145":0.243013,"146":0.016753,"147":0.272685,"148":-0.179649,"149":-0.084551,"150":-0.136213,"151":0.073035,"152":-0.088945,"153":0.274744,"154":-0.05933,"155":-0.012654,"156":0.065579,"157":-0.085225,"158":-0.170816,"159":-0.066986,"160":-0.031766,"161":-0.171924,"162":0.113592,"163":0.117668,"164":0.168576,"165":0.036624,"166":0.118225,"167":-0.037766,"168":-0.156028,"169":0.135244,"170":-0.107724,"171":-0.154593,"172":-0.085001,"173":0.106405,"174":0.07773,"175":0.154727,"176":-0.126616,"177":0.088366,"178":-0.139987,"179":0.194372,"180":0.147616,"181":-0.123433,"182":0.044587,"183":-0.138689,"184":-0.08784,"185":0.126963,"186":-0.025632,"187":-0.150269,"188":0.08142,"189":-0.179856,"190":0.088324,"191":0.161006,"192":-0.170391,"193":-0.125448,"194":0.06461,"195":0.11438,"196":-0.279077,"197":-0.009458,"198":-0.034884,"199":-0.071854,"200":-0.067679,"201":-0.170733,"202":-0.086613,"203":0.193963,"204":0.026474,"205":-0.016337,"206":0.218878,"207":0.002063,"208":0.003577,"209":-0.052279,"210":0.117491,"211":0.024665,"212":0.143292,"213":0.057362,"214":-0.145889,"215":-0.027107,"216":-0.129102,"217":-0.093847,"218":-0.224941,"219":-0.256126,"220":-0.003602,"221":-0.126216,"222":-0.17685,"223":-0.180598,"224":-0.08782,"225":0.082448,"226":0.241791,"227":-0.160217,"228":-0.130175,"229":0.005241,"230":-0.001267,"231":-0.141441,"232":-0.024115,"233":-0.13059,"234":0.052477,"235":-0.19808,"236":0.012257,"237":0.08882,"238":-0.105276,"239":-0.063006,"240":0.064779,"241":-0.030925,"242":0.156282,"243":-0.172019,"244":0.167397,"245":0.03958,"246":0.197276,"247":-0.117436,"248":-0.124379,"249":-0.093505,"250":0.036817,"251":-0.130312,"252":0.119966,"253":0.066803,"254":-0.131569,"255":-0.183238,"256":0.097519,"257":0.04296,"258":-0.197184,"259":-0.223981,"260":0.032745,"261":-0.061654,"262":0.076375,"263":-0.009734,"264":0.093546,"265":-0.108493,"266":-0.156639,"267":-0.02585,"268":-0.193813,"269":-0.079141,"270":0.053685,"271":0.023866,"272":0.149482,"273":-0.023348,"274":0.20384,"275":0.0861,"276":0.167025,"277":0.046946,"278":0.151159,"279":0.180167,"280":0.01036,"281":0.044978,"282":0.190902,"283":-0.163835,"284":0.061018,"285":0.096656,"286":0.154032,"287":0.043682,"288":0.212316,"289":0.057426,"290":0.052105,"291":-0.191266,"292":0.203816,"293":-0.048246,"294":0.111968,"295":0.0905,"296":0.124492,"297":-0.106597,"298":-0.118528,"299":0.008133,"300":0.06072,"301":0.079236,"302":0.256821,"303":0.100416,"304":0.179706,"305":-0.050641,"306":0.14172,"307":-0.204693,"308":0.152113,"309":-0.08175,"310":0.06323,"311":0.047106,"312":0.022487,"313":-0.114131,"314":-0.136947,"315":0.046808,"316":0.039044,"317":0.179706,"318":-0.164899,"319":0.050995,"320":-0.09134,"321":0.133356,"322":0.030589,"323":-0.132706,"324":0.043803,"325":0.136755,"326":0.14879,"327":-0.148732,"328":0.222987,"329":0.023924,"330":0.101842,"331":-0.12189,"332":-0.109072,"333":-0.228721,"334":0.064024,"335":0.025407,"336":0.139554,"337":0.068355,"338":-0.05519,"339":-0.192386,"340":0.127086,"341":0.11017,"342":-0.091158,"343":0.165276,"344":-0.077777,"345":-0.041878,"346":-0.110187,"347":-0.040573,"348":-0.080744,"349":0.101431,"350":0.110338,"351":0.077809,"352":0.024975,"353":0.068165,"354":0.07402,"355":-0.161747,"356":0.11434,"357":-0.220759,"358":0.030888,"359":-0.17787,"360":-0.107935,"361":0.086095,"362":-0.083809,"363":-0.140523,"364":0.080824,"365":-0.07576,"366":0.049622,"367":0.012458,"368":0.159404,"369":0.150413,"370":-0.038645,"371":0.125876,"372":-0.03344,"373":0.174442,"374":-0.056993,"375":-0.065007,"376":0.096564,"377":0.083407,"378":0.060481,"379":-0.161108,"380":0.005416,"381":-0.137984,"382":0.03056,"383":-0.132681,"384":-0.032619,"385":-0.211336,"386":-0.08669,"387":-0.170975,"388":-0.1301,"389":-0.055054,"390":-0.0585,"391":0.179442,"392":-0.18186,"393":-0.054094,"394":-0.205147,"395":0.154722,"396":-0.034294,"397":-0.068633,"398":0.196202,"399":-0.082327,"400":-0.048976,"401":0.013841,"402":0.144001,"403":0.054895,"404":-0.073126,"405":0.153526,"406":0.088155,"407":0.015125,"408":-0.081453,"409":-0.026516,"410":0.127983,"411":-0.099804,"412":-0.114372,"413":-0.111572,"414":0.247357,"415":-0.00647,"416":0.131889,"417":0.069686,"418":-0.137111,"419":0.167041,"420":-0.103733,"421":-0.165695,"422":-0.013098,"423":-0.018695,"424":-0.195599,"425":-0.063932,"426":-0.142094,"427":-0.1597,"428":-0.069335,"429":-0.03363,"430":-0.148494,"431":-0.138627,"432":0.122071,"433":0.052436,"434":-0.059047,"435":0.095584,"436":-0.109664,"437":-0.096361,"438":-0.163365,"439":-0.216279,"440":0.182519,"441":-0.053744,"442":-0.179405,"443":-0.062327,"444":0.02392,"445":0.053145,"446":0.200763,"447":0.111205,"448":-0.141423,"449":0.105565,"450":-0.024915,"451":-0.233008,"452":0.201788,"453":0.036625,"454":-0.004339,"455":-0.162088,"456":0.058858,"457":-0.129915,"458":-0.089695,"459":0.046382,"460":0.071307,"461":-0.097701,"462":-0.046791,"463":0.119016,"464":-0.131869,"465":0.129017,"466":0.090206,"467":-0.127339,"468":0.117319,"469":0.111995,"470":0.027437,"471":-0.205814,"472":-0.007206,"473":-0.084399,"474":-0.133501,"475":0.003611,"476":0.161063,"477":-0.034527,"478":0.187804,"479":0.169186,"480":-0.044359,"481":-0.073708,"482":0.163006,"483":0.070731,"484":-0.128051,"485":0.016219,"486":-0.151012,"487":-0.18827,"488":0.145917,"489":0.105875,"490":0.012715,"491":0.138563,"492":0.185652,"493":0.11773,"494":0.069336,"495":0.006385,"496":0.155324,"497":-0.129953,"498":-0.105051,"499":-0.094764,"500":0.063601,"501":0.201402,"502":0.026833,"503":-0.174031,"504":-0.044084,"505":-0.059772,"506":-0.182977,"507":0.041248,"508":-0.054938,"509":-0.178238,"510":-0.152122,"511":-0.00615,"512":-0.045018,"513":-0.009337,"514":0.021723,"515":0.029037,"516":-0.109301,"517":-0.069462,"518":-0.144645,"519":0.061562,"520":-0.173298,"521":-0.089159,"522":0.118824,"523":0.078028,"524":-0.142908,"525":-0.176117,"526":-0.172472,"527":0.035818,"528":0.0074,"529":0.06275,"530":0.235843,"531":-0.060859,"532":-0.036804,"533":0.076762,"534":0.110783,"535":0.035469,"536":-0.052924,"537":-0.083044}},"1":{"bias":0.059625,"weights":{"0":0.304087,"1":-0.168087,"2":0.100588,"3":-0.087923,"4":-0.006673,"5":0.262623,"6":0.163525,"7":-0.059234,"8":-0.26325,"9":-0.091932,"10":0.042226,"11":-0.116193,"12":0.143398,"13":-0.059211,"14":-0.170916,"15":-0.221056,"16":-0.029676,"17":0.060448,"18":0.174943,"19":-0.197243,"20":0.039446,"21":0.028202,"22":-0.002262,"23":-0.005594,"24":0.11496,"25":0.138899,"26":0.043683,"27":-0.176958,"28":-0.221967,"29":0.012972,"30":-0.059565,"31":0.085918,"32":-0.139266,"33":-0.004078,"34":0.01572,"35":-0.071687,"36":-0.067756,"37":0.101085,"38":0.189782,"39":-0.197251,"40":-0.082931,"41":0.02005,"42":-0.210467,"43":0.022395,"44":-0.204915,"45":0.0517,"46":-0.147011,"47":0.19262,"48":0.188349,"49":-0.027866,"50":-0.193381,"51":-0.164773,"52":0.179533,"53":-0.125156,"54":-0.180142,"55":0.036526,"56":0.180745,"57":-0.007303,"58":-0.094895,"59":-0.202369,"60":-0.236324,"61":-0.017996,"62":0.151967,"63":0.015745,"64":-0.19786,"65":0.162035,"66":-0.013069,"67":0.060579,"68":-0.043931,"69":0.029853,"70":0.003603,"71":-0.112308,"72":-0.03848,"73":0.175104,"74":-0.032288,"75":-0.169489,"76":0.213454,"77":0.299676,"78":-0.101458,"79":-0.0962,"80":0.15875,"81":0.087153,"82":-0.135359,"83":-0.064489,"84":-0.087167,"85":0.060082,"86":0.189924,"87":0.080069,"88":0.046527,"89":0.181286,"90":-0.054647,"91":0.263758,"92":0.115306,"93":-0.0764,"94":-0.163754,"95":-0.129385,"96":0.308909,"97":-0.107213,"98":0.100622,"99":-0.079617,"100":-0.109803,"101":-0.009991,"102":0.068288,"103":-0.194902,"104":-0.040164,"105":-0.009148,"106":0.034603,"107":0.101629,"108":-0.16298,"109":-0.072904,"110":0.086117,"111":-0.1273,"112":-0.155068,"113":0.153263,"114":0.058503,"115":0.067707,"116":0.00316,"117":0.011088,"118":0.011948,"119":-0.149788,"120":-0.035097,"121":-0.036369,"122":0.095468,"123":0.20711,"124":0.063537,"125":0.175049,"126":0.065344,"127":0.139949,"128":-0.084327,"129":0.06687,"130":-0.087087,"131":0.14801,"132":0.1421,"133":0.005199,"134":-0.126658,"135":0.125417,"136":-0.13585,"137":-0.176479,"138":0.19151,"139":-0.188401,"140":-0.162134,"141":0.10919,"142":-0.108548,"143":0.171911,"144":0.20192,"145":-0.000916,"146":0.133765,"147":-0.141613,"148":0.020654,"149":-0.109619,"150":-0.083701,"151":0.049165,"152":-0.161298,"153":0.035528,"154":-0.016659,"155":0.107104,"156":-0.186842,"157":-0.178723,"158":0.05012,"159":0.090811,"160":0.200272,"161":0.083779,"162":-0.093291,"163":-0.131757,"164":0.097848,"165":0.094562,"166":0.024941,"167":-0.0059,"168":0.136916,"169":0.107417,"170":-0.054911,"171":0.003035,"172":0.068599,"173":-0.109932,"174":-0.018371,"175":0.05881,"176":-0.043168,"177":0.214055,"178":-0.147412,"179":0.192216,"180":0.193902,"181":0.117328,"182":0.014297,"183":0.063254,"184":0.076564,"185":0.090427,"186":0.097319,"187":0.112251,"188":0.012285,"189":-0.12337,"190":0.148797,"191":-0.044244,"192":0.193442,"193":-0.189029,"194":0.127075,"195":-0.095584,"196":0.124688,"197":0.009903,"198":0.06304,"199":-0.161513,"200":0.206119,"201":0.045739,"202":0.116544,"203":0.131394,"204":-0.147507,"205":-0.179839,"206":0.20651,"207":0.169415,"208":-0.07887,"209":0.097636,"210":-0.144567,"211":-0.015483,"212":-0.105807,"213":-0.102415,"214":0.148096,"215":0.143407,"216":0.158907,"217":0.140493,"218":0.224204,"219":0.128815,"220":-0.135062,"221":0.002732,"222":-0.088137,"223":0.231857,"224":-0.026191,"225":-0.097611,"226":-0.151532,"227":-0.01131,"228":0.097675,"229":-0.087026,"230":0.107014,"231":0.116679,"232":0.175116,"233":0.049379,"234":0.093344,"235":0.041856,"236":-0.202988,"237":0.135303,"238":0.179098,"239":-0.002151,"240":0.164534,"241":0.189601,"242":-0.084968,"243":0.171581,"244":-0.059831,"245":0.16533,"246":-0.0562,"247":-0.161282,"248":-0.117885,"249":0.025814,"250":0.067958,"251":0.118524,"252":-0.163373,"253":0.059062,"254":-0.10438,"255":0.058837,"256":-0.012745,"257":-0.104169,"258":0.264234,"259":-0.041776,"260":0.138615,"261":0.189366,"262":0.209975,"263":0.06412,"264":0.057426,"265":-0.066024,"266":0.149282,"267":0.045039,"268":0.14092,"269":0.028805,"270":-0.086051,"271":0.158759,"272":-0.06788,"273":-0.073321,"274":0.100737,"275":-0.004701,"276":0.068863,"277":-0.02054,"278":0.176999,"279":-0.034742,"280":-0.196604,"281":-0.119544,"282":0.044629,"283":0.183226,"284":-0.002449,"285":0.076995,"286":-0.086759,"287":0.218728,"288":-0.111351,"289":-0.06091,"290":-0.033015,"291":0.00905,"292":-0.180648,"293":-0.056238,"294":-0.09537,"295":0.0668,"296":0.163312,"297":-0.184792,"298":0.172442,"299":-0.102399,"300":-0.062912,"301":-0.165717,"302":-0.069238,"303":-0.162468,"304":0.17003,"305":-0.014493,"306":0.14467,"307":0.194164,"308":-0.024942,"309":0.096098,"310":0.166827,"311":-0.085081,"312":0.095107,"313":-0.136808,"314":-0.02694,"315":0.187992,"316":-0.124612,"317":0.111386,"318":-0.14382,"319":0.060138,"320":0.194497,"321":-0.142546,"322":0.027022,"323":-0.06641,"324":0.169149,"325":0.123957,"326":-0.169944,"327":0.212321,"328":-0.124901,"329":-0.118735,"330":-0.105064,"331":0.068119,"332":0.160853,"333":0.146242,"334":-0.092391,"335":0.205176,"336":-0.114057,"337":-0.049545,"338":0.182695,"339":-0.096804,"340":0.128784,"341":0.125951,"342":-0.004419,"343":0.169843,"344":-0.009645,"345":-0.049216,"346":0.003269,"347":0.076112,"348":-0.022497,"349":-0.129818,"350":-0.029463,"351":0.184396,"352":0.203626,"353":0.001331,"354":-0.067821,"355":-0.068634,"356":-0.161938,"357":0.222836,"358":0.104029,"359":0.041543,"360":0.080775,"361":0.075119,"362":-0.081566,"363":-0.109833,"364":-0.169314,"365":0.216235,"366":0.139559,"367":-0.159353,"368":0.027007,"369":-0.030296,"370":0.139505,"371":0.158911,"372":0.195092,"373":0.114346,"374":0.001962,"375":0.101302,"376":0.123129,"377":0.098701,"378":-0.135392,"379":-0.165375,"380":-0.130596,"381":0.005898,"382":0.232238,"383":0.004477,"384":-0.201178,"385":0.001185,"386":0.058869,"387":-0.034093,"388":-0.10424,"389":-0.169748,"390":0.091688,"391":0.232829,"392":0.063111,"393":0.169686,"394":0.099848,"395":0.238836,"396":0.203932,"397":-0.143891,"398":-0.069769,"399":-0.100429,"400":-0.157845,"401":0.025705,"402":0.121102,"403":0.144182,"404":-0.036174,"405":-0.080924,"406":-0.04191,"407":0.072556,"408":0.065369,"409":0.199157,"410":0.220593,"411":-0.021646,"412":0.06704,"413":-0.137756,"414":-0.188416,"415":0.141541,"416":-0.157292,"417":0.119417,"418":0.137777,"419":-0.147084,"420":-0.174733,"421":-0.130193,"422":0.093659,"423":0.164458,"424":-0.012959,"425":0.009045,"426":-0.124819,"427":0.136883,"428":-0.039983,"429":0.020204,"430":0.066598,"431":0.158772,"432":-0.199136,"433":0.180677,"434":0.106107,"435":0.003728,"436":-0.178037,"437":-0.153387,"438":-0.149132,"439":-0.122404,"440":0.171118,"441":0.148573,"442":-0.033878,"443":0.102766,"444":-0.143412,"445":-0.117437,"446":-0.177477,"447":-0.086615,"448":-0.167286,"449":0.074227,"450":-0.127518,"451":-0.134112,"452":0.127769,"453":0.027554,"454":-0.223026,"455":-0.166619,"456":-0.106152,"457":0.163603,"458":0.102878,"459":-0.008655,"460":0.194526,"461":-0.008707,"462":-0.052132,"463":-0.091333,"464":-0.179975,"465":-0.14192,"466":-0.034768,"467":0.128475,"468":0.000858,"469":0.00023,"470":-0.121637,"471":-0.153691,"472":-0.029067,"473":-0.095609,"474":-0.016887,"475":-0.051471,"476":0.117296,"477":-0.024461,"478":0.033441,"479":-0.077605,"480":0.031369,"481":-0.060059,"482":0.218387,"483":0.118029,"484":-0.019092,"485":-0.112279,"486":0.100016,"487":-0.133678,"488":-0.040448,"489":-0.013001,"490":-0.121478,"491":-0.187197,"492":0.122923,"493":0.134189,"494":-0.021103,"495":0.115729,"496":-0.019321,"497":0.093467,"498":-0.033854,"499":-0.19322,"500":-0.149057,"501":-0.006965,"502":-0.090415,"503":0.166236,"504":0.107355,"505":0.024651,"506":0.130328,"507":0.006656,"508":0.076954,"509":0.08068,"510":-0.006645,"511":-0.151396,"512":0.143343,"513":0.061801,"514":0.063405,"515":0.011023,"516":0.078625,"517":-0.165185,"518":-0.093195,"519":0.100517,"520":-0.005751,"521":-0.088944,"522":0.09553,"523":0.162019,"524":-0.076653,"525":-0.15953,"526":0.082171,"527":-0.031182,"528":-0.019391,"529":0.088368,"530":-0.100947,"531":0.120966,"532":-0.17186,"533":-0.088233,"534":0.052569,"535":-0.028416,"536":0.183611,"537":-0.178043}},"2":{"bias":-0.094433,"weights":{"0":0.116044,"1":-0.145628,"2":0.125513,"3":-0.03851,"4":-0.132082,"5":-0.068534,"6":-0.019936,"7":0.015318,"8":-0.007948,"9":-0.042306,"10":-0.002078,"11":-0.080736,"12":0.040056,"13":0.152563,"14":0.090132,"15":-0.1351,"16":-0.158001,"17":0.163669,"18":0.084904,"19":-0.087609,"20":0.119377,"21":-0.002314,"22":-0.063058,"23":-0.042005,"24":0.167131,"25":-0.17211,"26":0.164854,"27":0.12688,"28":-0.119707,"29":0.045798,"30":0.003735,"31":-0.056337,"32":-0.067904,"33":0.040463,"34":0.159917,"35":0.150777,"36":-0.03201,"37":-0.147367,"38":-0.026371,"39":-0.173054,"40":-0.087906,"41":0.130131,"42":0.007791,"43":-0.090617,"44":0.083493,"45":-0.129212,"46":0.008213,"47":-0.036671,"48":-0.158066,"49":0.093913,"50":0.070553,"51":-0.167599,"52":0.056855,"53":0.170656,"54":-0.045647,"55":0.061019,"56":-0.051468,"57":0.03587,"58":-0.095366,"59":0.015507,"60":0.106652,"61":-0.204727,"62":0.128772,"63":0.058623,"64":0.160103,"65":-0.178804,"66":-0.103256,"67":0.002386,"68":-0.144823,"69":0.112288,"70":-0.123744,"71":-0.086573,"72":-0.1311,"73":0.00143,"74":-0.123965,"75":-0.100409,"76":0.104153,"77":0.088854,"78":-0.047713,"79":-0.018777,"80":0.0754,"81":-0.052211,"82":0.150665,"83":-0.136299,"84":-0.143935,"85":0.050777,"86":0.035304,"87":0.071179,"88":-0.193162,"89":-0.070235,"90":-0.050044,"91":0.042037,"92":-0.159961,"93":0.17118,"94":-0.192763,"95":-0.150059,"96":-0.029185,"97":-0.179938,"98":0.043686,"99":0.100309,"100":-0.153133,"101":-0.121319,"102":-0.122453,"103":-0.188994,"104":-0.111167,"105":-0.136456,"106":-0.007921,"107":-0.129279,"108":-0.005275,"109":-0.050388,"110":-0.034277,"111":0.125336,"112":0.020247,"113":0.079813,"114":-0.150318,"115":0.098373,"116":0.009614,"117":-0.141065,"118":0.108837,"119":-0.203507,"120":-0.105233,"121":-0.073471,"122":0.122421,"123":-0.17673,"124":-0.000225,"125":0.099874,"126":-0.109995,"127":0.000761,"128":0.029983,"129":-0.18162,"130":0.184928,"131":-0.020043,"132":-0.080062,"133":-0.110874,"134":-0.051864,"135":0.096055,"136":0.044456,"137":-0.137024,"138":-0.150529,"139":0.017392,"140":-0.117142,"141":-0.089596,"142":0.105268,"143":0.10771,"144":-0.162228,"145":0.072881,"146":0.204133,"147":0.160067,"148":-0.153941,"149":0.1698,"150":-0.078954,"151":-0.067818,"152":0.091456,"153":0.115468,"154":-0.189634,"155":-0.179758,"156":-0.016413,"157":0.192752,"158":-0.077355,"159":-0.042606,"160":-0.192405,"161":-0.040176,"162":-0.055287,"163":-0.075149,"164":-0.021111,"165":0.175843,"166":-0.036443,"167":0.10774,"168":0.009607,"169":-0.142964,"170":0.189232,"171":0.15988,"172":-0.087856,"173":0.003941,"174":-0.152267,"175":0.026341,"176":0.086272,"177":-0.126466,"178":-0.045565,"179":-0.136461,"180":-0.062776,"181":0.161642,"182":-0.066167,"183":0.134712,"184":0.161268,"185":-0.133125,"186":-0.030131,"187":0.153032,"188":-0.139696,"189":-0.130078,"190":0.089841,"191":-0.064542,"192":0.112964,"193":-0.154,"194":0.169169,"195":-0.19295,"196":-0.139233,"197":-0.177582,"198":0.123157,"199":-0.149662,"200":0.219067,"201":-0.082657,"202":0.18702,"203":-0.086753,"204":-0.043003,"205":0.116447,"206":-0.099913,"207":0.195063,"208":0.178161,"209":0.1354,"210":-0.119131,"211":0.172015,"212":0.165061,"213":0.001326,"214":0.104173,"215":0.061135,"216":-0.100697,"217":0.191957,"218":0.10458,"219":-0.056456,"220":0.082204,"221":-0.155216,"222":0.160279,"223":-0.053792,"224":0.095351,"225":-0.007132,"226":-0.219251,"227":0.046203,"228":-0.041795,"229":-0.005164,"230":-0.177211,"231":-0.058668,"232":0.09025,"233":-0.04936,"234":-0.171159,"235":0.154636,"236":0.162585,"237":-0.19301,"238":0.025088,"239":0.122227,"240":0.154497,"241":-0.041962,"242":0.162839,"243":0.088313,"244":-0.037341,"245":0.088705,"246":0.136687,"247":0.100972,"248":0.058281,"249":-0.17958,"250":-0.15564,"251":0.018968,"252":0.073595,"253":-0.205827,"254":0.032667,"255":-0.144255,"256":-0.054293,"257":0.145077,"258":-0.051797,"259":-0.025314,"260":-0.016543,"261":0.199906,"262":-0.029409,"263":-0.107689,"264":0.132365,"265":0.144304,"266":-0.111899,"267":-0.037886,"268":-0.148154,"269":0.164616,"270":-0.056355,"271":0.200218,"272":-0.068546,"273":-0.021467,"274":-0.182638,"275":0.104107,"276":-0.063103,"277":-0.129627,"278":0.165406,"279":-0.180874,"280":-0.019118,"281":0.133502,"282":-0.084443,"283":0.166744,"284":0.184666,"285":-0.146834,"286":-0.043071,"287":0.114982,"288":0.169884,"289":-0.073646,"290":0.083168,"291":0.152679,"292":-0.122941,"293":0.068144,"294":0.108953,"295":0.155452,"296":0.215299,"297":-0.03274,"298":0.032876,"299":0.107154,"300":0.16707,"301":0.106252,"302":-0.008191,"303":0.071467,"304":0.095236,"305":0.036522,"306":0.061014,"307":0.042405,"308":0.060719,"309":-0.07815,"310":0.123681,"311":-0.145426,"312":0.045855,"313":-0.128525,"314":-0.154435,"315":-0.043373,"316":-0.068272,"317":-0.033122,"318":0.130908,"319":-0.085877,"320":-0.065514,"321":-0.088793,"322":-0.017625,"323":0.097857,"324":0.113782,"325":-0.016295,"326":-0.101345,"327":-0.106063,"328":0.046661,"329":-0.190011,"330":0.103044,"331":-0.024319,"332":0.012761,"333":0.027476,"334":-0.042532,"335":0.069616,"336":0.128014,"337":-0.154233,"338":0.040595,"339":-0.17962,"340":-0.094009,"341":0.164493,"342":0.083842,"343":-0.119346,"344":0.073913,"345":0.098524,"346":-0.107046,"347":0.102587,"348":0.05624,"349":0.06854,"350":0.041523,"351":0.033958,"352":-0.164223,"353":0.159503,"354":0.07786,"355":-0.057721,"356":-0.02568,"357":0.051397,"358":-0.027209,"359":-0.046137,"360":-0.022033,"361":-0.189001,"362":0.008166,"363":0.045066,"364":-0.093619,"365":0.191084,"366":0.056978,"367":-0.155445,"368":0.152863,"369":0.168214,"370":0.13807,"371":-0.006916,"372":-0.095303,"373":0.039733,"374":-0.138807,"375":0.182219,"376":0.178231,"377":0.032231,"378":-0.114416,"379":-0.017759,"380":-0.046268,"381":-0.150705,"382":-0.039076,"383":-0.166072,"384":0.011158,"385":-0.193173,"386":-0.017042,"387":-0.178721,"388":-0.166215,"389":0.005424,"390":0.004735,"391":-0.074739,"392":-0.186166,"393":0.136215,"394":0.110049,"395":-0.092132,"396":-0.157716,"397":-0.122076,"398":-0.16006,"399":0.104185,"400":-0.099765,"401":0.105112,"402":0.176566,"403":-0.125412,"404":0.028307,"405":0.055002,"406":-0.156467,"407":0.025539,"408":-0.048777,"409":-0.166421,"410":0.130974,"411":-0.145781,"412":-0.159519,"413":-0.010595,"414":-0.081369,"415":-0.031917,"416":-0.117189,"417":-0.033462,"418":-0.18998,"419":-0.080311,"420":-0.122357,"421":0.114623,"422":0.173372,"423":0.064781,"424":-0.073579,"425":0.010223,"426":0.195255,"427":0.03047,"428":-0.192541,"429":0.024964,"430":-0.162922,"431":-0.126841,"432":-0.083347,"433":0.197115,"434":0.187405,"435":0.115292,"436":-0.098276,"437":-0.093759,"438":0.022935,"439":-0.205489,"440":-0.000276,"441":-0.020607,"442":0.134294,"443":0.151799,"444":0.059152,"445":-0.16357,"446":-0.19031,"447":0.138941,"448":-0.17212,"449":0.086817,"450":0.021077,"451":-0.18242,"452":0.143755,"453":-0.043224,"454":0.105357,"455":0.137875,"456":0.022989,"457":-0.093987,"458":-0.162912,"459":0.152597,"460":-0.051827,"461":-0.156323,"462":-0.178513,"463":-0.098604,"464":0.088119,"465":0.19,"466":-0.180583,"467":0.025658,"468":-0.164615,"469":-0.178639,"470":0.187696,"471":0.01488,"472":-0.006469,"473":-0.05343,"474":-0.148293,"475":0.161753,"476":0.158408,"477":0.155215,"478":0.094376,"479":-0.093585,"480":0.063258,"481":-0.073411,"482":0.074016,"483":-0.030399,"484":-0.075798,"485":0.060237,"486":0.037176,"487":0.153785,"488":0.079065,"489":-0.174454,"490":-0.184799,"491":-0.012921,"492":0.021063,"493":-0.139676,"494":-0.022278,"495":-0.068132,"496":-0.01042,"497":-0.065083,"498":-0.044343,"499":-0.086204,"500":-0.190102,"501":0.049246,"502":-0.00212,"503":0.105977,"504":0.183005,"505":0.049268,"506":-0.01471,"507":-0.14046,"508":-0.167693,"509":0.038481,"510":-0.189855,"511":-0.018105,"512":-0.042343,"513":-0.145905,"514":0.176296,"515":0.095674,"516":-0.146381,"517":-0.024797,"518":-0.115894,"519":0.072355,"520":-0.008789,"521":0.166745,"522":0.045093,"523":-0.150455,"524":0.136901,"525":0.119499,"526":-0.059389,"527":-0.011978,"528":0.045287,"529":0.194072,"530":-0.346914,"531":0.194339,"532":-0.108632,"533":-0.08278,"534":-0.028748,"535":0.125691,"536":0.032735,"537":0.064521}},"3":{"bias":0.085229,"weights":{"0":-0.101198,"1":0.121663,"2":-0.129466,"3":-0.073443,"4":-0.125121,"5":0.104803,"6":0.074051,"7":-0.105586,"8":0.195573,"9":0.129577,"10":-0.129356,"11":-0.039307,"12":0.071488,"13":0.095841,"14":0.168184,"15":0.055946,"16":0.303082,"17":-0.153305,"18":0.003959,"19":0.444763,"20":0.049165,"21":-0.061502,"22":0.295109,"23":-0.022285,"24":-0.04279,"25":0.243593,"26":-0.037173,"27":-0.006733,"28":0.009895,"29":0.198184,"30":-0.032755,"31":-0.117765,"32":0.129447,"33":0.067351,"34":0.246422,"35":-0.144969,"36":0.020035,"37":0.02994,"38":0.066979,"39":0.172597,"40":0.16733,"41":0.224014,"42":0.263135,"43":0.051251,"44":0.045257,"45":-0.074325,"46":0.044709,"47":0.026201,"48":0.173903,"49":0.334393,"50":-0.02852,"51":-0.14082,"52":-0.058003,"53":0.141185,"54":0.171943,"55":0.081243,"56":0.095496,"57":0.162317,"58":0.069173,"59":0.162693,"60":0.15248,"61":0.175599,"62":-0.113306,"63":-0.075822,"64":0.292815,"65":0.214798,"66":0.193918,"67":-0.136911,"68":-0.25329,"69":-0.03381,"70":-0.058818,"71":0.231965,"72":-0.022683,"73":-0.046049,"74":0.08126,"75":-0.088686,"76":-0.209166,"77":-0.151402,"78":-0.192319,"79":-0.124247,"80":0.069991,"81":0.163359,"82":0.077431,"83":0.195681,"84":0.19566,"85":-0.039029,"86":-0.08883,"87":-0.070535,"88":-0.106242,"89":0.034857,"90":-0.135046,"91":-0.235738,"92":-0.097141,"93":-0.201593,"94":0.205124,"95":-0.12445,"96":-0.125634,"97":0.136195,"98":-0.168268,"99":0.043961,"100":-0.04818,"101":0.074832,"102":-0.017906,"103":0.064777,"104":-0.039768,"105":0.119012,"106":-0.14128,"107":-0.055329,"108":0.277351,"109":-0.033969,"110":0.014653,"111":-0.181312,"112":0.063923,"113":-0.095246,"114":0.27245,"115":0.219624,"116":0.06241,"117":-0.144542,"118":-0.135016,"119":-0.000476,"120":0.011091,"121":-0.075127,"122":0.003603,"123":-0.136983,"124":-0.063979,"125":-0.064772,"126":0.135593,"127":0.144124,"128":0.028552,"129":-0.234903,"130":-0.141054,"131":0.187215,"132":-0.101864,"133":-0.163286,"134":-0.158231,"135":0.191307,"136":0.089794,"137":0.225714,"138":-0.068307,"139":0.156644,"140":0.129071,"141":-0.026308,"142":0.038141,"143":-0.099928,"144":-0.066107,"145":0.079362,"146":0.123043,"147":-0.007769,"148":0.039109,"149":0.103649,"150":0.08036,"151":0.074278,"152":-0.074156,"153":-0.052306,"154":-0.024898,"155":0.085068,"156":-0.149452,"157":-0.093877,"158":-0.187144,"159":-0.149355,"160":-0.050729,"161":-0.03581,"162":0.161837,"163":-0.245044,"164":0.119869,"165":-0.00333,"166":-0.064168,"167":-0.21398,"168":0.025362,"169":0.002109,"170":-0.02111,"171":-0.204024,"172":-0.098916,"173":-0.165223,"174":-0.085714,"175":0.037469,"176":0.074557,"177":0.193882,"178":-0.187485,"179":-0.161635,"180":-0.073856,"181":0.211031,"182":0.101809,"183":-0.06176,"184":0.178092,"185":0.19219,"186":-0.036273,"187":-0.058943,"188":0.168614,"189":0.065667,"190":-0.138619,"191":0.033948,"192":-0.036049,"193":0.217019,"194":0.100096,"195":-0.041625,"196":-0.13827,"197":-0.008487,"198":-0.082342,"199":-0.089603,"200":-0.2251,"201":0.143906,"202":-0.046553,"203":-0.202512,"204":0.04494,"205":-0.207967,"206":-0.161818,"207":0.118063,"208":0.094544,"209":-0.202432,"210":-0.013487,"211":0.195961,"212":0.199328,"213":-0.041277,"214":0.029076,"215":-0.098953,"216":0.03447,"217":-0.11643,"218":0.03239,"219":-0.101726,"220":-0.209649,"221":-0.004567,"222":0.131513,"223":-0.177189,"224":-0.027425,"225":-0.125978,"226":-0.13193,"227":0.096352,"228":0.050568,"229":-0.066118,"230":0.042201,"231":0.077841,"232":0.008856,"233":-0.165983,"234":0.079622,"235":0.041212,"236":0.034989,"237":-0.10806,"238":0.050412,"239":0.11522,"240":0.181483,"241":0.089985,"242":-0.07571,"243":-0.040387,"244":-0.116155,"245":-0.163519,"246":0.082425,"247":-0.111914,"248":0.003588,"249":0.130287,"250":0.026726,"251":0.125084,"252":0.011398,"253":0.13181,"254":-0.225313,"255":0.075948,"256":-0.091082,"257":-0.020552,"258":0.034109,"259":0.078463,"260":-0.070318,"261":-0.122392,"262":-0.034913,"263":-0.204722,"264":0.106025,"265":-0.02771,"266":0.025259,"267":0.249178,"268":-0.027652,"269":-0.040662,"270":-0.145309,"271":0.034187,"272":0.069651,"273":-0.08791,"274":0.077263,"275":-0.243289,"276":0.193885,"277":-0.19797,"278":-0.176613,"279":0.065588,"280":0.052881,"281":-0.143552,"282":-0.089017,"283":-0.033211,"284":0.227945,"285":-0.127433,"286":-0.108764,"287":-0.002836,"288":0.171585,"289":-0.206538,"290":0.152396,"291":-0.177934,"292":0.127785,"293":0.029097,"294":-0.070081,"295":0.006442,"296":-0.018365,"297":-0.117479,"298":-0.030567,"299":-0.048333,"300":0.02992,"301":0.129426,"302":0.159775,"303":0.000521,"304":-0.11839,"305":-0.246208,"306":-0.130145,"307":0.077945,"308":0.108601,"309":0.137689,"310":-0.151315,"311":-0.152466,"312":-0.136572,"313":0.109773,"314":-0.194343,"315":0.122373,"316":0.145071,"317":0.087202,"318":0.035383,"319":-0.031662,"320":0.110633,"321":0.081816,"322":-0.086613,"323":-0.162923,"324":-0.007647,"325":0.035942,"326":-0.182052,"327":-0.030594,"328":0.059697,"329":0.131531,"330":-0.012229,"331":0.006914,"332":0.121393,"333":-0.019305,"334":-0.140918,"335":-0.047773,"336":0.164866,"337":0.113113,"338":0.185462,"339":-0.171098,"340":-0.082786,"341":0.16047,"342":-0.199372,"343":0.119651,"344":0.130118,"345":0.009915,"346":-0.120911,"347":0.000412,"348":-0.2058,"349":0.08042,"350":0.023463,"351":-0.067242,"352":0.033798,"353":-0.0333,"354":-0.081796,"355":-0.035355,"356":0.053279,"357":-0.158864,"358":-0.071354,"359":-0.161727,"360":-0.111698,"361":-0.168618,"362":0.059823,"363":-0.052813,"364":0.193862,"365":-0.067131,"366":0.250442,"367":0.05832,"368":-0.219338,"369":-0.108555,"370":-0.031893,"371":0.080796,"372":-0.212346,"373":0.162097,"374":-0.216874,"375":-0.003762,"376":-0.135538,"377":-0.156333,"378":-0.003908,"379":-0.084268,"380":0.149687,"381":-0.134518,"382":0.038493,"383":0.000294,"384":-0.144617,"385":0.072588,"386":-0.054741,"387":-0.129635,"388":-0.066296,"389":-0.017965,"390":-0.037876,"391":0.150059,"392":0.013788,"393":0.086105,"394":-0.047311,"395":-0.082389,"396":-0.166572,"397":0.044264,"398":-0.128235,"399":0.086963,"400":0.142551,"401":-0.188022,"402":-0.074495,"403":0.078856,"404":0.077083,"405":-0.1703,"406":0.016851,"407":-0.058383,"408":0.1983,"409":-0.104673,"410":-0.071514,"411":0.097709,"412":-0.064788,"413":0.24292,"414":0.107323,"415":-0.097603,"416":0.012053,"417":0.051644,"418":0.081495,"419":0.182525,"420":0.010787,"421":0.118611,"422":-0.158659,"423":-0.158837,"424":-0.137275,"425":-0.059115,"426":-0.090164,"427":-0.05207,"428":-0.105507,"429":0.086267,"430":-0.088,"431":-0.170342,"432":-0.062115,"433":0.060312,"434":-0.191785,"435":-0.195144,"436":-0.126587,"437":0.114816,"438":0.101877,"439":0.052021,"440":0.041378,"441":-0.06639,"442":0.204028,"443":-0.018989,"444":0.133437,"445":0.041042,"446":0.015241,"447":0.212124,"448":-0.019368,"449":0.183613,"450":0.074131,"451":-0.091285,"452":0.047763,"453":-0.09096,"454":0.055394,"455":0.105076,"456":-0.127775,"457":-0.158715,"458":0.061334,"459":0.174217,"460":-0.045234,"461":-0.057777,"462":0.175302,"463":-0.070268,"464":0.082748,"465":-0.081458,"466":0.124934,"467":0.140021,"468":0.009299,"469":-0.10319,"470":-0.019069,"471":0.165972,"472":0.04293,"473":0.071839,"474":0.071679,"475":0.101544,"476":-0.136134,"477":0.17852,"478":0.049247,"479":-0.163614,"480":-0.056815,"481":0.026817,"482":0.139939,"483":-0.168128,"484":0.215469,"485":0.091781,"486":-0.197136,"487":-0.110142,"488":0.182275,"489":0.154555,"490":0.011021,"491":0.182501,"492":-0.133466,"493":0.014815,"494":0.091492,"495":0.078453,"496":-0.174364,"497":-0.013807,"498":0.105743,"499":-0.035216,"500":0.15973,"501":0.142132,"502":0.069782,"503":-0.135079,"504":-0.117287,"505":0.154269,"506":0.139852,"507":-0.077723,"508":-0.06375,"509":0.168357,"510":0.084721,"511":0.001813,"512":-0.177412,"513":0.160169,"514":-0.285916,"515":0.121029,"516":0.174756,"517":-0.089814,"518":-0.131601,"519":0.154015,"520":0.083969,"521":-0.02731,"522":0.012318,"523":0.203542,"524":-0.209594,"525":0.029687,"526":-0.09471,"527":-0.038656,"528":0.145834,"529":0.138188,"530":-0.019601,"531":-0.159398,"532":0.188042,"533":0.02471,"534":-0.005918,"535":-0.191358,"536":0.110965,"537":0.124933}},"4":{"bias":-0.063161,"weights":{"0":0.173029,"1":-0.187839,"2":0.12717,"3":-0.114735,"4":0.071605,"5":-0.170941,"6":0.18914,"7":0.060671,"8":-0.141754,"9":-0.008534,"10":0.102189,"11":0.096118,"12":0.022108,"13":0.126595,"14":-0.140319,"15":0.089529,"16":-0.197711,"17":-0.056261,"18":0.012009,"19":-0.223935,"20":-0.180317,"21":-0.008125,"22":-0.086748,"23":-0.027761,"24":-0.2361,"25":0.107598,"26":-0.063311,"27":-0.196185,"28":0.012373,"29":0.041952,"30":-0.121326,"31":0.196895,"32":-0.183567,"33":0.030071,"34":-0.1649,"35":0.095058,"36":-0.135936,"37":0.163426,"38":-0.008591,"39":-0.141467,"40":-0.000668,"41":0.05887,"42":0.158984,"43":-0.053169,"44":0.077909,"45":0.176733,"46":-0.074784,"47":-0.057445,"48":0.153413,"49":-0.162183,"50":0.179829,"51":-0.139724,"52":0.012869,"53":-0.068891,"54":-0.116018,"55":0.185927,"56":0.070909,"57":-0.150089,"58":-0.061715,"59":0.032239,"60":0.142112,"61":0.098453,"62":0.117599,"63":-0.108895,"64":0.107937,"65":0.100147,"66":-0.140685,"67":0.056187,"68":-0.120846,"69":-0.009306,"70":-0.116288,"71":-0.17706,"72":0.071916,"73":-0.009407,"74":0.167122,"75":-0.060546,"76":0.163028,"77":0.116561,"78":0.001108,"79":0.073122,"80":0.053369,"81":-0.095582,"82":0.035787,"83":0.139744,"84":-0.214631,"85":-0.238859,"86":0.057825,"87":0.190106,"88":0.105525,"89":0.054465,"90":0.046644,"91":-0.086539,"92":-0.163969,"93":-0.152797,"94":0.086275,"95":0.036539,"96":0.218412,"97":-0.035405,"98":-0.176846,"99":0.06363,"100":-0.132856,"101":-0.073084,"102":0.177475,"103":0.134672,"104":-0.140459,"105":-0.063843,"106":0.151554,"107":0.140915,"108":-0.031033,"109":-0.09667,"110":-0.183441,"111":0.167556,"112":0.12251,"113":-0.071917,"114":-0.107568,"115":0.020551,"116":0.105913,"117":0.013018,"118":-0.036268,"119":0.134796,"120":0.104947,"121":0.175521,"122":-0.153584,"123":0.028106,"124":-0.036247,"125":-0.120928,"126":-0.039466,"127":-0.137521,"128":0.256208,"129":-0.185619,"130":-0.012343,"131":-0.17575,"132":-0.03428,"133":-0.042205,"134":-0.003116,"135":-0.043454,"136":0.139486,"137":-0.25148,"138":0.19587,"139":-0.098908,"140":-0.085056,"141":0.174815,"142":0.186269,"143":0.185729,"144":0.238574,"145":0.13669,"146":-0.099906,"147":-0.311723,"148":-0.064601,"149":0.01596,"150":0.042714,"151":0.106966,"152":0.162198,"153":-0.163673,"154":0.168165,"155":0.086978,"156":-0.002462,"157":-0.152378,"158":-0.120906,"159":-0.134235,"160":-0.017607,"161":0.097023,"162":0.106154,"163":-0.122187,"164":0.11531,"165":0.034303,"166":-0.137702,"167":-0.017469,"168":0.118815,"169":0.045002,"170":0.177313,"171":0.10801,"172":0.086162,"173":-0.00061,"174":0.179447,"175":0.214978,"176":0.193959,"177":0.142425,"178":0.203744,"179":0.02015,"180":0.068226,"181":-0.003346,"182":0.154051,"183":0.120977,"184":-0.135493,"185":-0.204871,"186":0.095156,"187":-0.208152,"188":-0.10611,"189":0.057611,"190":-0.085402,"191":0.184315,"192":-0.076242,"193":-0.177554,"194":0.029513,"195":0.138737,"196":-0.112829,"197":0.135713,"198":-0.103997,"199":0.018889,"200":0.059929,"201":-0.064274,"202":-0.069511,"203":0.081333,"204":-0.039368,"205":0.220759,"206":0.124428,"207":-0.098713,"208":-0.063412,"209":-0.161064,"210":0.098188,"211":0.016072,"212":-0.011448,"213":0.158742,"214":0.212052,"215":0.083959,"216":-0.070531,"217":0.006339,"218":-0.060215,"219":0.114843,"220":0.041829,"221":-0.120045,"222":-0.144343,"223":0.179898,"224":0.090022,"225":0.136587,"226":0.197153,"227":0.131859,"228":0.075712,"229":0.184377,"230":-0.16862,"231":-0.044988,"232":-0.115603,"233":-0.148933,"234":-0.04758,"235":-0.093185,"236":-0.028491,"237":-0.071196,"238":-0.133574,"239":0.008269,"240":0.024225,"241":-0.05026,"242":0.000791,"243":0.025298,"244":-0.169367,"245":-0.176916,"246":-0.045352,"247":0.134268,"248":-0.098139,"249":0.079612,"250":0.026897,"251":0.141037,"252":0.009369,"253":0.122474,"254":-0.16654,"255":-0.157256,"256":0.017387,"257":-0.218309,"258":0.079728,"259":-0.078946,"260":0.00949,"261":0.109772,"262":0.092415,"263":0.115234,"264":-0.134197,"265":-0.097199,"266":0.056951,"267":-0.152579,"268":0.13303,"269":0.029491,"270":0.12533,"271":-0.028095,"272":-0.108881,"273":-0.004901,"274":-0.116787,"275":0.138141,"276":-0.177294,"277":-0.193227,"278":0.106028,"279":-0.168728,"280":-0.174093,"281":-0.000805,"282":0.105317,"283":0.208553,"284":-0.046336,"285":0.187068,"286":0.163973,"287":0.130222,"288":-0.013032,"289":0.139663,"290":0.125174,"291":-0.118075,"292":-0.211944,"293":-0.086511,"294":-0.063129,"295":0.102264,"296":-0.076585,"297":0.052015,"298":0.064256,"299":-0.083083,"300":0.117055,"301":-0.060526,"302":-0.26878,"303":-0.097272,"304":0.201981,"305":0.080219,"306":0.14919,"307":0.159472,"308":0.199366,"309":-0.118196,"310":0.035586,"311":-0.075708,"312":-0.00094,"313":0.069601,"314":0.118312,"315":-0.160009,"316":0.117555,"317":-0.220059,"318":0.023345,"319":-0.068807,"320":0.062367,"321":0.089239,"322":-0.141174,"323":0.033191,"324":0.066049,"325":0.114038,"326":-0.148933,"327":-0.198546,"328":-0.164936,"329":-0.005661,"330":-0.166244,"331":0.015452,"332":0.073002,"333":0.167473,"334":-0.154918,"335":-0.163875,"336":-0.087803,"337":0.139869,"338":0.121924,"339":0.124119,"340":0.069458,"341":-0.041917,"342":0.010734,"343":0.109199,"344":0.109283,"345":0.072286,"346":0.107748,"347":0.179262,"348":0.181461,"349":-0.12937,"350":0.213158,"351":-0.159944,"352":0.190513,"353":0.021142,"354":-0.127742,"355":0.030891,"356":0.098073,"357":0.076958,"358":0.082908,"359":0.105008,"360":0.066271,"361":-0.220489,"362":0.148442,"363":-0.018449,"364":-0.080658,"365":0.161865,"366":-0.077926,"367":-0.053973,"368":-0.11087,"369":-0.136412,"370":0.013845,"371":-0.101957,"372":0.008099,"373":0.042256,"374":-0.02494,"375":-0.007031,"376":0.149532,"377":0.124463,"378":-0.18605,"379":-0.06632,"380":-0.115535,"381":-0.189695,"382":0.171093,"383":-0.026048,"384":0.112841,"385":0.050022,"386":0.187576,"387":-0.169576,"388":-0.172376,"389":-0.087752,"390":-0.007082,"391":-0.123641,"392":0.171602,"393":0.120263,"394":0.171445,"395":-0.139102,"396":0.084646,"397":-0.136854,"398":0.042121,"399":0.075336,"400":-0.011003,"401":-0.037805,"402":-0.067206,"403":-0.151931,"404":-0.056511,"405":0.042724,"406":0.009537,"407":-0.12128,"408":0.163818,"409":0.006218,"410":-0.146509,"411":0.001754,"412":0.038021,"413":-0.207642,"414":-0.131786,"415":-0.124534,"416":-0.134971,"417":-0.000253,"418":0.080375,"419":0.08499,"420":0.037785,"421":0.024955,"422":0.000758,"423":-0.031962,"424":-0.051686,"425":0.065922,"426":0.127212,"427":0.223008,"428":0.066414,"429":0.180565,"430":-0.190256,"431":-0.186647,"432":0.177651,"433":0.07883,"434":-0.099352,"435":-0.065292,"436":0.155642,"437":-0.095659,"438":0.040879,"439":0.037723,"440":0.154404,"441":0.096681,"442":0.161031,"443":-0.065238,"444":0.158604,"445":-0.141387,"446":0.096557,"447":0.185087,"448":0.009027,"449":0.013538,"450":0.140863,"451":-0.078216,"452":-0.144137,"453":0.011289,"454":0.069241,"455":0.044161,"456":0.164317,"457":0.111625,"458":0.021818,"459":0.145265,"460":-0.044978,"461":0.016214,"462":0.130766,"463":0.000215,"464":-0.156971,"465":0.015851,"466":-0.215255,"467":0.092399,"468":0.059397,"469":-0.156547,"470":0.084957,"471":0.188141,"472":-0.168006,"473":0.172441,"474":-0.190727,"475":0.007538,"476":-0.095217,"477":0.074424,"478":-0.211359,"479":0.097414,"480":-0.017882,"481":0.086355,"482":0.024993,"483":0.182019,"484":-0.100975,"485":0.200503,"486":0.138164,"487":0.12618,"488":-0.102587,"489":-0.044831,"490":0.071744,"491":0.165589,"492":0.156785,"493":0.114353,"494":-0.077039,"495":0.236306,"496":-0.185977,"497":0.006839,"498":0.155418,"499":-0.102722,"500":-0.017361,"501":-0.154023,"502":-0.057763,"503":-0.141298,"504":0.082264,"505":-0.076239,"506":0.100584,"507":-0.024602,"508":0.119974,"509":0.114872,"510":-0.15953,"511":-0.21392,"512":-0.09443,"513":0.154126,"514":0.034161,"515":-0.040447,"516":-0.018231,"517":0.155752,"518":0.018948,"519":0.155575,"520":0.068912,"521":-0.155585,"522":-0.048295,"523":-0.204,"524":-0.028349,"525":0.138338,"526":-0.026549,"527":0.008354,"528":0.179812,"529":-0.062113,"530":0.083932,"531":0.085421,"532":0.097577,"533":-0.057164,"534":-0.162215,"535":-0.142243,"536":0.173473,"537":0.132842}},"5":{"bias":-0.046349,"weights":{"0":0.402308,"1":-0.214907,"2":-0.128017,"3":0.195737,"4":-0.005785,"5":-0.060095,"6":-0.187112,"7":-0.060593,"8":0.022798,"9":0.022009,"10":-0.123978,"11":-0.127755,"12":-0.000557,"13":0.14911,"14":-0.15164,"15":-0.139528,"16":-0.145797,"17":-0.118163,"18":0.101672,"19":-0.422252,"20":-0.096403,"21":-0.16014,"22":-0.028625,"23":-0.091431,"24":0.104412,"25":-0.228655,"26":0.085825,"27":-0.015664,"28":-0.021912,"29":-0.012862,"30":0.160135,"31":-0.059552,"32":0.043365,"33":0.014299,"34":-0.221348,"35":-0.00638,"36":0.014615,"37":-0.08163,"38":-0.075789,"39":0.02041,"40":0.046353,"41":-0.034826,"42":0.10691,"43":0.11539,"44":-0.24865,"45":0.020736,"46":-0.016293,"47":-0.043764,"48":-0.019832,"49":-0.323202,"50":0.21941,"51":-0.104395,"52":-0.103632,"53":-0.034043,"54":-0.177127,"55":-0.001803,"56":0.179366,"57":0.073755,"58":0.169217,"59":0.200522,"60":0.089951,"61":-0.027532,"62":0.032518,"63":-0.014325,"64":0.027321,"65":0.065582,"66":-0.233149,"67":-0.17532,"68":-0.064087,"69":0.049668,"70":0.105377,"71":-0.090307,"72":-0.052345,"73":-0.126829,"74":-0.104559,"75":-0.000971,"76":0.057939,"77":0.164453,"78":-0.116552,"79":-0.061338,"80":-0.223869,"81":-0.008173,"82":-0.018839,"83":-0.089623,"84":0.036157,"85":-0.180122,"86":0.037947,"87":0.054903,"88":-0.059413,"89":-0.024535,"90":-0.125821,"91":0.121996,"92":-0.0653,"93":-0.13958,"94":-0.187753,"95":-0.070708,"96":0.107025,"97":0.108817,"98":-0.209271,"99":-0.15153,"100":0.124176,"101":0.054729,"102":-0.142653,"103":0.087491,"104":0.037895,"105":-0.05817,"106":-0.128872,"107":-0.068405,"108":-0.067316,"109":0.077625,"110":0.065391,"111":0.033411,"112":0.119153,"113":0.150297,"114":-0.170319,"115":0.104184,"116":0.006111,"117":-0.217573,"118":0.211685,"119":-0.037437,"120":0.065111,"121":-0.081858,"122":-0.035782,"123":0.111332,"124":-0.008933,"125":0.039556,"126":-0.113849,"127":0.143615,"128":0.152425,"129":0.091439,"130":-0.038887,"131":-0.034068,"132":0.05763,"133":0.13668,"134":-0.020499,"135":-0.168256,"136":0.150159,"137":-0.089137,"138":0.238409,"139":0.007616,"140":-0.108693,"141":-0.131487,"142":-0.018938,"143":0.127666,"144":0.228422,"145":-0.095938,"146":0.170005,"147":0.059764,"148":-0.03657,"149":-0.227997,"150":-0.182523,"151":-0.1345,"152":-0.034674,"153":-0.236414,"154":-0.115657,"155":0.210032,"156":0.119216,"157":-0.070738,"158":-0.154772,"159":0.010634,"160":-0.022265,"161":0.157308,"162":-0.217453,"163":0.009041,"164":0.041734,"165":-0.060893,"166":-0.095242,"167":0.085161,"168":-0.152616,"169":0.158167,"170":-0.159405,"171":0.073013,"172":-0.024456,"173":-0.114094,"174":-0.085395,"175":0.242637,"176":0.177365,"177":0.099352,"178":0.106631,"179":-0.22486,"180":0.210462,"181":-0.195895,"182":0.158119,"183":-0.042601,"184":-0.102569,"185":0.063277,"186":0.109807,"187":-0.228733,"188":-0.205808,"189":0.01442,"190":0.101121,"191":-0.140471,"192":0.038931,"193":-0.066302,"194":0.176005,"195":-0.107007,"196":-0.112476,"197":-0.106056,"198":-0.106106,"199":0.080708,"200":0.06921,"201":-0.051328,"202":-0.050296,"203":0.123719,"204":0.18941,"205":0.309398,"206":0.13109,"207":-0.055579,"208":0.074748,"209":-0.021476,"210":-0.140714,"211":-0.202717,"212":0.13879,"213":0.071747,"214":0.161918,"215":-0.012838,"216":0.236847,"217":0.245062,"218":-0.024461,"219":0.132566,"220":0.144593,"221":-0.122262,"222":0.027299,"223":-0.020256,"224":-0.144604,"225":-0.008932,"226":0.070909,"227":-0.090108,"228":0.029676,"229":-0.111985,"230":-0.037716,"231":-0.012264,"232":0.041269,"233":0.040236,"234":-0.08407,"235":0.155756,"236":0.054789,"237":-0.139253,"238":0.032574,"239":-0.029598,"240":0.179061,"241":0.127761,"242":0.011213,"243":0.207207,"244":0.11396,"245":-0.228074,"246":0.006192,"247":0.059153,"248":0.055642,"249":0.202417,"250":0.14852,"251":-0.127044,"252":0.093576,"253":-0.192044,"254":0.1207,"255":0.157676,"256":-0.002569,"257":-0.188361,"258":0.178732,"259":0.02545,"260":-0.012083,"261":0.116117,"262":-0.103071,"263":0.223922,"264":0.006282,"265":0.054055,"266":0.050567,"267":-0.243285,"268":0.23002,"269":-0.008163,"270":0.197667,"271":0.168483,"272":0.008042,"273":0.09535,"274":-0.003033,"275":0.173413,"276":0.081312,"277":-0.185749,"278":0.05709,"279":-0.082191,"280":0.069742,"281":-0.156153,"282":-0.043243,"283":0.071466,"284":0.150555,"285":-0.121328,"286":0.032147,"287":0.058952,"288":-0.029846,"289":0.149814,"290":-0.114752,"291":-0.096975,"292":-0.190806,"293":-0.105148,"294":0.14354,"295":-0.155944,"296":0.123195,"297":-0.132429,"298":-0.000196,"299":-0.009087,"300":-0.145766,"301":0.187555,"302":-0.005282,"303":0.072291,"304":-0.153637,"305":0.093811,"306":-0.124691,"307":0.121877,"308":-0.134615,"309":-0.220392,"310":0.154981,"311":-0.15993,"312":-0.13869,"313":-0.001064,"314":0.152803,"315":0.080728,"316":0.202705,"317":-0.081432,"318":-0.10647,"319":-0.015926,"320":-0.118696,"321":0.141298,"322":0.190444,"323":0.069089,"324":0.06983,"325":-0.168038,"326":-0.108285,"327":-0.137243,"328":0.1157,"329":0.112444,"330":-0.185438,"331":-0.073544,"332":-0.090147,"333":0.291255,"334":-0.047653,"335":0.126878,"336":-0.17389,"337":0.113168,"338":-0.139554,"339":0.19875,"340":-0.197432,"341":0.009535,"342":-0.168182,"343":-0.183444,"344":-0.039293,"345":0.079557,"346":0.15531,"347":-0.087411,"348":-0.180322,"349":-0.177753,"350":0.091316,"351":0.058831,"352":-0.121976,"353":0.082137,"354":-0.130167,"355":-0.263041,"356":-0.071665,"357":-0.190419,"358":-0.014539,"359":-0.19334,"360":-0.058678,"361":0.111931,"362":0.121028,"363":-0.06721,"364":0.109471,"365":0.010187,"366":0.054425,"367":-0.115799,"368":0.191122,"369":-0.027195,"370":0.137953,"371":-0.155384,"372":0.18724,"373":-0.110583,"374":-0.108,"375":0.103701,"376":0.116407,"377":-0.164223,"378":0.1,"379":-0.154262,"380":-0.169324,"381":-0.005336,"382":0.162441,"383":-0.17045,"384":0.043108,"385":-0.083925,"386":-0.079771,"387":-0.166114,"388":-0.176311,"389":0.026568,"390":0.169905,"391":0.203478,"392":0.066576,"393":-0.018433,"394":0.048771,"395":0.00613,"396":0.109745,"397":-0.07776,"398":-0.142976,"399":-0.096315,"400":0.061886,"401":0.211793,"402":-0.002726,"403":0.043452,"404":-0.064606,"405":-0.03389,"406":-0.128429,"407":-0.094234,"408":0.014205,"409":0.174033,"410":-0.004285,"411":-0.132119,"412":0.055249,"413":-0.176059,"414":-0.191262,"415":0.01672,"416":0.125269,"417":-0.001426,"418":0.008113,"419":-0.001817,"420":-0.076227,"421":-0.105727,"422":0.089194,"423":0.036767,"424":-0.10746,"425":-0.037335,"426":-0.0601,"427":-0.011975,"428":-0.19934,"429":-0.148047,"430":-0.170218,"431":-0.083018,"432":0.133406,"433":0.149548,"434":0.086423,"435":0.107597,"436":-0.125718,"437":-0.09111,"438":0.220734,"439":0.146718,"440":-0.03123,"441":0.060014,"442":0.101418,"443":0.172634,"444":-0.179088,"445":-0.085915,"446":0.002943,"447":0.096103,"448":0.150311,"449":-0.047359,"450":-0.056346,"451":-0.168523,"452":0.07861,"453":0.039342,"454":-0.001798,"455":-0.056098,"456":-0.166568,"457":0.186845,"458":-0.039977,"459":0.005986,"460":-0.000628,"461":0.104956,"462":0.144408,"463":0.020139,"464":-0.107539,"465":0.080706,"466":-0.002914,"467":-0.111715,"468":0.126535,"469":0.119041,"470":0.05924,"471":-0.153656,"472":0.168217,"473":-0.18813,"474":-0.204136,"475":0.122253,"476":0.008153,"477":0.090416,"478":-0.042802,"479":0.176883,"480":0.011617,"481":-0.184639,"482":-0.147817,"483":0.1449,"484":-0.169358,"485":0.063729,"486":-0.012644,"487":-0.147748,"488":0.073845,"489":-0.032168,"490":0.184548,"491":-0.116188,"492":0.143358,"493":-0.048989,"494":0.061641,"495":0.076882,"496":0.041072,"497":-0.189288,"498":0.064497,"499":0.139138,"500":0.139591,"501":-0.190875,"502":0.080027,"503":-0.039499,"504":0.175522,"505":0.075691,"506":0.113614,"507":-0.012141,"508":0.114033,"509":0.066798,"510":-0.212966,"511":-0.103465,"512":-0.12974,"513":-0.214809,"514":-0.061367,"515":-0.13738,"516":-0.027654,"517":-0.103187,"518":-0.093139,"519":0.169297,"520":-0.023884,"521":0.122747,"522":-0.209034,"523":-0.033855,"524":-0.045445,"525":0.120119,"526":-0.145072,"527":-0.011361,"528":-0.010611,"529":0.082958,"530":0.007085,"531":-0.015227,"532":0.011674,"533":0.066117,"534":-0.011621,"535":0.104059,"536":0.138908,"537":0.157792}},"6":{"bias":0.055585,"weights":{"0":0.155214,"1":-0.025411,"2":-0.044034,"3":0.112159,"4":-0.074793,"5":-0.110394,"6":0.018629,"7":-0.175181,"8":0.045863,"9":0.103366,"10":-0.181135,"11":0.180333,"12":0.192154,"13":0.21115,"14":-0.106273,"15":-0.111518,"16":-0.128047,"17":0.133536,"18":-0.141484,"19":0.421682,"20":0.268825,"21":0.177612,"22":0.248146,"23":0.125835,"24":-0.02172,"25":-0.020463,"26":0.151148,"27":0.191463,"28":0.063985,"29":0.128154,"30":0.09929,"31":-0.096525,"32":-0.102045,"33":-0.097698,"34":-0.175912,"35":0.003009,"36":0.073028,"37":-0.069846,"38":-0.067534,"39":0.296259,"40":0.113218,"41":-0.062415,"42":0.131662,"43":0.200021,"44":0.156756,"45":0.062265,"46":0.020832,"47":-0.187039,"48":-0.036774,"49":0.124501,"50":0.018944,"51":0.152902,"52":0.125039,"53":0.063505,"54":0.237876,"55":0.16633,"56":0.155461,"57":0.115568,"58":0.18797,"59":0.12131,"60":-0.023142,"61":-0.092497,"62":0.151856,"63":0.055349,"64":0.176258,"65":0.055476,"66":0.121121,"67":0.125478,"68":-0.208541,"69":-0.031056,"70":0.042321,"71":0.237428,"72":0.033522,"73":0.094446,"74":-0.224667,"75":-0.073115,"76":0.006793,"77":-0.264338,"78":0.06315,"79":0.151107,"80":0.257362,"81":0.086454,"82":-0.160889,"83":0.226309,"84":0.051996,"85":-0.00022,"86":0.00023,"87":-0.007488,"88":0.169556,"89":0.059569,"90":-0.064902,"91":0.045567,"92":-0.034496,"93":0.193,"94":0.06793,"95":-0.104599,"96":-0.294927,"97":0.160201,"98":0.061117,"99":0.147315,"100":0.121418,"101":-0.042964,"102":-0.006911,"103":-0.002978,"104":-0.050993,"105":-0.116257,"106":0.117787,"107":0.052473,"108":0.177871,"109":0.187678,"110":-0.218492,"111":-0.207264,"112":-0.109018,"113":0.053536,"114":0.019278,"115":-0.223588,"116":-0.117332,"117":0.112127,"118":-0.202014,"119":0.062421,"120":-0.071192,"121":-0.056803,"122":-0.115768,"123":-0.01358,"124":-0.073472,"125":0.090018,"126":0.21941,"127":0.182863,"128":-0.203522,"129":0.071423,"130":0.086268,"131":-0.13754,"132":-0.208801,"133":0.004089,"134":-0.056744,"135":0.112925,"136":0.007034,"137":0.239625,"138":-0.148355,"139":-0.159452,"140":0.070432,"141":-0.082719,"142":-0.176295,"143":0.126696,"144":-0.05183,"145":-0.09689,"146":-0.0749,"147":0.005873,"148":-0.118973,"149":0.12528,"150":0.205875,"151":0.206218,"152":-0.094385,"153":0.129539,"154":0.021505,"155":0.221759,"156":-0.032232,"157":-0.103784,"158":0.169228,"159":0.20032,"160":-0.007022,"161":0.083313,"162":0.142498,"163":0.215949,"164":-0.213105,"165":0.073261,"166":-0.098611,"167":0.100679,"168":-0.062694,"169":0.238361,"170":0.112305,"171":-0.024999,"172":0.122385,"173":-0.021655,"174":0.168984,"175":0.087861,"176":-0.178377,"177":0.045689,"178":0.108335,"179":0.046287,"180":0.133045,"181":-0.08055,"182":-0.023118,"183":-0.009357,"184":-0.166185,"185":0.105738,"186":-0.087529,"187":-0.084273,"188":0.242007,"189":0.189988,"190":-0.020829,"191":-0.0931,"192":-0.056179,"193":-0.053798,"194":-0.159727,"195":-0.040354,"196":0.137514,"197":-0.037462,"198":-0.051972,"199":0.004477,"200":-0.052652,"201":0.002571,"202":0.105637,"203":-0.138854,"204":0.030917,"205":-0.000056,"206":0.015124,"207":0.061784,"208":-0.001701,"209":0.098786,"210":-0.030696,"211":-0.035038,"212":0.154795,"213":0.163136,"214":0.107242,"215":-0.172921,"216":-0.063353,"217":-0.262293,"218":-0.165359,"219":-0.178928,"220":-0.003371,"221":0.113316,"222":-0.026014,"223":0.187345,"224":-0.125461,"225":0.143805,"226":0.125497,"227":-0.158813,"228":-0.086716,"229":0.073789,"230":0.022919,"231":0.149968,"232":-0.141035,"233":-0.262985,"234":0.144012,"235":-0.147945,"236":-0.082778,"237":-0.176953,"238":0.144415,"239":-0.196627,"240":-0.038492,"241":-0.197669,"242":-0.011322,"243":-0.046264,"244":0.049132,"245":0.026468,"246":-0.029148,"247":-0.056235,"248":0.087078,"249":-0.186526,"250":0.19167,"251":-0.19938,"252":0.133143,"253":-0.092945,"254":0.064442,"255":-0.100152,"256":-0.164751,"257":0.086056,"258":-0.026266,"259":-0.059053,"260":-0.143695,"261":-0.00184,"262":-0.048875,"263":-0.098071,"264":0.135904,"265":0.032424,"266":0.095367,"267":-0.044453,"268":-0.020279,"269":0.272679,"270":-0.020082,"271":-0.142598,"272":-0.110497,"273":0.081757,"274":0.165976,"275":0.052247,"276":-0.120161,"277":-0.004708,"278":0.172173,"279":-0.008106,"280":-0.138809,"281":-0.082224,"282":-0.004709,"283":-0.094322,"284":0.047819,"285":-0.059151,"286":-0.167982,"287":-0.109951,"288":0.079058,"289":0.015004,"290":0.151355,"291":0.196083,"292":0.052194,"293":-0.044872,"294":-0.024727,"295":0.058535,"296":-0.216513,"297":0.010894,"298":0.137798,"299":0.095116,"300":0.055921,"301":0.105778,"302":-0.006559,"303":0.074954,"304":-0.082172,"305":0.062251,"306":-0.011589,"307":-0.254144,"308":0.099366,"309":0.156494,"310":-0.160573,"311":-0.147914,"312":0.038178,"313":-0.118225,"314":-0.046145,"315":0.101769,"316":0.105424,"317":0.20024,"318":-0.121474,"319":-0.025905,"320":0.007116,"321":0.093719,"322":-0.066586,"323":-0.213966,"324":0.125823,"325":-0.075819,"326":-0.023539,"327":0.05866,"328":0.014061,"329":-0.080627,"330":-0.141981,"331":-0.132444,"332":0.146232,"333":-0.103401,"334":0.078188,"335":0.063556,"336":-0.14557,"337":0.025164,"338":0.137921,"339":0.115922,"340":0.167144,"341":0.081945,"342":0.100419,"343":0.083311,"344":-0.208085,"345":-0.122264,"346":0.005173,"347":-0.187024,"348":-0.049226,"349":0.162565,"350":0.02266,"351":-0.122151,"352":0.170625,"353":-0.052822,"354":0.017193,"355":-0.089809,"356":0.224653,"357":0.02742,"358":0.152768,"359":0.227535,"360":0.033822,"361":0.137872,"362":0.115821,"363":-0.073177,"364":0.049107,"365":-0.038841,"366":-0.122674,"367":-0.004331,"368":0.105678,"369":0.121977,"370":-0.119823,"371":0.089276,"372":0.078349,"373":-0.087089,"374":-0.173715,"375":-0.059537,"376":-0.143043,"377":0.020934,"378":0.090345,"379":0.070346,"380":0.065532,"381":0.133989,"382":0.007589,"383":-0.120636,"384":-0.184588,"385":0.050078,"386":-0.107852,"387":0.004663,"388":0.100512,"389":-0.12654,"390":0.021339,"391":-0.062822,"392":-0.259793,"393":0.195703,"394":0.073568,"395":0.111921,"396":0.124804,"397":0.083412,"398":-0.169647,"399":-0.204793,"400":-0.150596,"401":-0.185019,"402":-0.04697,"403":-0.045705,"404":0.201583,"405":-0.135028,"406":-0.197879,"407":-0.160796,"408":-0.039785,"409":-0.125385,"410":-0.036373,"411":-0.09229,"412":0.076485,"413":-0.14138,"414":0.162629,"415":0.10886,"416":0.112014,"417":0.192418,"418":0.162875,"419":-0.123552,"420":-0.183106,"421":0.059911,"422":0.058429,"423":0.067281,"424":0.108853,"425":0.086652,"426":0.107547,"427":-0.134882,"428":-0.062597,"429":-0.167928,"430":-0.019428,"431":-0.131908,"432":0.136516,"433":-0.034221,"434":-0.006363,"435":0.16762,"436":-0.004568,"437":0.064119,"438":0.050439,"439":-0.061135,"440":0.04085,"441":-0.077369,"442":0.146373,"443":-0.073645,"444":0.096143,"445":-0.092518,"446":-0.022151,"447":0.21657,"448":-0.040826,"449":0.027371,"450":-0.069227,"451":-0.245276,"452":0.059279,"453":-0.00954,"454":-0.029795,"455":0.001746,"456":0.206047,"457":0.175661,"458":-0.105512,"459":0.116119,"460":-0.183563,"461":-0.102081,"462":-0.051933,"463":0.0352,"464":0.193839,"465":0.021675,"466":0.227251,"467":0.00221,"468":0.00146,"469":-0.170589,"470":-0.113677,"471":-0.090884,"472":-0.166555,"473":0.020606,"474":-0.01131,"475":-0.120739,"476":0.134338,"477":0.169728,"478":0.141255,"479":-0.172388,"480":-0.097027,"481":0.069614,"482":0.041348,"483":0.000138,"484":-0.008172,"485":0.12907,"486":0.182658,"487":0.075444,"488":0.203971,"489":0.122774,"490":0.180364,"491":-0.162529,"492":-0.025169,"493":0.183214,"494":-0.01286,"495":0.153089,"496":-0.046657,"497":0.038414,"498":-0.231466,"499":-0.045611,"500":-0.001585,"501":-0.07851,"502":-0.198857,"503":-0.118001,"504":-0.021585,"505":0.053603,"506":0.029636,"507":-0.122203,"508":0.099678,"509":0.118205,"510":-0.14128,"511":0.151636,"512":-0.053589,"513":-0.031174,"514":0.15694,"515":0.090811,"516":0.026468,"517":-0.12053,"518":0.012664,"519":0.12472,"520":0.115553,"521":0.058002,"522":-0.045527,"523":0.175847,"524":-0.135391,"525":0.198111,"526":-0.061022,"527":-0.134293,"528":0.077974,"529":-0.132329,"530":0.018719,"531":-0.034261,"532":0.097938,"533":-0.058652,"534":-0.156403,"535":-0.065196,"536":0.102374,"537":0.126651}},"7":{"bias":0.106423,"weights":{"0":-0.238087,"1":-0.024011,"2":0.04878,"3":-0.232647,"4":0.032454,"5":-0.256198,"6":0.113792,"7":-0.095838,"8":-0.030731,"9":0.140883,"10":-0.160414,"11":0.007529,"12":0.165754,"13":0.036448,"14":0.073196,"15":-0.108209,"16":0.178975,"17":0.148304,"18":0.023904,"19":0.168437,"20":0.233233,"21":-0.183521,"22":0.174363,"23":0.117869,"24":0.24736,"25":0.259822,"26":0.059396,"27":0.202863,"28":0.196661,"29":0.11135,"30":-0.151286,"31":0.026557,"32":-0.081612,"33":-0.216711,"34":-0.012721,"35":-0.095702,"36":-0.027874,"37":0.238786,"38":-0.018175,"39":0.249904,"40":0.095656,"41":-0.15186,"42":-0.152191,"43":0.061214,"44":0.325428,"45":-0.009961,"46":-0.027781,"47":0.154412,"48":-0.115236,"49":0.25728,"50":-0.139159,"51":-0.091628,"52":0.089898,"53":-0.121465,"54":0.014099,"55":0.165873,"56":0.153614,"57":0.139318,"58":-0.144983,"59":0.037983,"60":0.09439,"61":-0.005597,"62":0.172716,"63":0.176449,"64":0.163157,"65":0.029292,"66":0.222011,"67":-0.013795,"68":0.09571,"69":0.108833,"70":0.174035,"71":0.240892,"72":-0.003288,"73":-0.100487,"74":-0.177714,"75":0.138843,"76":0.225953,"77":0.003809,"78":0.057426,"79":0.065697,"80":0.2111,"81":-0.037146,"82":0.080135,"83":-0.009868,"84":0.156003,"85":0.007789,"86":-0.113295,"87":-0.144728,"88":0.222028,"89":-0.023194,"90":0.048838,"91":-0.084306,"92":-0.008921,"93":-0.140601,"94":0.031569,"95":-0.039341,"96":-0.217616,"97":-0.042331,"98":0.145301,"99":0.236771,"100":-0.183978,"101":0.05359,"102":-0.094241,"103":0.128441,"104":-0.199148,"105":0.023021,"106":0.151134,"107":-0.154999,"108":0.097822,"109":0.088412,"110":0.169556,"111":-0.023527,"112":-0.138768,"113":0.030446,"114":0.15171,"115":-0.124876,"116":0.001723,"117":0.085305,"118":-0.020716,"119":-0.122655,"120":0.170186,"121":0.008982,"122":0.229396,"123":-0.104913,"124":-0.102455,"125":0.073258,"126":-0.088217,"127":-0.073522,"128":0.05114,"129":0.29756,"130":-0.166315,"131":-0.05441,"132":0.001189,"133":0.189973,"134":0.072185,"135":0.10124,"136":-0.038241,"137":-0.111387,"138":0.11954,"139":-0.089832,"140":0.129985,"141":-0.149271,"142":0.040893,"143":0.017357,"144":-0.01695,"145":0.116409,"146":0.174405,"147":0.117197,"148":-0.187748,"149":0.120409,"150":-0.075999,"151":0.181664,"152":-0.201695,"153":0.080312,"154":-0.203881,"155":0.223532,"156":-0.233058,"157":0.101033,"158":0.028568,"159":0.069142,"160":-0.125854,"161":-0.026154,"162":-0.091587,"163":-0.081243,"164":-0.22838,"165":0.02947,"166":-0.098679,"167":-0.081654,"168":-0.027994,"169":-0.090777,"170":-0.12476,"171":-0.101628,"172":-0.143199,"173":0.079938,"174":-0.100228,"175":0.209287,"176":-0.12925,"177":0.167778,"178":-0.134982,"179":-0.079132,"180":0.070956,"181":-0.060708,"182":0.057432,"183":-0.037277,"184":0.109987,"185":-0.117279,"186":-0.115412,"187":0.039275,"188":0.168916,"189":-0.086951,"190":-0.026102,"191":0.055817,"192":-0.051178,"193":-0.029688,"194":0.075361,"195":0.140715,"196":-0.008682,"197":-0.060017,"198":0.144918,"199":0.038431,"200":-0.115469,"201":0.070175,"202":-0.037504,"203":-0.212595,"204":-0.011056,"205":-0.101797,"206":0.135893,"207":-0.04234,"208":-0.130719,"209":-0.098464,"210":0.073667,"211":-0.060369,"212":-0.247672,"213":0.146575,"214":-0.231084,"215":-0.07599,"216":0.109299,"217":-0.127081,"218":-0.17319,"219":-0.165683,"220":-0.121841,"221":0.055808,"222":-0.227992,"223":0.103476,"224":-0.070629,"225":-0.010497,"226":0.175171,"227":0.157182,"228":0.050999,"229":0.040015,"230":-0.084657,"231":0.138978,"232":-0.127969,"233":0.162278,"234":-0.02515,"235":-0.129701,"236":0.193025,"237":-0.068039,"238":0.148792,"239":0.052218,"240":-0.15623,"241":0.183611,"242":-0.085862,"243":-0.230569,"244":0.12528,"245":0.073091,"246":-0.06563,"247":-0.027919,"248":0.101093,"249":-0.038374,"250":-0.058742,"251":0.098325,"252":0.023459,"253":-0.010308,"254":-0.134601,"255":0.006104,"256":0.035071,"257":-0.071847,"258":-0.264717,"259":0.107263,"260":-0.185174,"261":0.156217,"262":0.001477,"263":0.114817,"264":0.108195,"265":-0.01464,"266":-0.098418,"267":0.12421,"268":0.128108,"269":0.15347,"270":-0.096007,"271":-0.188114,"272":-0.044114,"273":-0.077628,"274":-0.12282,"275":0.09783,"276":-0.079007,"277":-0.11145,"278":-0.174277,"279":-0.022533,"280":0.062208,"281":-0.048051,"282":-0.049449,"283":-0.174007,"284":0.04153,"285":-0.253713,"286":-0.107907,"287":0.034573,"288":0.202735,"289":-0.04523,"290":0.190011,"291":-0.049288,"292":-0.015421,"293":-0.032691,"294":-0.121289,"295":-0.047703,"296":-0.024013,"297":0.145984,"298":-0.149295,"299":-0.093192,"300":-0.074848,"301":-0.105787,"302":-0.036607,"303":0.14599,"304":0.015175,"305":-0.101089,"306":0.081237,"307":0.032726,"308":-0.063673,"309":0.145503,"310":0.078586,"311":0.163081,"312":-0.000638,"313":-0.014714,"314":-0.217998,"315":-0.14029,"316":-0.072905,"317":0.238397,"318":0.215977,"319":0.130624,"320":-0.215319,"321":0.144531,"322":-0.090021,"323":-0.209244,"324":0.051884,"325":0.212214,"326":-0.022057,"327":-0.118362,"328":0.233857,"329":0.057435,"330":-0.148341,"331":0.076515,"332":-0.160844,"333":-0.098381,"334":0.03276,"335":-0.006911,"336":-0.09678,"337":-0.183992,"338":0.152852,"339":0.023555,"340":0.041612,"341":-0.061178,"342":-0.164852,"343":-0.113265,"344":0.047707,"345":0.152898,"346":-0.025213,"347":-0.121726,"348":0.051753,"349":-0.065548,"350":0.00168,"351":-0.065807,"352":-0.044324,"353":0.154823,"354":0.146156,"355":-0.021669,"356":-0.043791,"357":-0.279789,"358":-0.166176,"359":0.102469,"360":0.036057,"361":-0.067813,"362":0.037072,"363":0.055372,"364":-0.067418,"365":0.121489,"366":-0.159327,"367":-0.083705,"368":0.023375,"369":0.121819,"370":-0.021474,"371":0.057495,"372":0.095277,"373":0.013495,"374":-0.078445,"375":-0.127849,"376":-0.260519,"377":0.000183,"378":0.173999,"379":-0.094475,"380":-0.021762,"381":0.152262,"382":0.14269,"383":0.065876,"384":-0.116283,"385":0.129704,"386":0.080961,"387":0.056368,"388":-0.01793,"389":-0.139205,"390":-0.133572,"391":-0.162067,"392":-0.04021,"393":-0.139616,"394":-0.126452,"395":-0.029437,"396":-0.126715,"397":-0.010925,"398":-0.135766,"399":-0.285459,"400":0.102881,"401":0.051967,"402":-0.026221,"403":-0.159225,"404":-0.016461,"405":-0.000442,"406":0.114463,"407":-0.156806,"408":-0.152056,"409":0.127331,"410":-0.127577,"411":-0.102665,"412":0.141705,"413":0.125547,"414":0.270927,"415":0.073633,"416":-0.092118,"417":0.002498,"418":-0.083073,"419":0.189662,"420":-0.035018,"421":-0.161577,"422":-0.00362,"423":0.187933,"424":-0.249623,"425":-0.062784,"426":-0.10295,"427":-0.022628,"428":-0.027506,"429":0.030809,"430":-0.194578,"431":0.102738,"432":-0.14101,"433":-0.06339,"434":0.007289,"435":-0.089367,"436":-0.102927,"437":-0.194345,"438":-0.039824,"439":-0.043474,"440":-0.158333,"441":0.047911,"442":-0.138857,"443":0.205154,"444":-0.133211,"445":0.156824,"446":0.151626,"447":0.161185,"448":0.217527,"449":-0.012402,"450":0.151823,"451":-0.189541,"452":0.020338,"453":0.06089,"454":0.193575,"455":0.069178,"456":0.026148,"457":0.024331,"458":-0.000111,"459":-0.071572,"460":0.151197,"461":-0.158016,"462":0.169999,"463":-0.223819,"464":0.01202,"465":-0.133813,"466":-0.082963,"467":0.102171,"468":0.134466,"469":-0.185879,"470":0.009753,"471":-0.031984,"472":0.088648,"473":-0.184564,"474":0.220548,"475":0.108896,"476":0.203941,"477":0.173553,"478":0.037685,"479":0.126623,"480":0.107484,"481":0.007701,"482":0.043764,"483":0.007811,"484":0.047114,"485":-0.093957,"486":-0.167763,"487":-0.106969,"488":-0.096144,"489":0.16183,"490":0.208646,"491":-0.168981,"492":-0.167842,"493":-0.090038,"494":-0.147251,"495":-0.084528,"496":-0.096072,"497":0.091046,"498":-0.137574,"499":-0.187873,"500":0.127518,"501":0.173534,"502":0.097641,"503":0.002146,"504":0.14338,"505":0.097011,"506":0.073797,"507":0.096443,"508":0.039118,"509":-0.046797,"510":-0.012983,"511":-0.029452,"512":-0.115653,"513":-0.113127,"514":-0.014592,"515":-0.141838,"516":0.123073,"517":-0.01286,"518":-0.064315,"519":0.090853,"520":0.035747,"521":-0.073951,"522":0.06677,"523":-0.040999,"524":0.120207,"525":0.016589,"526":-0.025403,"527":0.076897,"528":-0.155448,"529":0.056396,"530":0.424886,"531":-0.024746,"532":0.031316,"533":0.112767,"534":0.050607,"535":0.17188,"536":0.139405,"537":0.069351}},"8":{"bias":0.167112,"weights":{"0":0.174729,"1":-0.093884,"2":0.154343,"3":-0.012826,"4":-0.12969,"5":-0.131391,"6":0.199895,"7":0.041258,"8":-0.175585,"9":0.195386,"10":0.033673,"11":-0.182749,"12":0.087765,"13":0.130778,"14":0.208595,"15":0.164007,"16":0.080919,"17":0.168366,"18":0.174114,"19":-0.124889,"20":-0.201388,"21":0.152291,"22":-0.145261,"23":-0.029624,"24":-0.073998,"25":-0.127997,"26":-0.173708,"27":0.15412,"28":0.17791,"29":-0.108451,"30":0.117685,"31":-0.168047,"32":-0.04744,"33":-0.157681,"34":0.062508,"35":0.054531,"36":-0.173404,"37":0.051569,"38":0.093708,"39":-0.154689,"40":-0.233303,"41":-0.063588,"42":-0.143868,"43":-0.183173,"44":-0.0609,"45":-0.044584,"46":0.080233,"47":0.182723,"48":0.124087,"49":0.021224,"50":0.025249,"51":0.012171,"52":-0.077598,"53":0.109228,"54":0.048456,"55":-0.052055,"56":-0.004962,"57":0.049482,"58":0.128058,"59":-0.100485,"60":-0.135985,"61":0.181766,"62":-0.162632,"63":-0.085996,"64":0.17734,"65":0.139941,"66":0.02564,"67":0.139358,"68":-0.025726,"69":0.07328,"70":-0.088529,"71":0.024604,"72":0.188302,"73":0.031265,"74":-0.152941,"75":0.096371,"76":-0.019067,"77":-0.024525,"78":0.080115,"79":0.166642,"80":-0.17746,"81":0.02658,"82":-0.191108,"83":-0.100476,"84":0.176798,"85":0.085285,"86":0.018188,"87":-0.114898,"88":-0.152137,"89":0.024402,"90":0.044138,"91":0.168813,"92":-0.091215,"93":-0.075252,"94":-0.154002,"95":0.127223,"96":-0.154021,"97":-0.006011,"98":0.038104,"99":-0.168196,"100":0.149744,"101":0.043344,"102":0.160538,"103":0.113697,"104":-0.067862,"105":-0.06469,"106":0.114751,"107":-0.020144,"108":0.024832,"109":-0.046219,"110":-0.070023,"111":-0.03177,"112":-0.027261,"113":0.054832,"114":-0.09787,"115":0.150428,"116":0.016948,"117":0.165971,"118":-0.039363,"119":0.071898,"120":0.007143,"121":-0.17473,"122":-0.049629,"123":-0.095449,"124":0.116542,"125":0.187267,"126":0.022572,"127":-0.116938,"128":-0.075202,"129":-0.113438,"130":-0.087114,"131":-0.032282,"132":0.182082,"133":0.195596,"134":-0.025909,"135":-0.02078,"136":0.103831,"137":0.01025,"138":0.19958,"139":0.011594,"140":0.179573,"141":0.131099,"142":-0.101633,"143":0.166509,"144":0.200508,"145":-0.089451,"146":0.176175,"147":-0.087545,"148":0.124165,"149":0.191028,"150":0.080473,"151":-0.072336,"152":-0.05254,"153":-0.096532,"154":-0.150435,"155":0.136961,"156":-0.077169,"157":0.171766,"158":-0.135832,"159":-0.01066,"160":0.023677,"161":-0.167896,"162":0.082,"163":0.102782,"164":0.022763,"165":0.064602,"166":0.167447,"167":0.157988,"168":0.153621,"169":-0.144657,"170":-0.024081,"171":0.074345,"172":0.05702,"173":-0.202911,"174":-0.184896,"175":0.209061,"176":-0.183898,"177":-0.033178,"178":-0.15614,"179":0.011625,"180":-0.175518,"181":-0.167975,"182":0.02214,"183":-0.03704,"184":-0.038399,"185":0.172645,"186":-0.009195,"187":-0.128431,"188":-0.088977,"189":-0.187615,"190":-0.032929,"191":-0.025301,"192":-0.051949,"193":-0.050392,"194":0.065484,"195":0.029073,"196":-0.064249,"197":-0.054678,"198":0.162694,"199":-0.092221,"200":-0.028503,"201":0.107543,"202":-0.182438,"203":0.093211,"204":0.139074,"205":0.249486,"206":-0.083858,"207":0.17992,"208":0.160898,"209":-0.147968,"210":-0.195435,"211":-0.111685,"212":-0.076933,"213":0.011582,"214":-0.014593,"215":0.100125,"216":0.087794,"217":0.108859,"218":-0.033203,"219":-0.206215,"220":0.146026,"221":-0.024773,"222":-0.207526,"223":-0.177365,"224":-0.106832,"225":0.159363,"226":0.082766,"227":-0.101188,"228":0.195873,"229":0.070599,"230":-0.152682,"231":-0.216339,"232":0.007169,"233":0.147291,"234":-0.081058,"235":-0.166354,"236":0.077405,"237":-0.072139,"238":-0.159262,"239":-0.067866,"240":-0.143189,"241":-0.029519,"242":0.158559,"243":0.136902,"244":-0.110357,"245":-0.158785,"246":0.019063,"247":0.085285,"248":-0.172849,"249":0.021925,"250":-0.051247,"251":-0.175671,"252":-0.073823,"253":0.139312,"254":0.067617,"255":0.144623,"256":0.11046,"257":0.083034,"258":0.034455,"259":-0.170801,"260":0.022882,"261":-0.060721,"262":-0.091738,"263":0.035658,"264":-0.039402,"265":-0.179432,"266":0.16989,"267":0.149542,"268":0.162858,"269":0.048647,"270":-0.146499,"271":0.077544,"272":0.13585,"273":-0.035378,"274":-0.060563,"275":-0.104524,"276":-0.089568,"277":-0.088895,"278":-0.173294,"279":-0.039358,"280":0.049104,"281":-0.141724,"282":-0.156002,"283":0.068627,"284":0.126668,"285":-0.164428,"286":-0.149751,"287":0.179412,"288":0.195267,"289":0.143261,"290":-0.135139,"291":0.057186,"292":-0.109575,"293":0.206187,"294":-0.089767,"295":0.08862,"296":0.147702,"297":-0.083214,"298":0.040647,"299":0.131616,"300":-0.083829,"301":-0.00395,"302":-0.173761,"303":0.007143,"304":0.121932,"305":0.165719,"306":-0.038224,"307":-0.165762,"308":0.02732,"309":-0.009466,"310":0.126403,"311":-0.027003,"312":0.054778,"313":-0.230862,"314":-0.003888,"315":0.121847,"316":0.127793,"317":0.135938,"318":0.16768,"319":-0.009259,"320":-0.025709,"321":-0.158375,"322":0.098149,"323":0.096358,"324":0.048703,"325":-0.188327,"326":0.170669,"327":0.022307,"328":0.119048,"329":0.015233,"330":-0.217859,"331":0.060866,"332":0.135972,"333":-0.145677,"334":0.020075,"335":-0.086526,"336":0.195403,"337":-0.086533,"338":0.082281,"339":-0.157637,"340":0.148077,"341":-0.021262,"342":0.067806,"343":0.058496,"344":-0.026699,"345":-0.022071,"346":0.054439,"347":0.102281,"348":-0.152629,"349":0.050527,"350":-0.050771,"351":-0.030286,"352":0.135986,"353":-0.070958,"354":-0.090476,"355":0.154908,"356":0.009908,"357":-0.171263,"358":0.077899,"359":-0.106766,"360":-0.102462,"361":-0.190818,"362":0.029394,"363":-0.1863,"364":-0.067886,"365":0.097772,"366":-0.165884,"367":-0.199434,"368":-0.180936,"369":-0.142424,"370":-0.132197,"371":0.077459,"372":0.079092,"373":0.120948,"374":-0.140905,"375":-0.151299,"376":-0.128985,"377":0.124686,"378":0.078072,"379":-0.145094,"380":0.160776,"381":0.117463,"382":-0.146762,"383":0.020521,"384":-0.093493,"385":-0.018242,"386":0.114053,"387":-0.125279,"388":-0.036283,"389":-0.172768,"390":-0.078974,"391":0.147433,"392":-0.037106,"393":-0.001346,"394":-0.19453,"395":0.0575,"396":0.14723,"397":0.147166,"398":0.070568,"399":0.004636,"400":0.121345,"401":-0.1408,"402":0.191075,"403":0.015861,"404":0.05834,"405":-0.051631,"406":-0.1466,"407":0.089261,"408":0.049764,"409":0.016874,"410":-0.159617,"411":-0.130613,"412":-0.128003,"413":-0.035734,"414":-0.106378,"415":-0.097773,"416":-0.026028,"417":-0.011526,"418":-0.141196,"419":-0.113555,"420":0.130478,"421":-0.090046,"422":-0.067844,"423":0.114697,"424":-0.036091,"425":0.1408,"426":0.067274,"427":-0.146437,"428":0.177952,"429":0.181245,"430":0.125986,"431":-0.128694,"432":-0.054866,"433":-0.113212,"434":-0.0508,"435":0.141515,"436":-0.164615,"437":0.077578,"438":0.073556,"439":-0.15563,"440":-0.008593,"441":0.231535,"442":-0.020332,"443":0.206223,"444":-0.122513,"445":0.060463,"446":-0.051437,"447":0.126911,"448":-0.083626,"449":-0.011162,"450":-0.076101,"451":0.061251,"452":-0.160185,"453":-0.204885,"454":-0.135269,"455":0.073362,"456":0.148786,"457":0.195819,"458":-0.017636,"459":0.062663,"460":-0.160267,"461":0.020314,"462":0.00414,"463":-0.159747,"464":-0.016831,"465":-0.133263,"466":-0.092474,"467":-0.114866,"468":-0.03316,"469":-0.010867,"470":-0.052063,"471":0.180341,"472":0.160164,"473":0.119202,"474":0.119713,"475":0.202696,"476":-0.05797,"477":-0.064819,"478":0.123123,"479":-0.099949,"480":0.122674,"481":0.141471,"482":-0.073334,"483":-0.059369,"484":-0.052253,"485":0.004888,"486":0.137563,"487":0.002959,"488":0.120052,"489":0.135273,"490":-0.064957,"491":-0.11483,"492":0.018578,"493":-0.092927,"494":0.035289,"495":0.04428,"496":-0.192903,"497":-0.044491,"498":-0.11635,"499":0.193288,"500":-0.000831,"501":-0.173387,"502":0.181959,"503":0.031673,"504":0.128516,"505":0.044792,"506":0.032599,"507":-0.130108,"508":0.091608,"509":0.149764,"510":0.017585,"511":0.130773,"512":-0.144429,"513":-0.119658,"514":0.055968,"515":-0.167139,"516":0.149135,"517":0.115776,"518":0.02131,"519":-0.056224,"520":0.174729,"521":0.204664,"522":-0.074594,"523":0.110408,"524":0.120479,"525":-0.198086,"526":-0.183015,"527":-0.187434,"528":0.088123,"529":-0.177083,"530":0.215981,"531":-0.121504,"532":0.094337,"533":0.055103,"534":-0.041197,"535":0.168514,"536":-0.092452,"537":0.18783}},"9":{"bias":-0.014639,"weights":{"0":-0.167492,"1":0.144776,"2":-0.148601,"3":-0.139517,"4":0.034098,"5":0.021876,"6":-0.051809,"7":-0.166644,"8":0.036014,"9":-0.02567,"10":-0.074284,"11":0.021492,"12":0.023565,"13":-0.079596,"14":-0.051474,"15":0.226788,"16":0.207448,"17":0.032019,"18":0.136826,"19":0.049676,"20":0.105819,"21":0.029981,"22":0.237045,"23":0.206295,"24":0.138033,"25":-0.051965,"26":0.136534,"27":-0.074263,"28":0.228289,"29":0.23174,"30":0.070388,"31":0.025626,"32":0.145368,"33":0.154099,"34":-0.117491,"35":0.103036,"36":0.111102,"37":0.202789,"38":-0.132676,"39":0.012403,"40":0.18461,"41":0.16266,"42":0.226437,"43":0.081574,"44":0.396508,"45":-0.053978,"46":0.047961,"47":-0.153821,"48":-0.065038,"49":-0.035931,"50":-0.083839,"51":0.167587,"52":0.03756,"53":0.074028,"54":0.001855,"55":-0.003232,"56":0.033698,"57":-0.045626,"58":0.090957,"59":0.127948,"60":0.083166,"61":0.092824,"62":-0.084504,"63":-0.03616,"64":-0.044,"65":0.160393,"66":0.121276,"67":0.1605,"68":0.110078,"69":0.02952,"70":-0.207861,"71":0.034345,"72":-0.051037,"73":-0.031637,"74":-0.18168,"75":0.110313,"76":0.125715,"77":0.032821,"78":0.289681,"79":0.133285,"80":-0.013281,"81":0.141963,"82":0.139277,"83":-0.036718,"84":0.0031,"85":0.036807,"86":0.124609,"87":-0.077036,"88":0.064194,"89":-0.086897,"90":0.291933,"91":-0.113164,"92":0.159344,"93":0.005728,"94":0.194249,"95":-0.061585,"96":-0.099508,"97":0.045527,"98":0.146537,"99":0.010557,"100":-0.219554,"101":-0.118114,"102":-0.076907,"103":0.146358,"104":0.084479,"105":0.110063,"106":-0.167307,"107":-0.130624,"108":-0.169873,"109":-0.057649,"110":0.066412,"111":0.153647,"112":0.204514,"113":0.248097,"114":0.039491,"115":0.127604,"116":0.086524,"117":-0.116686,"118":0.01658,"119":0.091741,"120":0.029701,"121":-0.134147,"122":0.209153,"123":0.191554,"124":0.060822,"125":-0.190062,"126":0.070923,"127":0.356003,"128":-0.176647,"129":-0.066072,"130":0.224901,"131":0.172633,"132":0.166297,"133":0.283098,"134":-0.17063,"135":0.166847,"136":0.045059,"137":0.062168,"138":0.18735,"139":-0.046077,"140":-0.125067,"141":-0.174141,"142":0.157826,"143":0.112773,"144":-0.055074,"145":0.050356,"146":-0.134092,"147":0.24803,"148":-0.206065,"149":-0.112551,"150":-0.135668,"151":0.030417,"152":0.061407,"153":-0.025397,"154":0.175964,"155":0.167182,"156":0.039857,"157":0.120132,"158":0.127049,"159":0.087517,"160":0.002749,"161":0.08962,"162":0.112131,"163":0.170475,"164":-0.176466,"165":-0.041452,"166":-0.160762,"167":0.01503,"168":-0.035032,"169":-0.077012,"170":0.011478,"171":0.117685,"172":-0.015136,"173":-0.138691,"174":-0.029701,"175":0.152929,"176":-0.197376,"177":0.196095,"178":0.08301,"179":0.159175,"180":0.012927,"181":-0.125378,"182":-0.125764,"183":-0.092418,"184":-0.055775,"185":-0.03596,"186":0.029236,"187":-0.024929,"188":-0.108724,"189":-0.064865,"190":-0.016903,"191":-0.118597,"192":0.008983,"193":-0.103054,"194":-0.049272,"195":-0.02609,"196":-0.201471,"197":0.198,"198":0.065368,"199":0.148023,"200":0.007723,"201":0.153388,"202":0.113933,"203":-0.065814,"204":-0.021321,"205":-0.062004,"206":-0.161067,"207":-0.107484,"208":0.059415,"209":-0.057676,"210":0.06087,"211":0.064508,"212":-0.12832,"213":-0.114312,"214":-0.222269,"215":-0.013762,"216":-0.092,"217":-0.049821,"218":-0.15515,"219":-0.252998,"220":-0.151157,"221":-0.117311,"222":0.003402,"223":-0.148136,"224":0.133341,"225":-0.070162,"226":-0.022425,"227":0.065716,"228":-0.033788,"229":-0.004492,"230":-0.10726,"231":-0.147091,"232":-0.107921,"233":0.136709,"234":-0.108739,"235":0.149568,"236":-0.079946,"237":-0.169294,"238":-0.134507,"239":0.036709,"240":-0.158892,"241":0.17343,"242":-0.032129,"243":0.044061,"244":-0.035799,"245":-0.168656,"246":-0.046322,"247":-0.141941,"248":0.007399,"249":0.06264,"250":-0.087829,"251":0.204906,"252":-0.034908,"253":0.166681,"254":-0.169711,"255":0.119009,"256":0.055084,"257":-0.161975,"258":0.021687,"259":0.110387,"260":0.202529,"261":0.241083,"262":0.061754,"263":0.121173,"264":-0.03132,"265":-0.087561,"266":0.084891,"267":-0.105294,"268":0.114709,"269":0.175119,"270":-0.105971,"271":0.010408,"272":0.072709,"273":-0.102742,"274":0.115792,"275":0.046669,"276":0.096639,"277":-0.142776,"278":-0.221242,"279":0.041096,"280":-0.090316,"281":0.114531,"282":0.18954,"283":-0.224903,"284":-0.111172,"285":-0.026682,"286":0.002871,"287":-0.102061,"288":0.031693,"289":0.040133,"290":-0.046315,"291":-0.078916,"292":0.181163,"293":0.143224,"294":0.059623,"295":0.041684,"296":0.203225,"297":-0.17036,"298":-0.087698,"299":0.17928,"300":0.027055,"301":0.076458,"302":0.078685,"303":0.042569,"304":-0.084083,"305":-0.144589,"306":-0.209494,"307":-0.133377,"308":-0.166984,"309":-0.221363,"310":0.096439,"311":-0.060635,"312":0.002926,"313":0.136189,"314":0.086799,"315":0.080505,"316":-0.101494,"317":0.113203,"318":-0.154097,"319":-0.011798,"320":-0.201701,"321":0.096359,"322":-0.198042,"323":0.124527,"324":-0.071941,"325":0.131328,"326":-0.272717,"327":0.131681,"328":0.209592,"329":-0.145676,"330":-0.11365,"331":-0.102412,"332":-0.006134,"333":0.062513,"334":0.039588,"335":-0.196414,"336":0.172259,"337":-0.157303,"338":-0.04168,"339":-0.142813,"340":0.180029,"341":-0.189444,"342":-0.114023,"343":-0.139981,"344":-0.073078,"345":0.099968,"346":-0.106022,"347":0.125173,"348":-0.099591,"349":-0.082348,"350":-0.026156,"351":-0.034428,"352":0.055796,"353":-0.169052,"354":0.029017,"355":0.236085,"356":-0.020349,"357":-0.066768,"358":0.159924,"359":-0.081295,"360":0.031753,"361":-0.038564,"362":0.053637,"363":-0.174863,"364":-0.014428,"365":0.180485,"366":-0.071523,"367":0.003948,"368":-0.069309,"369":0.193649,"370":-0.073641,"371":0.038627,"372":-0.0748,"373":0.028629,"374":-0.173453,"375":0.132634,"376":-0.126486,"377":-0.139613,"378":0.073937,"379":-0.005453,"380":-0.246207,"381":-0.028186,"382":-0.000007,"383":-0.112847,"384":-0.143915,"385":0.068764,"386":0.158113,"387":-0.152552,"388":0.085671,"389":-0.079975,"390":-0.025526,"391":0.08524,"392":0.144018,"393":-0.08845,"394":-0.013742,"395":-0.14494,"396":-0.132388,"397":-0.19417,"398":-0.056277,"399":-0.199709,"400":-0.112876,"401":-0.113417,"402":-0.084621,"403":-0.153386,"404":0.197755,"405":-0.162459,"406":-0.200312,"407":0.032778,"408":-0.105156,"409":0.000723,"410":-0.087744,"411":0.018433,"412":-0.012481,"413":0.00879,"414":0.082241,"415":-0.181343,"416":0.200175,"417":-0.144095,"418":-0.15236,"419":-0.00515,"420":0.071937,"421":0.118629,"422":-0.046094,"423":0.177173,"424":0.087361,"425":0.104866,"426":0.096408,"427":-0.105501,"428":0.037151,"429":0.173576,"430":0.049278,"431":0.192661,"432":-0.152768,"433":0.074609,"434":0.015292,"435":-0.11397,"436":0.046946,"437":0.075167,"438":0.094245,"439":0.102862,"440":0.157429,"441":-0.132801,"442":-0.099829,"443":-0.044049,"444":-0.035224,"445":0.024395,"446":0.167078,"447":-0.134679,"448":0.172254,"449":0.160248,"450":-0.038687,"451":0.115434,"452":-0.143152,"453":-0.062092,"454":0.19156,"455":0.199589,"456":-0.030795,"457":-0.059788,"458":0.168291,"459":0.022991,"460":0.168715,"461":-0.116384,"462":0.153613,"463":0.015304,"464":0.117481,"465":0.14492,"466":-0.033519,"467":0.219349,"468":0.12819,"469":0.1819,"470":0.121725,"471":0.15797,"472":0.15484,"473":0.052904,"474":-0.091601,"475":-0.104425,"476":-0.12202,"477":-0.002562,"478":0.188963,"479":-0.091953,"480":0.096052,"481":0.151432,"482":-0.014652,"483":0.114307,"484":-0.121685,"485":-0.112246,"486":-0.194057,"487":0.003763,"488":-0.064629,"489":-0.02286,"490":0.045243,"491":0.197476,"492":0.07109,"493":-0.061033,"494":0.043466,"495":0.108694,"496":0.062598,"497":0.181201,"498":0.025298,"499":0.079207,"500":0.041944,"501":-0.021271,"502":0.096067,"503":0.016971,"504":0.083852,"505":0.059564,"506":0.034809,"507":-0.035731,"508":-0.09748,"509":-0.08596,"510":-0.122109,"511":-0.14437,"512":-0.025989,"513":0.178855,"514":0.035646,"515":-0.090164,"516":-0.014948,"517":-0.141051,"518":0.132683,"519":-0.111273,"520":0.024794,"521":0.212335,"522":-0.057552,"523":0.134256,"524":-0.056909,"525":0.11157,"526":-0.021167,"527":-0.013931,"528":0.084527,"529":-0.04862,"530":0.405322,"531":-0.05555,"532":0.094735,"533":0.024998,"534":0.060821,"535":-0.17598,"536":0.014512,"537":0.174154}},"10":{"bias":-0.047131,"weights":{"0":0.173366,"1":-0.058805,"2":0.119382,"3":0.055207,"4":0.161376,"5":0.078708,"6":0.116913,"7":-0.168185,"8":0.068425,"9":-0.081512,"10":-0.122923,"11":0.035959,"12":0.062032,"13":-0.016956,"14":-0.036975,"15":-0.094085,"16":-0.10539,"17":-0.012218,"18":-0.171465,"19":-0.007896,"20":-0.040134,"21":-0.170526,"22":0.083391,"23":0.050631,"24":0.1281,"25":-0.040778,"26":0.004726,"27":0.081073,"28":0.097944,"29":-0.059807,"30":-0.051832,"31":-0.032607,"32":-0.029961,"33":-0.012022,"34":-0.06704,"35":0.145022,"36":-0.033065,"37":-0.069558,"38":0.093083,"39":-0.266382,"40":-0.247952,"41":-0.105543,"42":-0.17747,"43":-0.044855,"44":-0.151592,"45":-0.188954,"46":0.062751,"47":-0.063706,"48":0.165572,"49":-0.130671,"50":0.125333,"51":0.118293,"52":-0.046203,"53":0.186737,"54":-0.04121,"55":-0.146411,"56":-0.101602,"57":0.088289,"58":-0.177894,"59":0.071744,"60":0.060081,"61":-0.03922,"62":0.044613,"63":-0.192482,"64":-0.045023,"65":0.091402,"66":-0.096046,"67":-0.073922,"68":0.106061,"69":-0.103895,"70":-0.165968,"71":0.038615,"72":0.122106,"73":-0.060795,"74":-0.093975,"75":-0.106438,"76":0.211533,"77":0.053312,"78":0.035599,"79":-0.02262,"80":-0.004414,"81":0.157966,"82":0.094226,"83":0.09179,"84":-0.0458,"85":-0.033677,"86":-0.069068,"87":-0.173703,"88":-0.034377,"89":0.165765,"90":0.133266,"91":0.087574,"92":-0.104786,"93":0.057991,"94":-0.015582,"95":0.014464,"96":-0.022835,"97":-0.210155,"98":0.0066,"99":-0.115947,"100":0.045493,"101":-0.075975,"102":0.18963,"103":0.025355,"104":-0.124568,"105":0.173953,"106":0.172985,"107":-0.070295,"108":0.045037,"109":-0.158867,"110":0.131976,"111":0.206801,"112":-0.161618,"113":0.223266,"114":-0.241033,"115":0.140516,"116":-0.024805,"117":0.054516,"118":-0.122507,"119":0.032754,"120":0.177846,"121":0.14465,"122":-0.019022,"123":0.194319,"124":-0.058101,"125":0.116934,"126":-0.035466,"127":0.024666,"128":-0.111146,"129":0.101658,"130":0.056655,"131":0.130048,"132":0.156384,"133":0.151738,"134":0.112376,"135":0.022126,"136":0.071337,"137":-0.10606,"138":0.180308,"139":0.098478,"140":-0.042755,"141":-0.239851,"142":-0.060238,"143":-0.135088,"144":-0.095712,"145":0.074111,"146":0.108636,"147":-0.078761,"148":0.14942,"149":0.105511,"150":0.114652,"151":0.008429,"152":0.155217,"153":0.142338,"154":0.02557,"155":0.013259,"156":-0.048374,"157":0.092974,"158":-0.134218,"159":0.140406,"160":0.179435,"161":0.099499,"162":-0.026244,"163":0.139661,"164":-0.071107,"165":0.05627,"166":0.09996,"167":-0.165084,"168":-0.087091,"169":-0.177051,"170":-0.150054,"171":-0.047537,"172":0.086716,"173":0.057502,"174":-0.164618,"175":0.182999,"176":-0.168549,"177":-0.204405,"178":0.167755,"179":-0.15013,"180":0.156466,"181":-0.075323,"182":-0.24131,"183":-0.055818,"184":-0.087723,"185":-0.074989,"186":0.171725,"187":0.018076,"188":-0.085039,"189":0.118773,"190":-0.015071,"191":0.001782,"192":0.025212,"193":0.162204,"194":0.084539,"195":-0.112965,"196":-0.020431,"197":0.106609,"198":-0.063263,"199":-0.168725,"200":-0.14769,"201":-0.047579,"202":0.167537,"203":-0.193207,"204":0.050028,"205":0.105277,"206":0.190933,"207":0.119334,"208":0.010889,"209":0.009542,"210":-0.005141,"211":-0.017445,"212":-0.090488,"213":0.107405,"214":0.076088,"215":0.08098,"216":0.080808,"217":-0.161197,"218":0.138518,"219":-0.179612,"220":-0.01755,"221":-0.100008,"222":-0.058927,"223":-0.035411,"224":-0.131148,"225":-0.023247,"226":-0.126043,"227":-0.161785,"228":0.192737,"229":0.004231,"230":-0.02887,"231":0.023318,"232":-0.10117,"233":-0.095006,"234":0.176056,"235":0.059515,"236":-0.137506,"237":0.145797,"238":0.17994,"239":0.140586,"240":0.157166,"241":-0.079848,"242":0.077723,"243":0.138708,"244":-0.162558,"245":-0.19191,"246":-0.193403,"247":0.199224,"248":0.174884,"249":-0.194633,"250":-0.02152,"251":0.128536,"252":0.067706,"253":0.139365,"254":-0.00881,"255":0.176803,"256":0.12486,"257":0.052181,"258":0.175497,"259":0.094317,"260":0.151001,"261":-0.080437,"262":0.059815,"263":-0.185472,"264":0.019978,"265":-0.195838,"266":0.054411,"267":-0.227705,"268":0.069262,"269":0.123255,"270":-0.138183,"271":0.137889,"272":0.069514,"273":0.14903,"274":-0.08025,"275":-0.118143,"276":-0.053383,"277":-0.069229,"278":0.005816,"279":0.035942,"280":0.061783,"281":-0.138883,"282":-0.081299,"283":0.086238,"284":-0.025897,"285":-0.069896,"286":0.119241,"287":-0.172739,"288":0.053497,"289":0.047611,"290":0.046535,"291":0.107122,"292":-0.126089,"293":-0.226626,"294":-0.199235,"295":0.123516,"296":0.068847,"297":-0.047151,"298":0.074854,"299":0.138579,"300":-0.020016,"301":-0.116575,"302":-0.007642,"303":-0.24151,"304":-0.120528,"305":0.081449,"306":0.069023,"307":-0.115919,"308":-0.096691,"309":-0.119091,"310":0.0496,"311":-0.070422,"312":-0.045269,"313":-0.188505,"314":0.022693,"315":0.050699,"316":0.001423,"317":-0.201912,"318":-0.157506,"319":0.09363,"320":0.024644,"321":-0.13356,"322":0.202278,"323":-0.204154,"324":0.038727,"325":-0.150343,"326":0.098898,"327":-0.113183,"328":0.174021,"329":-0.032197,"330":-0.08551,"331":0.022891,"332":-0.034473,"333":-0.018712,"334":-0.11048,"335":0.087047,"336":0.064183,"337":-0.089403,"338":0.110486,"339":0.144621,"340":0.119031,"341":-0.124008,"342":0.154498,"343":-0.024991,"344":0.056071,"345":-0.03189,"346":0.020172,"347":0.069832,"348":0.075427,"349":-0.153459,"350":0.137021,"351":-0.103516,"352":0.205517,"353":0.148368,"354":0.133758,"355":0.012672,"356":0.029301,"357":0.146562,"358":0.078032,"359":0.071357,"360":-0.186639,"361":-0.028007,"362":0.116007,"363":0.050826,"364":0.142775,"365":-0.150246,"366":-0.014997,"367":0.011152,"368":-0.055542,"369":0.141467,"370":-0.139969,"371":-0.166936,"372":0.117763,"373":-0.00871,"374":-0.026988,"375":0.104902,"376":-0.170651,"377":-0.037389,"378":-0.098131,"379":-0.126471,"380":0.050722,"381":-0.009554,"382":-0.19378,"383":0.116059,"384":0.141466,"385":0.176181,"386":-0.159522,"387":0.022982,"388":0.134892,"389":0.154019,"390":0.005121,"391":0.017616,"392":-0.068427,"393":-0.054981,"394":-0.057617,"395":0.083144,"396":0.097085,"397":0.027348,"398":0.052083,"399":-0.192847,"400":-0.036814,"401":0.092942,"402":-0.13456,"403":0.05424,"404":-0.027002,"405":0.186556,"406":-0.19176,"407":-0.173354,"408":-0.025923,"409":0.152908,"410":0.172416,"411":-0.16201,"412":-0.025732,"413":-0.086319,"414":0.01856,"415":-0.104739,"416":-0.19148,"417":-0.04486,"418":-0.170483,"419":-0.125883,"420":-0.021712,"421":-0.066206,"422":0.110643,"423":0.163581,"424":0.152759,"425":-0.052629,"426":0.071959,"427":0.215019,"428":-0.19889,"429":-0.198833,"430":0.116778,"431":-0.026183,"432":0.118014,"433":0.044991,"434":-0.133226,"435":-0.157022,"436":0.101384,"437":-0.182167,"438":-0.17509,"439":-0.12474,"440":-0.165721,"441":0.001009,"442":0.061038,"443":0.154113,"444":-0.004987,"445":-0.063236,"446":0.079513,"447":-0.072229,"448":-0.035453,"449":-0.189929,"450":-0.197712,"451":0.109853,"452":-0.117835,"453":-0.143329,"454":0.138054,"455":0.008453,"456":0.032159,"457":0.090381,"458":0.055986,"459":-0.002847,"460":0.027122,"461":0.002603,"462":0.180513,"463":-0.041735,"464":-0.025372,"465":0.154603,"466":-0.186883,"467":0.0604,"468":0.157955,"469":-0.094185,"470":0.144414,"471":0.045091,"472":-0.136042,"473":-0.028864,"474":-0.085658,"475":0.119325,"476":-0.096389,"477":-0.098123,"478":-0.182641,"479":-0.053733,"480":-0.05362,"481":-0.203245,"482":-0.054903,"483":0.016422,"484":-0.135314,"485":0.032459,"486":-0.129882,"487":-0.019576,"488":0.062487,"489":0.033979,"490":0.02853,"491":0.006933,"492":0.004083,"493":-0.217048,"494":-0.081762,"495":0.041011,"496":-0.031485,"497":0.091285,"498":-0.156921,"499":0.14511,"500":-0.034701,"501":-0.041315,"502":-0.08409,"503":0.11262,"504":0.085098,"505":-0.020177,"506":-0.031675,"507":0.175165,"508":-0.060377,"509":0.120246,"510":0.145062,"511":-0.125423,"512":0.023289,"513":0.182498,"514":-0.071774,"515":-0.16975,"516":-0.027753,"517":0.020668,"518":0.08939,"519":0.109988,"520":-0.078533,"521":-0.049991,"522":-0.151341,"523":-0.018827,"524":-0.003809,"525":-0.114115,"526":-0.091343,"527":0.2,"528":0.049011,"529":0.033417,"530":0.260941,"531":-0.024237,"532":0.178677,"533":0.142391,"534":0.105964,"535":0.096499,"536":0.070218,"537":-0.007925}},"11":{"bias":-0.037731,"weights":{"0":0.011349,"1":0.085942,"2":-0.01311,"3":-0.140935,"4":-0.013679,"5":0.127355,"6":-0.034694,"7":0.129494,"8":-0.177905,"9":-0.193235,"10":-0.108338,"11":-0.130557,"12":-0.163867,"13":-0.167883,"14":-0.062908,"15":-0.091163,"16":-0.059986,"17":0.137512,"18":-0.197878,"19":-0.034587,"20":-0.135413,"21":0.078403,"22":0.128187,"23":0.146412,"24":-0.213214,"25":-0.08844,"26":-0.125792,"27":0.137856,"28":0.155811,"29":-0.071258,"30":-0.076837,"31":-0.111813,"32":0.084644,"33":-0.065835,"34":0.202501,"35":-0.097122,"36":0.077869,"37":-0.120681,"38":0.104224,"39":-0.23798,"40":-0.18092,"41":-0.001733,"42":-0.031314,"43":-0.16815,"44":-0.243254,"45":-0.150396,"46":-0.153224,"47":0.098536,"48":-0.060778,"49":0.078426,"50":0.000125,"51":-0.149152,"52":-0.227441,"53":0.159532,"54":-0.062059,"55":-0.221282,"56":0.127823,"57":-0.129477,"58":-0.102635,"59":-0.202038,"60":0.153274,"61":-0.129246,"62":0.172633,"63":0.08251,"64":0.025422,